4.082308
2.668467
0.083767
2.054181
2.205027
-1.465283
1.822314
0.800893
4.203728
-2.058198
-1.292336
-0.973165
-1.570508
-1.076824
-0.700795
-1.036946
-1.146982
-1.246347
-0.352585
-1.733895
1.612864
2.234176
-2.088789
0.588001
-0.773368
-3.433004
0.395032
-0.962758
0.839954
2.333235
-0.203022
1.884486
-0.740223
0.046149
-0.383191
1.149559
-0.671364
-0.207569
-2.673217
1.325412
-0.190495
-0.257759
-0.557678
1.051849
-0.790828
-0.953312
2.608373
-2.362874
0.551758
3.44601
-1.377113
-0.17566
-2.672193
1.509119
0.322891
-0.840376
2.922929
-1.20164
-0.085167
-0.029243
1.249994
2.095787
-3.541577
1.805247
-0.103337
-1.460967
0.792991
1.895704
-0.485832
-4.482659
0.561096
-1.623761
3.203593
-1.167061
-0.424258
2.39721
-1.780504
1.042231
-0.039378
2.722891
-1.360727
1.76263
-1.750849
-1.189176
-0.750703
2.89563
-1.677023
2.599149
-2.378076
-1.657759
-1.819174
-2.857888
2.374246
1.129478
-2.137437
1.974071
-1.074415
2.01147
-1.353221
2.0661
4.030109
-0.355672
-1.929651
1.584919
1.826718
0.413241
-2.876387
2.900824
0.039971
-4.419769
-1.847368
3.539396
-0.36602
1.078977
4.841727
-0.172412
-3.461834
1.623692
-1.585283
5.909421
2.227415
3.408368
-0.322029
-0.887354
6.885784
-0.305313
-0.247328
1.251529
-1.325638
-1.164769
-0.270316
-1.409158
-1.459713
1.645731
1.163761
0.732941
2.015311
-1.208699
0.025087
0.286422
1.810491
-1.746284
0.185352
1.462611
-1.624316
4.954045
1.539168
0.448787
1.445362
-1.766624
1.17707
-2.136085
-1.654169
1.003134
2.17487
-2.864155
-2.733706
1.540612
1.46381
2.379363
-2.038163
-1.503008
0.603125
-1.734843
-3.218958
-2.783239
-0.695453
0.098649
2.628867
-2.249816
0.295846
-1.011154
-2.342175
0.281355
1.654947
0.005977
-0.575244
0.489003
-0.622186
2.678729
2.46704
0.512505
1.06591
0.867722
-4.418739
-3.906105
-2.628127
-2.231033
1.886502
-2.622781
1.512766
-1.526206
-0.986591
-1.953009
-1.361128
-2.181711
0.80207
-0.301391
-2.756076
2.576173
2.094425
-0.120611
2.146491
0.822523
-0.600284
3.032668
0.573376
0.178729
0.88125
-3.157504
0.772639
2.418819
1.135098
-1.343607
-0.270622
0.023619
-2.688509
1.837764
-2.56114
-3.731707
1.285092
-0.562676
-3.247645
2.562784
-2.283022
1.189426
1.933277
1.474136
-0.810086
0.491823
-0.982489
0.026225
1.537909
3.18895
1.761426
-1.851921
2.621938
-1.7336
-0.814565
-0.894177
3.536911
1.916594
2.761628
2.096638
-4.763049
-1.492202
0.58129
-4.245097
2.25249
-0.369069
0.125127
1.719102
0.492832
-0.808156
-0.637632
2.670518
6.152474
-0.147274
-2.470906
-0.788711
2.892641
3.202765
-1.521755
3.829764
2.593513
-1.681196
-0.396386
-1.143682
-0.688042
1.256172
2.278345
-2.578037
3.987518
0.70103
0.172924
0.267124
0.172473
-2.177913
1.50056
2.23692
1.43359
0.592734
1.781241
-1.793765
-0.022468
0.488409
-2.606926
-2.747727
-2.009344
-2.492707
-0.290166
-2.880312
0.447585
2.850023
2.394224
-2.702435
-0.18431
-0.509212
-1.680122
-2.765297
3.28288
-1.688913
1.158211
-0.24694
0.203609
0.255141
-1.955779
0.08493
-1.204559
1.153818
0.103598
1.026766
-1.302302
2.272276
0.450769
-0.416856
-0.700862
4.253388
0.460665
2.334443
-1.337516
4.438216
3.535742
1.732126
1.063419
-0.103245
0.734499
-0.880705
-1.297242
-0.427637
3.550723
2.511876
0.196753
-2.488136
-2.925599
-1.184713
-2.409971
-0.987408
-0.215762
-0.817512
0.518194
2.807586
-1.565947
-2.299828
-4.172133
0.158526
2.227693
-0.840369
0.079026
0.418954
-0.389924
0.259929
-1.735733
-0.854947
1.234618
2.705014
-0.443593
0.349286
-0.511474
-0.896605
1.115859
-1.091928
-2.100053
-1.76876
-2.749059
0.380072
2.588004
3.717462
-0.348989
0.776622
-0.201008
-0.865423
-0.306284
-0.677426
-1.334373
-2.883479
0.049869
-0.752986
0.979857
2.639884
-1.85928
-1.065147
2.062254
4.953099
-3.10821
-1.789308
-0.9109
-0.136781
1.37134
0.112585
-1.222376
2.216021
1.233993
0.344184
-0.839827
-0.363195
-2.185151
3.449859
-0.729572
3.830054
-0.610502
-0.286153
-3.551577
3.405822
0.407377
3.24066
-2.254531
-0.173669
2.035967
1.903411
0.876979
2.271329
-1.744403
-2.040202
1.590891
0.751387
-0.022473
1.047088
-2.541596
-1.851807
-3.309686
0.503871
0.710239
-0.842576
0.195669
0.131825
-0.302831
1.256833
0.60987
-2.839058
3.662113
-3.060867
-3.103997
0.083046
-2.159572
2.394555
1.28724
-0.574545
-1.281549
-0.663884
2.014146
-3.86565
-2.956049
2.009344
2.342295
3.094706
1.093115
1.426886
0.10786
-1.207435
-0.695276
0.432858
-0.436708
2.275799
2.67217
3.191097
2.430257
-0.158256
0.88089
0.187303
-0.092253
-0.300496
-0.314293
0.406505
0.05129
2.717631
-0.320154
1.831555
-0.77189
-0.343998
-3.527473
3.083718
-0.111756
-1.395363
0.25592
3.405334
-0.433977
-3.372731
-0.536964
1.679026
-0.42817
-1.230603
0.729999
2.030583
-2.336787
-0.01106
0.334598
1.67511
-0.414142
-1.129679
0.054082
-1.775435
-2.047534
-0.954457
0.474376
1.311965
-0.20328
1.874624
-0.060229
0.721921
-3.706163
-3.685935
-1.37098
-0.862623
-0.317522
-1.447068
-1.491662
-0.288491
0.618756
2.331361
2.711497
-2.442296
0.363541
0.465494
0.53372
1.558833
0.384064
-2.980785
-3.376866
-1.275563
1.898637
1.246063
2.451109
-1.269081
-0.164754
-0.225321
-5.79779
-2.824469
-2.154666
1.330303
0.54409
-3.143087
-0.912664
-1.81093
0.827568
0.096033
0.995149
1.796646
1.803312
4.936954
-4.330848
-1.338974
2.533542
0.188914
2.993074
-0.679685
-0.16188
1.94536
-1.922878
-1.565243
-2.686587
-0.103735
-2.018991
-0.575469
-1.981768
-3.698896
0.154123
0.90342
-0.210096
-0.534519
-3.748114
-0.925283
-3.801369
-0.116297
0.147328
-2.088184
-1.876587
2.413765
0.039337
0.062272
2.590454
0.94684
-0.250956
1.961134
2.698372
0.680357
-0.729233
-0.014883
0.90207
1.998058
0.295012
-0.319886
-0.797067
4.098131
-5.901419
-1.391007
0.491112
0.388013
-0.298215
7.697181
-0.782073
-0.018555
-1.829347
-1.54986
-2.816092
-4.634085
-2.059238
-1.570356
-1.14726
0.825283
-1.44672
1.340625
0.842731
0.23136
-2.057085
-0.851803
-0.083862
0.825809
0.208171
-0.585174
1.476535
-0.741506
-0.845542
2.464218
1.665101
0.480033
-1.10084
1.654328
-1.220137
-0.104458
0.142637
2.073158
2.199723
-1.691498
0.489314
-1.174779
-5.172184
-2.734311
-1.90487
-3.553273
-1.110599
1.353114
3.672172
0.104999
-2.918809
2.633481
-2.811491
1.942605
1.550564
-0.341908
-0.363833
-0.026092
1.306004
-0.973104
1.653496
-1.60592
0.564782
4.29132
-0.980729
-0.825063
2.262358
1.980626
2.48801
4.721166
1.864226
0.522982
0.18353
-3.229963
2.44015
0.600079
0.913736
0.521494
1.282967
-1.430905
1.275747
-1.530564
0.483396
5.51435
0.540918
-3.964845
2.211302
-1.243158
0.6147
-1.248636
0.528933
2.235484
-2.01969
3.181352
-0.197236
1.405961
0.549555
1.610458
0.807674
0.735082
-0.587889
0.808053
3.103168
-4.418519
-1.716966
-1.847344
0.587808
0.160521
0.453427
-1.774748
1.223346
-0.502422
-1.894775
2.739043
-3.397149
-3.037653
2.35208
2.517104
-0.852471
-0.758119
1.076995
-0.675667
1.016482
-2.884733
-1.59092
-3.342226
2.7136
0.024591
-0.652362
-2.272441
-0.553719
1.034763
-1.215136
0.982493
1.502527
-2.780059
1.979855
1.170183
0.534554
2.635194
2.00251
0.995864
1.506329
0.575007
3.069663
0.123669
-1.399888
-0.761053
-0.777808
-0.087781
-2.348281
1.675305
-0.012143
-1.793691
2.262092
-1.309257
-3.696033
2.586244
-3.128167
-0.665837
0.054264
-3.56163
2.283807
-1.483143
-2.449406
0.394264
-4.694022
0.748159
-2.422375
-1.115012
-3.050216
-2.163883
2.027391
1.599002
1.470135
0.364301
0.734089
-0.710135
-2.680547
-1.741053
-1.188736
4.108059
-6.010631
1.167611
-1.506788
2.648184
-3.250497
-0.182742
-1.40642
1.121077
0.83959
-3.034507
1.532001
-1.184648
1.026915
-1.165189
-0.862531
-1.333129
0.403469
0.265125
0.466672
3.10912
-2.174636
-0.199793
-2.875839
1.585619
2.701095
2.606101
1.941103
-1.346482
2.106652
1.823709
-5.754987
0.159444
-2.907296
-0.507951
0.656586
-0.429633
-0.956135
3.033385
0.906186
1.884754
3.305931
-4.026069
-2.465319
2.833375
1.268152
0.791841
-3.111127
0.724699
-2.716103
0.864723
2.318572
-1.698304
6.800269
-6.041565
-6.423492
1.903259
-0.412272
-1.125481
-0.551882
1.370017
-2.969763
-2.179753
0.200072
-2.236093
3.209976
-1.120788
-3.741517
-3.017221
-1.620111
0.42345
0.191305
2.988
-4.215377
-2.013799
0.96708
-0.105715
1.030161
-2.801938
1.134578
-1.782962
-0.77491
-3.017968
0.48945
2.169913
0.284623
-6.380753
1.133061
1.518904
1.141978
-2.115966
-5.5122
-0.784154
-1.546042
2.486217
-1.914516
0.037277
-2.460385
-2.242449
0.85872
1.130961
1.341451
-2.957924
-3.132207
2.239718
-0.019338
-1.729857
-3.089255
0.298298
4.877494
0.972053
-3.419184
1.536387
1.572763
-0.907683
2.095159
-0.820907
0.489342
-0.825184
5.778611
-5.277805
-0.503352
-1.527694
-1.697538
-2.00516
-1.645087
-3.937591
-4.204534
-0.55827
5.416692
3.018762
4.080245
0.628133
-6.577427
-3.929514
-0.254309
-4.862923
1.492322
-3.328549
1.768391
0.782054
-0.946745
-0.775084
-2.17682
3.464928
-2.461156
0.585198
2.795001
-1.096946
-0.739278
-3.136026
-2.832157
2.118037
-2.814273
-3.096511
-4.414899
-0.220841
-2.80879
0.319164
-0.64462
1.933821
0.84784
-0.322995
1.143298
-2.960458
3.04958
1.749122
-6.688305
-0.160536
1.422892
0.557624
-1.219799
-0.281249
0.927966
1.282676
1.071564
-2.615143
-2.175498
-1.140679
1.508061
-0.462991
2.007574
3.069671
-1.305049
-0.839014
3.778924
-1.653746
-3.884118
-5.719177
-0.209275
0.395474
-0.417923
-1.485826
1.115225
-0.625448
0.632237
-0.388154
-2.295917
-2.343382
-3.907023
2.315223
-1.616282
-3.554217
-0.02057
-1.61191
0.076289
0.220322
0.119601
-0.12149
-2.058649
-0.131977
0.308746
-2.11616
-2.105163
-0.144406
1.77072
-1.540965
-0.147073
1.99807
3.507775
-2.267857
1.128632
-5.025155
-1.85868
-1.119687
0.023209
-1.676752
-2.399127
5.058518
-1.305555
-1.391445
-2.726542
-2.867625
1.442899
3.244752
-2.824485
-0.805222
0.256421
-0.108621
-0.180151
1.121025
-2.309003
-1.605982
-1.299929
3.108209
1.409027
-1.343948
-0.145911
-3.252153
-2.933311
3.168385
-1.345228
1.049566
-0.385325
0.831037
1.043672
1.404079
-2.288325
5.257182
-1.818688
-2.256002
-2.055777
2.1738
-1.430599
-1.144658
-0.560594
-1.001208
-0.025656
-4.09913
3.744471
1.136116
-2.458191
1.346565
0.645243
-1.029011
-3.483286
-2.123031
0.611032
-1.411134
-0.367115
0.923935
-0.232207
-0.605704
6.138893
0.264889
3.1016
1.175651
3.585027
-0.87869
-2.390119
-3.377927
6.669942
-5.854652
-3.631353
-6.849067
0.842037
-1.184735
-1.189068
-2.779592
0.986513
-1.96136
-0.278612
-0.627518
0.733041
-0.541311
-6.239276
0.404438
-0.430202
-1.023807
-0.689457
-0.755081
-0.044205
-1.283086
-0.131185
-0.3451
-3.242555
0.800165
-1.363565
0.934505
1.61964
1.541324
1.44884
-1.101926
-2.19145
0.123352
-0.682417
-1.201356
-2.227142
-1.005819
-2.05163
2.842837
-2.063922
-0.154399
-1.737175
-0.758882
-0.446315
2.582698
-0.325873
1.180486
-0.180925
-0.622584
-0.837549
1.602313
0.698582
0.542214
-0.598799
-0.377216
-1.39705
-2.048804
-5.072492
-1.615093
0.791943
0.005358
-1.630351
-0.90704
1.786655
-1.500351
-1.3734
2.590783
-0.30157
0.158484
-1.359253
-0.781997
-0.000365
-2.30151
-0.545649
-1.352481
-0.469846
-0.270344
1.968189
-0.316579
1.030233
-3.256836
-3.023212
1.448913
1.121875
-2.077066
3.579777
1.500044
3.142214
-1.960138
-3.743959
0.789051
-1.253835
-0.15139
0.011276
-1.777371
-0.257135
1.547736
-1.113946
-0.773194
0.18216
-0.278363
-1.527062
-1.338404
-0.276943
0.004286
-1.665503
-0.585453
-0.836209
-0.28469
-0.363604
-0.134733
-0.286026
-0.689493
-2.619585
2.423032
1.408061
-2.292403
-1.674856
-1.399263
-2.363771
3.252846
-1.230133
-1.804745
1.1552
