1.357326
1.20416
-0.358555
1.059687
0.994917
-0.824519
0.619449
1.368063
2.575133
-0.913223
-1.294914
-0.520981
0.668981
-0.597423
-0.67704
0.553527
-0.904688
0.146501
-0.114579
-0.741391
0.336901
1.447766
-0.218204
0.952232
-1.82383
-2.103899
0.108384
-1.530497
1.469285
1.839485
0.388441
0.590579
-0.515163
0.735455
-0.321315
1.800318
-0.08407
-1.127526
-1.871664
0.76507
-0.255135
-1.016909
0.59309
0.638185
-0.42504
-0.513158
0.685508
-0.643056
-0.397939
0.958446
0.096839
-0.657185
-2.372394
-0.031034
1.226538
-0.704812
1.272339
0.591532
0.328528
0.147235
0.968382
-0.570521
-2.162603
0.205596
0.755211
-1.289088
0.280539
0.88004
-0.355987
-2.87446
-0.189882
-1.556499
0.886574
0.152117
0.313917
1.42921
-0.439303
-0.365494
-0.388495
1.54608
0.82764
0.816308
-0.461031
-0.244113
-0.705419
0.396425
0.051525
0.879789
-0.466549
-0.062478
-2.021867
-1.539131
1.882914
0.339964
-2.12577
-0.058405
-0.351007
0.137856
-0.60462
0.953285
1.460506
-1.089258
-1.580366
0.915775
0.312457
0.369194
-1.093282
1.342346
1.569404
-1.381021
0.108197
0.986994
1.215598
-0.74562
2.546227
1.766358
-1.266568
1.349976
-1.003309
0.658795
0.883836
0.702643
-0.78524
-1.102733
2.625237
0.992905
-1.279823
-0.432995
-0.804541
-1.317187
0.359228
-0.111081
0.569577
0.650718
0.301451
-0.206549
1.309932
-0.419803
0.440303
0.367691
-0.29299
0.274197
-0.357486
-0.415529
-1.554143
3.011065
0.235949
-0.655771
0.743924
-0.175661
1.08004
-0.760722
-1.210246
-0.171181
0.292205
-1.33008
-0.258059
-0.061512
0.864956
1.070126
-1.416767
0.114028
1.205921
-0.949247
-1.45815
-1.934053
0.077347
0.147291
1.18785
-1.008531
1.368244
0.730403
-1.066488
-0.648299
0.75671
0.084283
0.19599
0.143036
-0.19252
0.912229
1.60455
0.030918
1.173579
0.587804
0.09758
-1.621012
-2.254139
-0.356627
1.010784
-1.064304
1.568126
-1.169171
-0.077974
0.476709
-0.413981
0.293114
-0.892715
0.125499
-0.913621
0.560403
1.357834
1.0264
-0.726364
0.194806
0.225329
0.983595
-0.862975
1.183731
0.356764
-0.870347
1.606981
1.59848
2.150593
-0.159417
-0.666643
-0.736877
-1.255507
0.871744
-0.66411
-2.532947
0.116754
-0.02097
-1.763889
1.45563
-1.559446
0.172814
1.155308
1.39097
-0.790857
1.83325
-0.068514
1.638168
0.320863
0.93416
0.171857
-1.319293
0.666297
-0.08769
-0.162258
-1.13545
2.124279
1.410794
-0.271045
0.980304
-2.146868
-0.206748
-1.078439
-1.788481
1.568926
-0.092883
0.262199
0.202954
-0.002011
0.725076
-0.695351
0.311662
2.201853
0.459499
-0.121255
-0.835372
0.27225
1.099227
-0.005029
1.230303
0.583716
-1.310665
0.516011
-0.54922
-0.850549
0.392176
0.995846
0.06314
1.256203
0.952404
-0.452909
0.337865
0.68734
-0.385077
-0.825617
1.47174
0.826864
-0.432193
0.864366
0.542143
-0.983373
0.421161
-0.470853
-0.849585
-0.778704
-1.156455
-0.462686
-1.704392
0.793416
-0.13369
1.03909
-0.300533
0.478794
-0.522891
-0.320488
-1.727522
1.280681
-0.363762
-0.454543
-0.903769
0.474098
-0.253817
0.637054
0.461798
-0.419959
-0.717916
-0.509768
1.273417
-0.459614
0.695471
0.29996
-0.662055
0.330754
3.317747
-0.0249
1.047639
-0.861048
0.985458
0.730395
-0.388949
-0.281917
0.674277
0.346049
-0.367224
0.208609
0.204692
0.01262
0.01522
0.233074
-1.006401
-3.211972
0.709097
-1.742774
0.127241
-0.571369
0.257796
0.498736
0.778073
-2.003413
-1.565672
-1.056581
-0.042245
1.401339
-0.750987
0.998368
0.025604
0.156429
-1.192258
-0.307353
-0.813446
-0.73459
0.702194
-0.628335
1.500976
-0.842549
-0.737879
1.322624
-0.674532
-1.199227
0.530964
-2.061524
0.111728
0.860882
2.028498
-0.690008
-0.268059
-0.263368
-0.229542
0.425262
0.763334
0.440045
-0.893541
0.800357
1.076299
-0.113427
0.562338
-0.676593
0.359342
1.242121
1.733889
-1.811102
-2.207555
-0.335088
0.772933
0.113556
0.231604
0.012125
1.096855
1.149233
0.016412
0.286794
-0.343828
-0.309644
0.841997
0.543263
-0.534736
0.726175
1.233412
-2.621507
1.993368
1.077555
2.962805
0.323687
0.644847
0.141063
0.435789
-0.595682
1.426227
-0.568248
1.368732
0.678411
-0.610084
-0.135791
2.18984
-1.229345
-1.264598
-1.508899
0.763686
1.183933
-0.40374
-0.061692
-0.302166
0.404403
0.166368
0.594619
-1.933759
1.992433
-0.594307
-1.742899
0.047757
-1.170112
0.309634
-0.662447
0.458652
-1.017124
-0.926727
0.660134
-2.046382
-0.600375
0.060749
-0.019494
0.337073
0.412588
0.214504
-0.224183
-0.529745
-1.271843
-0.12311
-0.697501
-0.847394
1.870317
1.118477
1.820049
-0.251566
-0.27363
-0.157314
0.508891
-1.195318
0.345999
1.532704
-0.400295
1.59892
0.47337
2.970733
-0.025287
-2.043385
0.592464
1.753007
0.785022
0.301988
-0.732052
1.524435
0.953891
-1.41184
-0.356519
0.277882
-0.000686
0.498847
-0.042641
1.078775
-0.408076
1.492889
1.108609
-0.355532
0.28706
-1.239398
-0.105567
-0.103527
-0.333687
-0.76415
-0.887762
-0.070523
-0.579195
1.124668
-0.180593
-0.04506
-1.201637
-0.860116
0.229644
-0.440203
1.238055
1.243773
-1.631281
-0.169093
1.850035
1.155505
1.752586
-0.030234
0.088313
-0.182111
0.550799
1.698596
0.752254
-0.125235
-1.933899
1.430803
-0.1632
0.690738
1.817704
-0.255843
-0.566866
0.417296
-2.172409
-1.266669
-0.468667
-0.232046
-1.064988
-0.858999
-1.017063
-1.35251
1.0501
1.27022
0.564845
1.086341
1.60242
1.386033
-2.201145
-0.428754
0.753841
-0.497839
0.605152
-1.508583
-0.003723
0.496134
-0.657092
-0.349969
-0.655843
-0.303799
-1.264838
-0.757528
0.010913
-2.242642
-0.119624
0.483198
-0.393467
-0.620741
-1.483802
-0.193758
0.073684
-0.192321
-0.355596
-2.247328
0.425823
0.532631
0.391732
0.654855
-0.586386
0.883067
1.096901
2.097219
1.402741
0.118782
-0.072833
-1.649795
0.568776
1.234658
-0.67486
0.989283
-0.867866
0.993698
-2.008527
-0.149844
0.024216
0.475535
-0.278683
1.601775
-0.152679
0.535391
-0.804269
-0.943378
0.039424
-0.993878
-0.06932
-0.345733
-0.650525
-0.250382
-0.631428
0.656378
-0.408109
-0.314982
-1.27275
-1.207093
-0.924453
-0.694464
-0.392505
0.379058
-1.383916
-0.924817
0.582024
0.519678
0.509659
1.266308
-0.098142
0.80435
-1.155465
-0.356009
1.156559
1.290736
2.194934
-1.91798
-0.005381
-0.551401
-3.35243
-0.996918
0.050837
-0.384205
0.311615
0.636959
0.650221
0.80065
-1.074771
1.972949
-0.328941
0.747743
0.28635
-0.813776
1.012508
0.104824
1.344749
-2.143446
0.227823
-0.784649
-0.125408
-0.886549
-0.446168
-0.306107
1.268251
0.62869
0.91455
1.728576
-0.187882
-0.150852
-0.511531
-0.546486
0.105362
0.29943
0.802991
0.693046
0.890112
-0.236684
-0.483496
0.197501
0.307649
1.14531
-0.240044
-1.310893
1.992024
-0.458306
-1.103675
-1.137062
-0.048589
1.051493
-1.133854
1.41813
-0.137852
-0.026107
-0.21132
0.41396
1.73702
1.512295
-0.878804
0.395681
1.997392
-2.187822
0.467037
-0.218649
-0.297114
2.124698
0.774601
-1.942852
0.408436
0.51608
0.154172
1.078688
-1.448668
-1.951669
1.526632
1.729855
0.220916
-0.832891
0.492665
0.085831
0.813031
-1.510269
-1.153445
-0.825016
1.52689
-0.807706
-0.421671
-0.868931
0.577645
-0.177849
0.098219
-0.508914
1.031763
-0.378018
-0.169283
-0.22635
0.340611
1.159721
2.631404
1.233758
0.677743
-0.062337
1.117173
-0.136154
-0.324469
-0.782714
0.668591
1.648657
-0.773369
0.967699
-0.206292
-1.778429
0.611098
0.440802
-0.229154
0.67825
-0.400994
-0.279462
-0.172429
-0.123639
0.937666
-0.778709
0.097002
0.184813
-2.601373
-0.117801
0.35581
0.704933
-0.399009
-0.371764
0.482076
-0.786219
-1.273044
-0.157322
-0.491263
-0.352169
-1.783019
-0.00429
0.311697
0.820404
-0.808439
0.384088
-1.663044
1.065392
-1.887475
-0.217632
-0.82718
-0.084204
-0.495321
-1.353147
-0.317988
-0.141791
0.77354
-0.562579
0.205312
-0.087899
-1.139188
-0.024583
-0.026541
2.311227
-0.578711
-0.237307
-1.533722
1.138303
2.44338
0.523519
0.233868
0.375143
0.626343
0.95972
-1.074736
0.41014
-0.737829
0.679536
0.018046
-0.716543
2.463375
-0.301588
0.975519
-0.028487
1.163711
-0.014291
-1.938875
0.682205
1.238809
2.827055
-0.820716
0.138496
-1.815506
0.122563
-0.345497
0.415831
2.626283
-1.42497
-2.283693
1.071045
-1.260833
0.554049
-0.235886
1.348046
-1.237554
-0.913715
0.698222
0.562315
1.597551
-0.143825
-1.360858
-1.264794
-0.137762
0.493134
-0.813381
0.76027
-0.882338
0.029961
1.503984
0.191885
-0.437669
-1.230808
-0.315839
-0.308688
-0.307341
-0.646895
1.048469
2.632934
-0.213362
-2.250669
0.037439
-0.427044
-0.304367
-0.388405
-1.819593
0.429836
-0.239848
0.812939
-0.16317
0.9737
-0.764057
0.082059
-0.575404
1.300084
2.221945
-0.737913
-0.832014
0.783132
-0.850388
-0.522746
-0.504185
0.113411
0.406861
0.023312
-1.770539
1.790975
1.318282
-0.825485
0.83374
0.014361
0.224074
-0.602679
2.115243
-2.938976
0.573381
-0.486195
1.000129
0.300873
-1.594651
-0.224751
-0.791157
0.695595
1.624341
1.38464
2.034271
0.661814
-1.058874
-1.149479
-0.040248
-0.257505
0.668056
0.45564
2.032165
0.507917
-0.30131
0.737176
-0.584283
1.288842
0.118386
-0.093405
0.015619
1.599408
0.259543
-2.031682
-0.726917
1.414897
-0.681281
0.248151
-0.046839
2.089529
-0.217646
1.288733
0.162183
0.45959
-0.060722
-0.069317
0.732655
-0.160825
1.491725
1.860433
-2.887637
0.220822
-0.829233
0.461649
0.395251
1.523524
1.951201
0.474565
1.243212
-0.623865
-0.534782
-1.764843
1.801083
0.560238
1.376333
-0.356696
-0.69954
1.936604
0.835759
-0.742428
0.828318
-0.051375
-0.503028
0.342872
-0.420946
-0.592025
0.709179
2.116496
2.384405
-0.458297
-0.701612
1.256224
-1.104503
1.861614
-0.036021
-1.628263
-0.122243
0.922016
2.049741
-0.917063
1.39896
-0.361991
-1.250387
0.762567
0.056237
-1.762997
0.052381
-0.549767
1.087896
0.482192
0.186674
1.762012
0.997108
0.241936
0.709556
-1.774799
-0.362618
2.467294
0.245845
0.132294
-1.133662
-1.406697
-0.971698
-0.519847
-0.752886
-1.44926
-0.408413
1.919906
0.977428
0.534442
-0.185339
0.491455
-0.166264
0.494461
-0.172676
0.123142
-0.884324
1.126019
1.871514
0.076603
-0.673064
-1.310482
0.15956
-0.708595
-1.682299
1.195782
-1.143945
1.019674
-0.727245
0.994279
-0.035696
1.241675
-0.907006
-0.908655
-1.724188
0.61387
-0.326708
0.264138
1.488138
-0.890665
0.501929
-0.217414
3.67902
0.086079
0.075727
-0.030575
-0.802537
-0.189242
-1.830198
-0.250176
0.882716
0.153516
1.15082
-0.616468
0.102138
0.425097
1.988489
-0.221151
0.803216
1.67817
-0.361687
0.108373
-0.114362
-2.10504
0.438808
-1.557304
0.25717
0.419655
-0.868522
0.089593
-1.598637
-1.010906
1.105723
-1.563111
-0.534993
0.919672
0.640188
-1.048986
0.423256
1.325128
0.201962
-0.477223
-1.222922
-0.35413
1.20033
-1.556298
-0.396452
-0.884531
-0.798455
0.484048
-0.231831
1.924972
1.388929
1.234156
-0.159026
-0.853004
-0.0324
0.06406
0.359504
0.43895
-0.678686
-0.1157
0.360487
1.314404
-0.537021
0.50937
-0.821428
-0.288685
0.707348
0.382051
0.676822
0.407387
0.63882
1.403184
-0.730485
1.373231
2.403536
0.032671
-1.003124
1.456807
-1.211013
-0.469213
1.09017
0.7153
0.486154
-0.162857
-1.603688
-0.45554
1.760223
-1.55536
-0.635887
0.982165
0.514239
-0.099409
-0.069455
-0.659362
0.37333
-0.933786
-0.388059
-0.965291
-0.394932
-0.42155
1.685244
-0.611886
1.062114
-0.362295
-0.556022
1.783146
-0.381883
0.598421
1.902747
-0.870904
1.300892
-0.836984
-0.13951
0.770464
0.970748
0.062656
0.653648
-1.28404
0.255228
1.638651
-1.141971
-0.062067
-0.286179
-0.659978
-0.092871
0.164254
-0.696429
0.503476
-0.105404
0.129468
-0.333569
-0.570088
-0.096024
-1.007077
0.276559
0.009899
-0.944694
0.745544
0.834292
-0.52376
-1.428956
0.554759
-0.276552
2.137261
0.136701
-0.345291
0.942382
-0.362262
0.216209
-0.043414
0.733721
0.257203
0.022047
-0.09693
-1.166929
0.299155
-0.560732
-0.397265
0.720357
0.189949
0.529716
-0.800235
0.178037
0.125922
0.235612
1.236956
-0.527678
0.536916
1.32588
0.292164
0.850573
0.770441
0.223517
0.554376
0.822016
0.906962
-0.588495
1.37252
0.488599
1.351021
-0.904918
-0.103485
1.085675
-0.839931
2.763832
0.974078
-0.299692
-0.686445
1.866665
1.319153
0.099368
0.450912
-0.367584
-0.197688
-0.642329
1.365828
-0.505741
0.225078
-1.795463
-0.909504
2.180542
0.332873
1.663412
1.565534
-0.426791
0.094577
-0.365551
-2.599407
-1.241386
-0.593164
0.887364
0.678781
-1.423619
-0.789321
1.330952
2.049669
-2.060406
-0.244283
-0.786421
0.909778
-0.106275
3.065025
-0.624676
0.124051
-0.119555
0.701791
0.50691
-0.037205
0.069704
1.52482
-0.868379
2.248985
-0.423842
0.614203
-0.569694
-0.940587
-0.087513
0.304569
1.339478
-1.342364
1.18424
-0.668898
0.197708
0.560924
0.696518
-1.977142
-0.198745
0.780874
-0.590125
0.165062
-0.290148
0.550066
0.033842
0.877656
0.434415
0.134866
-0.175771
1.022294
-0.540216
-1.501889
0.016111
-0.378674
0.246096
-0.186626
0.629193
-0.383495
-0.057808
-0.599558
1.055737
0.783117
0.538131
-0.550273
0.058841
1.803271
0.647828
-1.22538
0.685969
0.882262
0.211642
0.23295
0.60161
0.734633
1.352107
-0.169582
0.674949
0.209717
-0.513491
-0.630416
-0.434451
-1.463237
1.830843
0.947549
-2.205802
0.777012
-1.721278
0.641632
-0.266962
0.049218
-0.098464
1.033372
0.524832
0.928265
-0.658208
0.740299
0.405234
-0.838052
1.885292
-0.304005
-0.500529
0.005831
-0.427984
0.946964
0.359642
2.24562
0.578173
-0.109076
-1.807536
1.020362
1.138975
0.706274
-0.449498
-0.828675
1.173159
1.072071
0.715902
1.386948
0.430531
0.304338
0.253343
0.419805
0.59873
0.067712
0.71682
0.85945
-0.521527
-0.25007
0.071267
1.562184
0.714744
-0.91554
-0.78736
0.562895
0.044452
0.454139
0.456936
0.813674
-0.642816
0.377066
0.7098
-0.380297
-0.002149
1.550447
-0.01945
-0.412092
0.143309
-0.089702
-0.943724
1.83224
-1.018044
-0.270352
0.442024
-0.52174
1.282713
1.08461
0.640084
-1.097503
0.977288
-0.844613
0.895379
-2.042539
-1.282815
0.345518
0.083561
-0.206456
0.191971
-0.319337
-0.125117
-0.792476
-1.682506
-2.082458
1.628284
1.057122
0.885199
2.071271
0.822363
3.360928
-0.150852
0.879567
1.753333
-0.61376
0.20845
0.338342
-0.284694
-1.261287
-0.589938
-1.008047
0.178977
0.164635
-0.909258
0.186208
-0.272953
0.076735
-0.662022
0.884171
0.217325
1.164664
1.50553
0.483835
0.394996
-2.203933
-1.903131
1.846689
0.73739
1.562333
2.031105
1.059461
-1.312337
0.279077
0.486971
1.292933
0.05544
-0.554475
2.078481
2.366454
-0.150965
0.165917
-0.263475
-0.465418
-0.849604
3.341442
-0.241798
1.409488
0.878345
-0.146795
-0.783355
-1.416324
-0.471083
1.421497
-1.086505
-1.136078
-0.966386
0.746437
-2.137988
0.707759
-1.127343
-0.233972
-0.406742
0.124468
0.423036
0.015249
-0.264372
1.350866
0.104171
0.30963
-1.015975
-1.28272
0.446319
-0.843869
-0.442127
-0.716073
1.895889
0.430818
-0.015648
0.609342
1.294186
-0.385721
0.211963
-2.00666
1.172795
0.539895
-0.086682
-0.873735
-0.87699
-0.518886
-2.98685
-2.200664
0.331853
0.556101
-2.382389
-0.754416
-0.069241
-2.263021
0.665951
1.90998
0.167222
-1.076865
0.022027
-1.844721
0.226669
-1.273615
-0.519241
1.279339
1.945235
2.044758
0.621734
0.154311
-0.026822
-2.118055
-1.970814
0.394439
0.729429
-0.164519
-0.216303
-0.464033
-3.448446
1.9214
-0.396762
-0.14567
-0.138113
2.635596
2.552943
-1.147267
-0.52054
0.400301
-0.948098
-0.847934
2.287501
0.460432
-0.419066
0.451259
-1.299078
-0.153883
-1.464081
0.632393
-0.481068
0.156228
0.768241
-0.125213
-0.234169
0.064802
-0.508285
3.770874
-0.782474
-1.213144
1.441675
1.124382
-1.284641
0.737725
1.75889
-0.291128
-0.772922
2.068774
0.544529
-0.373025
-1.046223
-0.047497
1.283644
-1.988413
0.134274
0.761703
1.770733
-1.430915
-0.229149
2.432512
1.539185
0.319008
0.681298
-0.382976
1.48389
0.108355
-0.118159
1.756411
-0.199799
-0.421319
0.922358
-0.994655
1.334364
1.95617
-0.106063
0.330997
-1.906271
0.731672
1.062538
1.938927
0.706797
-1.1052
-0.146129
0.3117
0.399327
-1.775902
0.326378
0.755043
-1.284309
-1.661081
-1.644843
-0.424108
1.786224
-2.133701
-1.63078
0.814419
0.975803
-2.592424
-0.107228
0.312578
0.797831
0.965444
-0.833255
-1.230822
-0.95187
-0.836315
0.40211
0.772152
2.472997
1.508543
1.24956
1.242232
-0.165203
1.973607
1.522657
-0.097711
0.394684
-0.832952
1.986672
0.003494
0.112797
-1.56132
2.8527
-0.745842
-0.142208
-1.426289
-0.44747
-1.562105
2.260349
0.327731
0.949657
3.226256
-2.349876
0.230294
-0.318019
-0.36341
0.107182
0.271511
0.320547
-0.701165
1.793952
-0.120279
-0.080006
-0.289306
-1.135324
0.197983
0.968415
-1.010738
2.027554
1.828536
0.627828
1.60022
0.740023
-0.79021
-0.312008
-2.07678
-0.028305
-0.406117
-0.072936
-0.4347
1.54827
-1.49732
-0.115458
-1.61444
1.18005
-0.64092
1.84228
-0.981499
-0.712635
-0.706828
-0.411709
1.601941
-1.008814
1.534235
0.716317
-0.46262
0.653255
1.375411
0.053037
0.710448
0.029748
-0.657102
0.453675
0.097774
-2.821966
-2.145568
-1.881178
0.937171
-1.930749
0.99669
-0.942964
0.027833
0.628715
1.088657
0.375816
-1.846171
1.165599
-0.11089
0.873507
0.866954
-0.484983
-1.025237
-1.986479
0.3444
-0.138712
1.0549
0.388725
-0.768307
-0.046737
1.462914
0.908162
1.104433
1.515914
-1.49699
1.698192
0.288441
-1.218185
0.588015
-0.036082
-1.26191
-0.083334
0.7811
0.570575
-0.423531
1.558912
1.452892
-1.143332
-0.376922
0.247449
0.149227
0.08143
-1.966824
0.275898
-0.146779
-0.820395
0.222312
-2.416892
-0.570761
-0.139217
-1.13391
0.758223
-0.650072
-1.216831
-0.145485
0.614762
-0.394309
1.500144
0.200679
-0.224332
0.584021
-1.10778
2.385647
1.406704
1.172442
0.634185
0.42297
0.693667
0.950005
0.104579
0.181447
0.574648
-0.142356
-1.748697
-1.088293
-1.348557
0.825884
-0.733002
-1.007175
0.168179
0.786915
-1.501794
-0.331814
0.562917
1.288999
1.241363
-1.593035
1.989145
1.919148
1.733276
0.146668
-2.295118
-1.403666
0.881034
-1.23086
0.71308
1.062546
0.871417
-0.763305
0.107883
0.705695
-2.110495
1.610942
1.01499
0.408863
-0.061471
1.636095
0.134844
0.288442
-1.597002
-0.907127
0.333812
-1.503293
-0.385284
0.870005
-1.80858
-0.551909
-0.415105
-1.625345
0.765687
-1.235898
1.705735
-0.660035
-0.977039
1.249807
0.407241
-0.107704
-0.942717
-0.673599
-1.550211
1.992095
-0.037927
0.274463
0.423219
0.125817
-1.443401
-0.819166
-1.097957
1.197754
-0.741928
0.503601
0.056767
-1.350348
0.650207
-1.557051
-0.506267
1.354379
1.24691
2.486297
-0.931721
1.1155
0.43188
-0.859038
0.095467
1.01448
-1.025058
0.91773
-2.090203
-1.557095
-0.711168
-1.07459
-1.139587
-0.397948
-0.378382
-1.273859
-0.041201
1.372874
-0.075144
-1.602576
-1.412473
-0.655124
-0.065785
0.094729
0.857487
0.58236
0.154797
-0.668723
-1.345908
1.182426
-0.286069
-0.862731
-0.233341
-1.804166
-1.401044
-1.275858
-2.105886
0.769412
0.581271
2.999701
2.856217
-1.398258
-0.230177
-3.837805
1.078361
-1.070854
1.969515
-0.63473
-1.9015
1.293898
-0.575755
0.867089
0.710576
-0.533235
1.389855
1.122803
-0.977454
0.738501
0.845036
-3.029461
3.615574
-0.838717
-0.116678
2.481903
-0.738242
-2.968031
0.521031
-0.427476
-3.273014
0.914295
0.161347
0.907183
-0.639061
-1.68576
-0.398704
-0.064911
-0.430689
-1.78957
-0.446602
0.152453
-2.120209
2.607693
0.274739
-1.410508
-1.395992
-1.562946
1.145999
-0.076896
0.225766
0.202036
-0.086329
-0.356845
-0.264501
0.083061
-2.881663
-0.800406
-0.484282
1.365045
-0.5628
-1.463964
0.006919
0.376389
0.386715
-1.017263
1.030891
2.275584
-2.366394
-0.883232
2.189553
-0.433893
-0.458026
0.982942
0.569237
1.832563
-1.121721
1.511736
0.559005
-1.404189
0.08753
1.274061
0.399596
0.42794
-0.298739
-1.509216
1.758042
-1.825769
-2.869099
1.656605
0.981936
-1.409246
0.643702
2.356311
2.281585
0.427961
-0.592525
1.753922
0.370314
-2.533923
1.900098
-2.002697
2.212881
2.463027
1.006594
-1.259022
-0.788607
1.125506
-1.993475
1.796271
0.980399
0.263305
-1.286668
-0.086658
-0.008112
-0.920179
2.098629
-1.559175
-0.717991
0.435323
0.597389
0.016999
1.125493
-2.490001
-0.94344
-1.338798
-1.448995
0.883002
-0.155035
0.089432
0.566683
0.073848
-0.921334
1.617569
0.507428
0.473687
-0.931989
-2.094394
-1.128537
-0.0277
0.757895
-0.568639
-1.408638
-0.108716
-1.091005
-0.101145
-0.287609
1.505718
-2.269819
0.20874
-0.192821
0.854184
-0.748985
0.531659
-2.766115
1.438372
0.019689
