0.013393
0.022694
-0.774377
-3.790871
-0.235861
1.078646
-0.961795
0.165912
0.095492
-0.655559
0.353946
0.377784
0.867125
-0.178436
-0.847965
0.051478
0.173076
-0.405948
-0.287873
-0.01354
-0.403101
-1.546149
-0.419592
-0.275097
-0.673352
0.521641
-0.797429
-0.647718
-0.452467
0.023281
0.542844
0.883722
0.840262
1.760814
-0.730982
0.748971
0.198971
0.11795
3.137858
0.618605
-0.632802
-0.614097
0.69256
0.431243
0.225296
0.245681
-1.231572
1.298617
0.625566
1.023515
-0.918539
3.077177
-0.10403
-0.870022
2.233257
0.305108
0.761151
-1.42446
-0.711152
-0.632433
2.578103
-3.718247
-2.561226
-0.465796
0.361873
0.14273
-0.548801
0.556659
-1.084644
-0.868998
0.794969
0.023975
0.555715
-0.505866
-0.603577
-0.190211
1.362475
0.684981
-0.416512
0.667305
0.910304
0.050341
-0.096388
0.083921
-0.214023
0.948214
0.480616
-0.054575
0.773008
0.48577
1.478066
0.292817
-1.203108
-0.682664
0.841355
-0.107632
1.467464
-0.009302
-1.115839
0.255334
1.159766
-0.262463
-0.723288
-0.680742
0.089239
0.694489
0.318299
-0.414894
0.620614
0.395969
-2.077239
0.444468
-0.705919
0.411569
1.412578
-0.621078
0.708525
0.718524
0.448944
-0.981475
-0.855438
0.768788
1.453917
0.639833
-1.177145
-0.074541
-0.703165
0.916448
-0.937274
1.334578
0.852414
0.800284
2.066593
-0.461136
0.626379
0.615375
0.412915
1.73555
-0.232739
1.731376
0.570023
-2.081444
1.477303
-1.095126
-0.249323
-0.694177
-0.640711
2.994575
0.141251
2.563844
-0.19855
0.245366
1.823302
0.351898
1.53481
-0.431686
-0.334416
-0.098436
-1.2529
-0.810645
-0.250819
0.717989
-0.483268
0.764893
-0.709145
0.728207
-0.226107
-0.719884
-0.070635
-0.729613
-0.158938
-0.113366
-0.264147
-0.070985
-0.168575
-0.304463
1.644282
0.913552
-0.317709
-0.544741
-0.372548
-3.258346
2.240286
1.45043
-2.719058
0.046026
0.497746
0.253648
0.552085
-0.309831
-0.376479
-0.851384
0.252014
0.204326
0.512983
-0.369697
-0.298043
-0.723924
0.878076
-0.45887
0.104164
1.2626
0.457537
-0.575495
-0.295903
1.194559
0.172374
0.407127
-1.350267
0.994318
1.255102
-2.325043
0.66581
-0.933633
-0.520615
0.43652
-1.899129
-0.989184
2.735249
0.978691
-1.373376
-0.591665
2.144844
-0.338659
-0.489194
-0.056286
0.451784
-0.727005
0.434655
0.882791
0.453319
0.17968
-0.286856
0.022402
0.522847
-0.21742
-0.186363
-0.073028
0.830253
1.386627
-0.747844
-0.568927
-0.121374
0.513894
-1.900041
-0.778246
0.989924
-0.336455
-0.398967
1.061976
-0.892791
-0.474239
-0.121157
-0.936156
0.048899
0.126975
0.397426
-0.2116
-0.419656
0.433057
1.06363
-0.258825
-0.32859
0.92228
-0.568459
0.069456
0.004944
-0.419558
-0.879031
0.451477
0.189128
-0.188166
-0.346383
0.519749
0.163639
0.098481
0.073763
0.278087
-0.030721
0.319307
-0.057159
-0.064082
0.689706
-0.157809
0.360513
-0.443559
-0.236724
0.341337
2.868058
2.010917
-0.193317
-0.600776
2.112474
0.724653
-2.043354
-0.311914
-0.345774
-0.280577
-0.188345
0.583585
0.003794
0.112867
0.119618
-0.723821
-2.548132
-1.30916
-1.504298
-0.770121
2.83665
-1.327652
2.854313
0.978248
0.939033
1.017471
-0.256214
-1.460224
0.144419
0.38391
-1.518284
-0.45307
0.2001
0.467223
0.139558
1.601279
0.097272
-0.87598
1.573683
-0.183822
0.781325
0.46719
-0.357345
0.238276
0.164214
1.091493
0.513804
-0.361699
-0.181402
-0.264226
1.333965
-0.662111
0.826331
1.884876
-0.30052
0.639307
-0.416439
-0.71014
-1.499016
0.742559
1.538188
-1.443118
1.967578
-0.919765
1.94516
1.58264
-1.04475
-0.064456
-0.409699
1.869991
0.022081
-0.170255
-1.092921
0.945471
0.270648
-1.066828
-0.06312
-0.957023
-0.524883
0.260526
-1.822812
2.475433
-0.141565
1.708992
1.38576
0.900999
-0.041377
1.827952
-1.942801
-0.176652
-0.788758
0.76124
0.930196
0.338549
-0.420444
-2.194737
0.225179
-0.214403
0.473351
0.879051
1.037697
-0.913349
-0.168463
0.077514
0.262075
0.072188
-0.120438
-1.270084
-0.96608
0.260586
-0.594064
0.174867
0.230566
-0.763853
0.697483
0.128464
-0.535172
-0.436479
1.07031
-0.176343
-0.203667
-0.641454
0.962498
-0.621337
0.427498
-0.047033
0.847336
-0.588841
0.256124
-1.120953
0.355557
1.128802
-0.649144
-0.883392
0.714237
1.111745
-1.188822
-0.218136
0.399442
1.570652
-0.744596
0.138036
1.098853
-0.743552
0.525136
0.608284
-0.571686
-0.330608
0.632682
0.128713
1.008031
0.078925
1.625716
-0.15042
-0.173637
0.938292
-0.573506
1.714558
-1.398593
-0.419438
0.134103
-0.244687
-1.304668
1.105187
-0.771774
-1.178906
0.184682
1.055647
-0.682354
-0.306066
-1.296284
-0.618438
1.049976
0.196751
0.690781
1.198583
-2.901262
-0.977014
-1.743068
0.448693
-0.020627
-0.172535
0.078231
-1.668009
-0.880571
-0.227546
0.415076
-0.136768
0.446656
0.072902
-1.283348
-0.520476
2.007927
0.422519
0.208123
2.041571
1.316311
1.597481
0.023186
1.250164
-0.07794
-0.077603
-0.522348
-0.006938
-0.857771
0.467131
0.590994
1.965744
0.877762
0.191049
-0.71338
-0.11315
-0.674079
0.629319
0.057186
0.815547
0.937135
0.083146
0.218479
-1.526844
-0.629906
-0.569731
1.400069
-1.080081
1.080517
-0.000732
0.721003
0.372735
-1.203268
-0.309238
-0.581744
1.338298
0.251205
-0.922369
-1.424392
0.847056
-0.278264
-0.39374
1.647159
0.971731
0.168209
0.703385
0.083354
-1.385301
-0.093782
0.041615
1.60166
1.174906
1.869567
2.235038
1.003165
-0.663813
0.006939
-0.449644
0.230588
-0.18111
0.467372
-0.017228
-0.078419
-0.096274
0.085866
-0.820561
-0.654159
1.063555
-1.258808
-1.805841
0.414967
1.925571
0.92083
0.893205
-2.321289
-0.340029
0.676302
-1.464008
-1.361797
-0.195626
0.387011
1.379519
-0.467183
-0.119801
-0.309788
-0.277682
-0.499523
-0.079961
-0.082602
-0.571502
-0.730977
1.293437
-0.420081
-0.677749
-1.411328
1.009035
1.074831
0.147484
0.686465
0.680092
-1.471328
-1.074104
0.117979
1.290096
0.645057
1.131714
-1.896313
0.300369
-0.613436
0.154275
-0.240649
-2.443568
-0.020989
-0.316697
0.320663
-0.053415
-1.415392
-0.242643
-0.14799
1.789854
-0.198563
1.579399
0.615371
-0.79027
1.237513
1.51834
-0.859892
2.06397
-0.135529
-1.156506
0.109352
-0.062771
-0.471257
-0.697673
-2.105004
-0.867767
0.982972
1.934663
-0.472303
-0.562933
-0.535799
0.033081
-0.559721
-0.02842
1.251453
0.195623
1.251258
0.896962
-0.361098
-0.099235
0.851876
0.551506
-1.211281
0.366424
0.937051
0.719643
0.365342
2.019933
0.399484
0.431033
1.052109
1.172623
0.316433
-0.092003
0.161486
-0.610937
-0.298213
0.972671
1.162865
-0.495828
-0.358926
0.400155
-1.115737
1.285988
-1.526531
-0.061338
0.893186
0.764138
1.061026
-0.31869
0.285954
-0.618829
0.121729
0.544798
-1.019791
0.643438
0.531464
-0.145542
0.620781
-0.116873
0.321444
-1.44554
1.078971
0.533787
-0.076972
-0.832655
-0.62557
-0.920527
0.06754
-1.615078
-0.357439
-0.848537
0.045888
2.487737
-0.718489
1.844516
0.515842
-0.085172
-0.966796
-0.378615
-2.186978
0.347994
0.330265
1.434848
0.548092
1.02781
0.806654
-0.622698
-0.917041
-0.191241
-0.313328
0.181605
-0.132339
1.631888
0.131386
-0.269913
-1.726521
0.71454
-1.367351
0.337232
0.246617
0.279226
-1.428827
0.134279
-0.77078
0.122845
1.809479
-0.301091
-0.408338
-0.244578
0.321554
-0.445496
1.426757
0.330071
0.234382
-0.894298
-0.070493
0.302738
-0.015328
0.022625
-1.611348
-0.875984
1.552225
2.30611
0.128973
-1.814236
1.839211
-0.167828
-2.852858
0.919467
0.096019
2.646744
0.284711
-0.682948
-1.170387
-1.272381
0.473501
2.207981
0.608057
1.330641
-0.993487
-1.187394
0.61808
-0.281924
2.222105
-1.628913
2.169778
0.11518
-0.949376
0.15525
-1.410208
0.137879
-1.572577
-0.227677
-0.830121
-1.032294
-0.192408
-2.727723
1.586907
0.867604
1.189346
1.052502
0.212343
-0.8048
1.293899
-0.328607
1.146728
0.589421
-2.97422
0.232537
-0.431344
0.242191
0.082369
-1.08587
2.565657
-0.04917
0.277672
-0.340331
-0.839225
-1.083471
-0.258171
0.754985
0.330579
0.275924
-1.834844
1.918462
1.972099
-0.388496
0.200853
0.977887
0.169336
-0.319082
-2.622414
-0.647141
-0.613625
-1.156885
-1.115644
0.554472
-0.356584
0.971963
-0.724031
-0.64484
-0.716558
0.288943
0.546029
0.579432
0.596024
-1.234318
0.170395
1.037059
0.477321
-0.653511
0.133016
-1.635386
-1.519719
0.365987
1.77271
-0.93162
1.416529
0.215616
-0.928139
0.546848
1.795095
-0.149395
-1.276011
-0.115515
-0.094038
-0.424602
-0.969329
0.739403
0.822016
0.467614
1.062195
1.810362
-1.067097
0.929635
0.700611
-0.15598
-0.033195
-0.559236
-1.774831
0.269977
0.449791
2.530815
1.366686
-0.394648
-0.65413
1.181273
-1.007417
1.350457
0.997693
0.591977
0.774783
0.978687
0.757892
-1.40469
-0.727633
0.805221
-0.060884
-1.378729
0.221072
-0.651468
-1.219869
-0.656089
0.62163
0.197579
0.31438
-1.207523
0.081523
-0.502348
-0.545097
-0.927261
-0.216184
0.267075
-0.567944
0.540541
-0.517067
-1.299609
-0.453791
-0.540471
0.363339
-0.967168
1.23117
-0.241473
0.167747
-0.516592
1.312111
0.325138
-0.534656
0.261144
-0.121188
-1.29647
-1.215412
0.349527
-0.367136
-0.811738
-0.825946
0.596029
0.094273
-0.089786
-1.414468
-0.381476
-1.587593
1.749141
1.409934
0.225374
-1.519177
1.501586
-1.245727
-0.941163
0.467264
1.273453
0.021966
-0.379095
0.234389
-0.789415
0.322264
0.160213
0.323642
0.271868
-1.150469
1.548209
-1.727652
-0.383301
-0.060641
-0.865075
-3.300695
0.124694
1.092762
-0.611334
-0.02304
-0.178989
-0.500996
-1.19104
-0.776635
-0.657859
0.216727
2.019278
0.57179
-1.005854
-1.63625
0.122072
-0.089126
-0.27426
1.416239
-0.362125
1.506013
-0.236836
4.271186
0.978941
0.185752
-0.000888
0.145319
-0.645381
1.029251
0.25543
-0.741841
0.850437
-0.563219
-0.557918
0.308379
-0.851781
0.865704
0.034689
-0.243556
-0.374736
1.194014
-1.283522
0.889462
-0.659506
-0.932454
0.054783
0.67812
-0.01964
0.275123
-0.354064
-1.620852
0.600333
0.50367
0.041861
-0.688364
0.907287
1.40285
0.091283
-0.849545
-0.519615
0.365015
2.116242
0.405065
0.277851
-0.903489
3.460783
-0.723585
-0.005109
0.875089
0.306604
-0.100153
-0.731382
-0.438365
-0.316851
0.196398
-0.243138
0.82354
0.813871
-0.64952
-1.201867
-0.814367
0.28571
-0.432027
0.040584
0.651249
0.672598
2.168725
0.096706
0.600555
0.55477
-2.080483
0.788137
0.434486
-0.509734
0.151429
-0.879123
-1.059795
-0.167342
0.187385
-0.701291
1.6007
-1.173288
0.626018
-0.752765
0.292663
0.256658
-0.013306
1.864087
-1.02221
-1.113777
-0.261877
-1.24601
0.501502
-2.252417
0.209121
-1.403311
-0.266211
-0.375845
1.349031
-0.114206
0.071412
-1.734989
1.271464
-0.156632
-0.981733
0.580786
-0.923912
0.682646
0.175797
-0.732109
0.797667
0.617249
-1.850333
-0.455543
-0.90587
-1.269026
0.375991
-0.459203
0.129717
0.521834
-1.30852
-1.37794
-0.656644
-0.43284
-0.062318
-0.699179
0.023347
-0.245523
-0.554113
-0.715575
-1.396628
0.257535
-3.775132
-0.623331
0.705547
-2.371539
0.835888
0.441687
-0.110389
-0.137859
-0.426014
0.207767
-0.662003
-0.07398
0.938164
-1.403778
0.054746
-0.606902
0.117441
-0.181211
0.596945
0.064712
-0.327446
0.123608
0.372528
-1.000393
0.716872
1.260617
1.07407
-0.803488
-0.527829
0.25575
0.190261
0.241801
1.002124
-1.532146
-0.834932
-0.388299
0.747482
0.594128
-1.516235
-0.035517
1.165439
-0.763341
1.577022
-0.621085
0.621955
1.265924
0.229001
-0.415751
0.233078
0.323791
-0.880987
0.067875
0.846497
0.800201
1.322222
-1.046977
0.763046
1.198618
3.459184
-0.89385
-2.050239
3.64273
0.717872
-0.017585
-0.715308
0.332965
0.295966
2.886544
2.56109
2.343672
-0.109167
-0.642893
0.807477
0.06678
-0.493265
0.509101
-0.691637
-0.137808
-0.078083
0.557831
-0.694823
0.873216
-0.13931
1.210107
0.017387
1.138659
-0.298626
0.340922
1.147867
-0.606052
0.406742
0.190021
0.015335
-0.184661
-0.995938
-0.918592
0.202908
-1.556605
-0.712042
0.402674
2.155926
0.748954
-1.71119
-0.165538
-0.721395
0.058232
0.273782
0.223068
0.097623
-1.958373
0.27863
0.304991
-0.87044
-0.367064
0.154471
-0.329597
0.387042
0.518788
-2.031437
1.14406
0.674122
0.004271
1.16875
-0.435606
-0.859737
1.769679
0.39387
0.261477
0.667271
-1.029899
0.281479
-1.574699
0.366617
-0.724684
0.028856
0.189092
0.235781
0.928334
-0.839122
-1.439019
0.460908
0.624923
0.327712
-1.523683
-1.326598
-1.119234
-0.194625
0.115785
-0.747539
0.56348
-1.574694
-0.303255
-0.10204
0.259408
2.632153
-1.139839
-1.494138
-0.404588
-0.094715
-2.44606
1.625351
-0.066019
0.553284
-0.191412
-3.627635
0.010321
-0.551794
1.204715
-0.14258
0.807999
1.239292
-1.000723
0.446714
0.393447
0.226718
-0.055381
-0.64047
1.798489
-0.712465
-0.421699
0.435196
0.492586
-0.878952
0.331532
1.349972
-0.060682
0.256453
-0.572095
0.423417
-0.17798
-0.234625
-0.017492
0.909347
0.779155
-0.666632
2.679932
1.454814
1.095865
0.293923
0.332465
2.449488
0.220928
0.608211
0.319848
0.313692
0.157708
1.121032
0.188126
0.278096
0.383314
-0.808108
-0.935375
1.165145
1.322858
-1.141205
1.942465
0.818156
-0.946377
4.164518
-0.895646
-0.394234
2.179201
1.572242
0.08785
1.978748
-2.514814
1.399855
-1.724259
-0.531205
0.453432
-0.113573
0.998976
-0.248362
-0.338922
0.176383
0.054364
0.50424
1.152987
0.228343
-0.067663
-0.197788
-0.829657
0.461389
1.039303
-2.240334
-0.076545
0.077834
-0.575351
-2.092651
0.317787
0.20582
-1.463563
-0.360098
0.638637
0.015958
0.662501
0.468293
0.067212
-0.253278
0.391675
-1.376809
-0.521695
1.039361
0.340719
-0.921841
0.560571
-0.660919
0.066765
1.469057
-2.094701
-0.237492
1.525349
-0.014607
0.991057
0.523008
-0.443813
0.796343
-1.059748
-0.848872
-0.375979
0.350045
-0.240869
-0.755347
-0.083957
0.563688
-0.599394
0.443977
0.723181
0.67819
-0.285952
-0.207054
-0.205648
1.719689
0.164136
-0.395249
0.506537
1.229918
-0.249393
0.022689
-0.788618
-0.395837
-1.10224
1.701559
0.081554
-0.756752
-1.20245
-0.051897
-0.592802
0.299672
-0.740189
-0.602772
3.931142
-1.977247
0.415264
0.301103
1.202466
1.723515
1.057642
0.783492
-0.895841
-0.074054
-0.760282
0.996012
1.036591
2.390434
0.806613
0.489805
-0.117175
0.074671
-1.059299
0.957248
0.605167
-0.765466
0.898887
-1.214962
-1.257376
-0.67494
-0.77026
1.532288
-0.637805
-0.285554
0.091965
-0.589734
-0.10755
0.091179
-3.339049
-1.913703
-0.316801
0.125638
-0.346848
0.834501
-0.072201
-0.017865
-0.064889
0.754281
-0.732006
0.974413
0.736938
-0.483245
0.062849
0.057043
0.179285
-0.477659
0.005367
1.694027
1.904224
-0.245436
0.362633
-0.527142
1.543773
-1.420066
-0.54842
-1.229941
-0.825982
-0.115594
-2.713842
0.416926
-0.542319
0.80922
0.063178
-0.26185
3.197418
1.548731
0.247373
-1.365973
-0.64216
0.15304
0.222751
0.818979
-0.397626
1.729309
-1.386811
-1.508596
-0.594893
-1.13026
-0.084584
0.439055
-1.174897
0.4975
0.586252
-0.610589
-0.237046
-0.148594
-0.701758
1.566577
-0.459252
-1.022723
0.152669
-0.146713
-0.833245
-1.379978
0.90938
-1.086573
-0.779153
-0.169565
0.484972
-0.366083
1.200407
-1.136908
1.844913
0.990264
-0.13919
-1.130249
0.886713
1.267657
-1.867243
-0.701367
1.082016
-0.450283
-0.54849
0.221135
0.91833
0.263944
0.4213
-0.783804
-0.347634
-0.996447
1.962822
-0.187513
-0.328958
1.68065
-0.624048
-0.219728
0.389299
0.835891
-0.612324
0.041519
0.238353
0.31321
-0.756948
-1.877011
-1.016884
-1.128293
-1.362049
0.658363
-0.633703
0.785243
-0.796871
0.077499
0.676231
-1.174755
-0.944922
-0.885776
0.263793
-0.279355
-1.226647
-0.977408
0.611992
-0.563654
1.253691
0.902706
-1.802818
-2.136928
1.610634
1.699503
-0.444468
-0.332511
-0.336782
3.006918
1.084778
-0.030261
-0.44889
0.118469
0.683331
-0.113991
0.464385
1.216321
0.829021
-0.463067
1.334414
0.19758
0.398661
1.827386
1.298923
0.35384
-0.460168
-0.166185
0.437825
0.125593
1.882767
0.492235
-0.266455
0.242626
-1.259841
-0.185798
-2.706077
0.157377
-0.88574
-0.896647
-1.139321
0.533172
-0.437057
-0.217284
-0.027105
-0.789615
-1.007493
-0.048318
0.392858
-0.448839
-0.459789
0.07895
-1.274377
0.211026
1.229678
1.16267
1.414123
-0.351386
0.095449
1.059046
0.080807
-1.349588
2.671572
-0.467003
-0.154383
0.216755
-0.406918
-0.154861
-0.419144
0.406141
1.301615
0.695954
0.854347
-1.404888
-1.56388
-0.116295
0.193498
-0.15875
-0.48829
-0.348716
-0.65864
-0.481868
0.174562
-1.559444
-0.301489
0.168884
-0.055577
-0.425978
0.845384
-0.416391
0.124844
0.32831
0.49436
-1.57044
-1.092631
0.06177
-1.674781
0.101533
-0.171383
-0.242591
2.160813
0.562025
1.605369
-0.080028
-0.799743
-0.436693
1.092213
-0.740194
0.998868
1.883553
-1.144595
2.042154
0.102626
-0.619684
-0.08078
0.927346
0.323489
0.157531
-0.848822
-0.085027
-0.748459
1.123161
0.868932
0.817752
-0.157236
0.351975
0.070905
-0.005879
0.401414
0.333609
-0.355206
-0.3076
-0.004139
-0.194624
-0.136256
0.274942
1.079209
0.47969
4.392011
-1.514292
-0.760156
1.152405
0.573337
0.832704
0.237922
1.513419
0.24593
-0.034468
-0.969234
0.747886
0.325356
0.442615
0.168337
0.332547
1.590327
-0.289779
0.27343
1.186995
-0.174014
0.387234
0.172415
-1.341292
0.169836
-1.241888
0.522497
-0.022417
0.645213
0.380156
-0.934008
0.952516
-0.081047
-0.394405
0.238431
-0.351827
-0.492698
1.710531
0.289857
-0.752609
-0.00574
0.018403
-0.41063
0.587181
1.110937
-0.036656
0.409337
-0.306714
0.706371
-0.392179
0.357261
-0.120025
-0.253195
-1.31831
0.659076
2.635248
-0.531328
-0.864753
-0.359283
0.803106
-0.731621
-1.170626
-0.348154
1.758025
0.476322
0.894428
0.600155
-1.408773
0.733245
0.672918
0.753048
-0.153317
-0.639922
2.690437
2.402546
0.267064
0.523886
-0.787837
0.583393
-0.52875
-1.238534
-0.910298
-1.5498
0.756532
-0.15746
2.464214
-0.474789
0.454379
0.427751
-0.420524
-0.965513
1.947659
0.070438
0.311349
0.623875
0.319534
0.344526
0.988741
-0.996031
0.679954
-0.31171
-1.096877
1.302844
0.236491
-0.474777
-0.719004
0.689501
1.027425
-0.938179
0.241609
-0.403206
0.25357
-1.498198
0.652098
0.922972
-0.740392
-0.038584
-0.047318
-1.763914
0.395019
1.066753
0.906809
-0.864642
-0.196682
0.120179
-0.125914
-1.485489
-0.814395
-2.715301
1.928494
-0.127426
0.809947
0.415551
0.197092
0.796809
-0.291139
1.154997
-1.887039
-0.269198
-2.862081
-1.124539
-0.383607
-0.526447
0.205811
0.219543
-0.406281
0.142851
-0.788148
0.18902
-0.063713
0.914012
0.677238
0.811395
0.585449
-1.235204
-0.631642
-0.347039
0.159167
0.612574
0.004454
0.571451
0.468392
1.008074
2.129504
1.829049
-0.182281
0.678072
1.692893
0.147345
0.544742
0.515885
-1.611233
0.194602
-1.167636
-0.675799
-2.980994
-0.822664
-0.334921
0.885197
-0.308434
0.595205
2.753516
-0.780589
1.003484
-0.027149
-0.661597
-0.11293
0.246762
-0.729665
0.064045
-0.765724
1.235504
-0.926392
1.298428
-0.000663
1.124959
-1.541972
-0.889739
0.79576
0.90265
0.641437
-0.880884
-0.377465
-0.746773
-0.505258
-0.842616
-0.183903
-1.636103
-0.485549
0.515241
0.766372
-0.098229
-2.647471
-1.745659
0.139562
0.574123
-0.561224
0.257891
-0.083606
0.796133
-0.945039
1.41826
-0.210084
-0.792379
0.885918
-2.389903
0.468444
-0.195993
1.367637
2.501731
0.910371
-0.836874
2.340011
-0.089309
0.711769
-0.869623
0.288056
-0.059192
-0.847214
0.070191
-1.072273
-0.588874
0.134061
-0.753236
-0.717435
0.289063
-0.915537
0.199933
0.955151
0.301443
0.211106
-0.150748
-0.551582
-0.467296
-1.312237
0.109723
0.495591
0.292109
0.585203
1.714366
-1.532865
1.157915
0.835183
0.013936
-0.296242
0.135432
0.193104
-0.785735
0.339159
1.088739
-1.434625
-1.409167
-0.121107
-1.251192
0.236324
-0.846742
-0.123602
-1.340376
0.312494
-0.604491
1.975077
0.638302
0.207925
0.90361
-0.835317
-1.218903
-0.598346
-1.332927
-0.012304
0.65121
0.337321
1.251288
-0.072277
-0.131542
0.889573
-0.099385
-0.157348
-1.843467
0.078778
2.195936
0.507409
0.620678
-0.013789
0.174324
0.604291
0.187804
-0.004508
-0.936233
-1.856728
-0.883424
-0.617722
-0.184821
-0.874748
1.160081
0.212775
-1.874729
-0.385944
-1.592252
-0.436622
-0.152781
-0.359278
2.348685
0.680621
-2.172481
-0.330142
-0.830242
-0.320084
0.354326
1.341524
-0.28768
-0.94437
-1.943353
1.535721
-0.779769
0.666466
0.423345
-1.415352
-2.01486
1.964987
1.613681
0.110883
-0.003813
-0.297693
-0.5714
0.160048
0.090891
0.09751
-0.108958
0.115748
-1.16012
0.862807
2.747189
-0.442762
0.063901
0.822611
0.384595
-0.754034
0.752234
0.03278
-0.878177
-1.032231
2.425424
-0.709383
0.226265
0.168894
-0.586935
0.644338
3.035765
-2.218208
-0.161924
0.143633
-0.394683
-0.831857
-1.042746
0.432322
-0.511769
0.00761
0.73703
-1.552887
0.513042
0.392473
-0.350816
-0.38125
0.163702
1.054635
-0.174911
1.365324
-0.253527
-1.979537
-0.730661
-0.371135
-0.616475
0.104088
0.415119
-1.307413
0.054943
3.220349
-1.410256
-0.827538
0.128226
0.067324
0.47296
2.851951
-0.079354
0.175761
0.026001
-0.501067
2.306331
2.806223
0.090957
1.019353
2.117794
0.345565
-0.743897
-2.469848
0.132378
0.536054
-0.630654
-0.253127
0.609541
-0.574256
0.414161
-0.083047
-1.224388
0.202863
0.468835
1.131306
1.060469
-0.678496
-0.976466
-0.287813
0.919475
-0.376659
0.339871
0.076599
-0.041436
-0.097386
-0.375539
1.910187
-0.256048
-0.152453
0.277193
-0.018881
0.026852
1.434842
0.181472
-1.587085
2.068195
-0.46287
0.095728
-0.037345
0.732023
-0.349739
-0.152002
1.550528
0.26473
0.571195
-1.295381
0.506345
-0.386861
-0.638102
1.055411
-0.082184
-0.321519
0.314493
1.467464
-0.027615
0.015776
0.683005
-0.128307
0.063043
-3.861833
-0.555975
0.719052
-0.361328
-0.68533
1.338069
-1.619333
-0.904767
-0.670776
1.970506
0.598892
0.625971
1.451551
-0.336629
-1.529492
-1.089635
-0.092382
-1.027683
0.173951
-1.199443
-1.707969
2.887963
2.23467
0.809688
-0.594579
-0.463667
0.251519
-0.582917
-0.94525
-0.932847
0.415075
0.769831
1.66957
0.314955
-0.468743
-0.503506
0.204176
0.927338
-0.224549
1.591097
-2.033641
0.585749
1.152535
-2.170949
0.361791
0.07806
-2.07392
-0.59077
-0.124799
-1.621284
1.569195
0.924476
-1.888717
1.457923
-0.363771
2.306404
0.230894
-0.372166
1.861022
-0.4825
2.086561
0.986609
0.187993
-0.752645
0.392812
-0.59695
0.295316
0.747197
0.337596
-0.409308
-1.113873
-1.045391
0.342535
-0.068326
-2.253976
-0.777994
0.933009
-1.203428
-1.033659
-1.374478
-0.101615
-0.228853
-0.527416
-0.172057
0.598661
0.694554
-0.364661
0.052358
-1.613169
0.705588
0.041185
-0.773084
0.414411
-0.59334
1.044039
-0.394996
0.4447
1.702009
-0.193751
-0.480084
-0.332985
-2.174121
1.563081
0.768663
0.098903
-0.808417
1.80998
0.39614
0.27011
0.307938
0.548223
0.289399
0.954259
0.049051
-0.948583
0.585198
0.705962
0.37561
0.047194
0.029499
-0.558441
-0.015161
1.543508
0.021033
0.166286
-0.33978
-0.129905
0.03454
0.83669
-1.199552
1.88407
2.156363
-0.589296
1.361857
-0.912758
1.376266
-1.138676
0.830746
-0.590921
-0.334255
-1.089418
0.062029
0.605166
-0.232651
-0.368553
1.135757
-1.423744
-1.727774
-0.786085
0.394075
1.455449
0.315508
-0.61535
-0.179714
-0.130507
0.039071
0.277185
-1.773719
0.37883
-1.164293
-2.367111
-0.171257
-0.884906
-0.403899
0.518818
-0.103617
1.231825
1.867997
-0.601962
0.622456
-1.172538
0.374162
1.493529
0.588088
-0.721976
-2.196781
-1.638546
1.309075
1.810994
0.717608
-0.357733
1.7569
-1.308875
-0.179251
0.549734
-0.858019
0.889031
-0.776177
-0.84507
-0.324218
0.718337
1.666469
0.32655
1.144912
-0.180248
0.068591
-0.588987
0.057386
0.966866
-0.670121
0.374889
-0.08557
1.16011
-0.77247
-0.152059
1.113185
-0.04244
-1.144104
0.212316
0.476246
0.278681
-0.837999
1.509618
-0.950854
-0.062221
-0.523077
0.701038
-0.120146
-0.013234
0.957114
0.431212
-1.560834
1.380246
1.671217
-0.05709
0.751289
0.12747
0.398448
0.682117
-0.626105
-1.138665
-0.751778
-1.56417
0.967723
-0.672236
0.164453
1.142098
1.153934
0.421707
-1.193148
0.789978
-0.587084
-0.561913
-0.000513
-0.231682
0.222998
-1.708164
0.144297
3.419342
1.063188
0.956583
0.743626
0.012635
-1.578188
0.203752
-0.769962
1.43407
0.763612
0.44448
-0.332304
-0.308406
1.505329
-0.187861
-0.17926
-0.519585
-0.86032
-1.644275
-0.349818
-0.699786
-0.851436
0.296553
0.348803
0.9469
0.485215
0.606626
0.129094
-1.246363
-0.172082
-0.729017
-1.455145
0.951754
-0.135694
1.59963
-0.217103
-2.290795
0.760473
0.248891
-0.611586
1.930311
-0.647364
0.013044
-0.600707
-0.227342
0.25467
-0.393621
0.537971
-0.926494
-0.626804
-0.816369
-0.388371
2.300775
-0.938176
0.382773
-0.197624
-1.537132
-0.600089
-0.137704
0.519017
0.644563
-0.684774
1.031153
0.373227
0.248796
0.439412
0.484166
-0.415655
2.174526
-6.824499
0.366362
-0.198957
-1.093653
1.403297
-0.65674
-0.224468
0.98834
2.487433
-0.995688
-0.142586
0.037319
-0.127935
-0.726143
0.029912
0.847529
0.492787
-0.905458
-2.287376
-1.450045
-0.148844
1.554403
-1.841485
0.546192
-0.079882
0.629206
0.189693
-0.172124
-1.161568
0.689604
1.412562
0.161268
0.882345
0.377744
-0.59365
0.819949
-0.253832
-2.072296
0.369106
0.529008
-1.120425
-0.256537
-0.435026
0.848744
-0.608652
0.506774
0.379226
-0.604788
0.671612
-0.57636
-1.19997
1.791805
-0.779836
-0.763102
0.451098
0.480026
0.174926
0.631011
0.254147
0.207302
-0.053211
-1.599433
0.367108
-0.535279
1.190287
-0.71771
-0.361036
-0.69555
0.123603
1.132734
0.568867
-1.46679
-0.643019
1.273744
-0.82323
-0.674171
0.452684
-0.666683
0.222564
-1.204684
1.919335
0.178539
-2.960448
0.87392
-1.260826
-0.94916
0.40344
-1.147341
0.896922
0.476498
1.480456
-1.966888
0.383507
0.5684
0.582928
0.522797
-0.498768
0.726512
-0.648323
1.269925
-0.72567
-0.932158
0.361703
0.847115
-1.334408
0.57865
-0.264746
0.095115
0.703048
0.141765
0.008918
-0.169027
1.868116
-0.598854
0.019218
1.034793
-0.467374
-0.032471
0.852803
0.059164
-1.298692
2.039878
0.592925
0.200684
-0.768368
-0.589544
0.639336
1.125735
-0.422434
0.748648
-0.427404
0.667682
1.301128
-0.085099
1.176247
-0.855467
1.096068
-0.047261
-0.215224
-0.663702
0.179098
-0.466268
-0.856996
-0.531371
0.639746
-0.74978
0.7851
1.78866
-0.096248
0.283032
-0.0758
-1.228581
0.657341
-0.362499
0.400903
0.489149
-0.140043
1.167889
-0.41122
0.999249
-2.46347
0.414493
-0.190944
0.783271
0.328762
0.09292
-0.977877
0.332367
0.464774
-0.248756
-0.796487
-0.027113
-0.512484
0.607913
-0.288716
0.961968
-1.279637
0.823295
-1.269723
-0.178516
-0.417386
0.0022
-0.889587
-0.755209
-0.691646
-0.100682
0.72062
0.411948
0.161398
-0.624012
-0.42758
-0.227885
-0.487039
-0.235013
0.030261
1.344544
-3.028666
-0.233224
-0.16585
0.108649
-0.236242
0.957692
-0.704294
0.239055
0.792878
-0.510644
0.97745
0.239312
-1.522768
-0.927989
-2.997821
-0.380697
-0.286218
-0.089935
-0.723467
0.850813
-1.721518
-0.733101
-0.820268
-1.680541
-1.428995
0.82401
-0.344471
-0.758891
1.13979
-2.567542
-0.236688
0.688527
0.618838
-0.334747
-0.365037
-0.378012
-0.816859
-0.328615
-0.22501
1.185827
0.825407
-0.298755
-0.610389
-0.904888
0.219916
-1.271294
0.010336
-2.242994
-1.065786
0.706604
0.093879
1.815087
0.932081
0.33237
-0.469159
-1.426191
1.475506
-1.679968
1.146492
0.56342
0.249596
0.201912
-1.400402
-0.759673
-2.289463
-1.554144
0.606283
0.863352
-0.856939
0.701146
-1.222202
-1.396834
0.823352
-1.706856
-0.489508
-0.817381
1.069693
0.05871
0.200212
-1.366709
-0.281913
-0.330525
-1.254245
0.623812
-0.339277
1.73839
-0.148587
-0.112872
0.156166
0.730475
1.092776
1.405067
-0.543369
0.280788
0.130912
-1.152939
0.964781
0.09247
-2.182476
0.584247
0.617344
0.108161
-0.312039
-1.549264
0.249136
-0.159941
-2.141625
-1.948096
2.131587
-1.115175
-0.155963
-0.268503
0.396207
-1.639725
-0.133192
1.973663
-0.089651
0.740891
0.917951
-0.165133
-1.14783
0.586952
0.156245
0.053058
-1.105577
0.480642
-0.092825
0.84161
0.089186
-0.223867
0.411048
0.879873
-0.166994
-0.066212
-0.111354
-1.939865
0.983611
1.061429
0.3924
0.173551
-2.076759
-0.417976
-0.295315
-1.190991
-1.625075
-2.163459
0.857684
-0.656659
0.520769
-0.675502
0.822521
-0.986989
-2.016742
1.803012
-1.64952
0.481385
-0.95678
-0.426689
-0.401535
-0.885815
-0.779701
-0.893941
0.746239
-1.723537
0.300044
1.317715
0.597636
1.542238
0.443657
0.849115
-1.997197
-1.055667
-0.738303
1.180496
0.737787
0.87995
-0.577547
0.450721
-0.279565
0.962516
0.722047
-0.258339
-0.41341
-0.00394
-1.631563
0.661345
-0.648229
-0.418547
0.753273
-1.288814
0.6912
-0.078622
0.207848
0.527567
-0.977362
0.840364
-0.44208
-0.488597
1.159067
0.580653
-1.708813
1.36521
-2.136285
0.879321
-0.887799
0.750722
1.645158
-1.493112
0.138821
0.121379
0.388147
1.184917
0.510594
-1.450632
-0.492176
-0.988594
-1.060312
-0.318672
-0.635989
0.001817
-0.598995
-0.957487
-0.972553
1.116241
0.531457
1.041684
1.063787
0.469666
0.376749
-0.702846
-0.408387
-1.355673
1.037985
-0.400617
-1.387593
1.325955
1.166468
0.56084
-0.863649
-0.522331
2.769918
0.702067
-0.98665
-0.952765
0.609721
-0.137492
-0.508976
-0.518455
-0.203692
-2.260058
0.184704
0.564913
1.554515
0.3876
2.423337
-2.163539
0.158735
-1.266529
0.472664
0.211292
0.836273
0.356461
-1.689275
-0.166484
1.130906
-0.77517
-3.509221
-0.55862
0.703592
-1.151703
-0.495218
0.626456
0.735638
-0.521803
-0.431554
0.467458
-0.129966
1.658341
0.894048
-0.676416
-0.087323
0.888113
2.072517
0.711528
0.247303
-0.912529
0.338342
-0.263708
1.498303
-2.670718
1.066925
2.21226
0.684506
-0.210769
-1.245738
-0.62654
-1.726948
-0.804278
0.452456
0.511378
-0.859924
-0.224175
-0.388809
-1.06614
0.455783
-0.076565
0.933279
0.310164
-0.297421
0.803078
-0.194288
-0.128454
-0.267342
-0.281507
-0.257209
-0.229598
-0.345584
0.602203
-0.64249
-0.165427
-0.928747
0.830362
-0.299771
-0.064591
2.255116
-0.18653
-1.378863
-0.184594
-0.369507
0.660293
-0.125882
-0.259799
0.099278
-0.141441
0.425201
0.642375
-2.180579
-0.247898
-0.164802
-0.048797
0.082166
-0.174793
0.223643
-0.830012
-0.423788
1.506236
0.883138
1.661153
-2.12966
0.048899
-0.441351
-1.774687
0.491237
0.579681
1.037827
0.014915
-0.810657
-1.274828
0.084639
0.907291
4.988983
1.841876
-1.768223
-3.507503
-0.259769
0.529977
0.961937
-0.226262
-0.442867
-0.370592
-0.60137
0.462522
-0.520226
-0.170986
0.128705
-1.080028
0.482544
0.639431
-1.646982
-0.016138
0.095916
-0.468721
0.181167
0.015142
0.77419
-0.628484
0.064105
0.476761
-0.08775
0.062913
-0.933361
-0.117862
0.077267
-0.258335
-0.353051
0.308461
0.253657
-0.168303
0.064492
-0.866561
0.073985
-0.070986
-1.814711
1.291015
-0.351861
0.437379
0.14103
-0.192033
0.272612
-0.503237
-0.126668
0.594876
-0.58052
0.014187
-0.170034
0.816028
0.088126
0.248962
0.065648
-0.411452
0.184203
0.238393
-0.324943
-0.46249
-0.165347
-0.093291
2.08276
0.133546
-0.196978
1.923305
0.308778
0.625537
5.638502
-0.344679
-1.071235
-1.812002
1.406263
-0.251546
1.76855
0.294612
-0.73187
-0.482619
-0.038379
-0.567722
-0.143003
0.7907
0.59755
-0.000335
0.138578
-1.321994
2.745196
-0.326174
-0.815094
-7.102523
0.140049
-0.086149
-1.288596
-2.827453
-0.663371
1.635034
-0.173544
-0.430387
-1.107764
-2.033488
-0.796704
0.970944
1.77472
0.078086
1.607308
-0.462971
0.781927
-0.804803
0.480604
2.027235
0.121048
-0.598816
-0.04201
0.797048
-0.921764
0.59441
-0.146236
-0.904658
0.096639
-1.246137
-2.987202
-0.497933
0.486041
0.416556
-1.400952
0.789125
-0.399039
0.499199
-0.561718
-1.791164
0.121108
0.950534
-1.037272
0.54439
-0.182736
-0.98339
1.063398
-0.759496
1.559723
-0.109926
0.135562
-0.757137
0.399115
-0.382252
-0.534772
0.420098
-0.368045
0.193839
1.408755
0.46527
-0.586095
-0.324779
0.461728
-0.607424
0.437628
-1.37953
1.084643
0.492268
0.467504
-1.169601
-0.561666
1.74302
0.208046
1.159282
-1.277242
-0.618529
-1.25043
0.12793
-0.075824
1.104222
0.375286
0.003496
0.483841
0.173392
0.757732
0.649105
0.956674
-0.655945
0.050499
-1.248449
-0.197263
0.486792
0.819246
-0.551374
0.866165
-0.354597
-0.92938
-1.721781
-1.129205
-0.960622
1.689734
-1.940934
0.472819
0.905715
-0.512425
-2.059368
-0.739345
0.725602
-2.103851
0.090363
-0.415027
-0.460478
-0.509618
-1.434959
-0.103841
-0.055634
0.062349
1.025472
1.00844
-0.822096
0.586859
1.187543
-0.181472
-0.711927
0.273081
-1.161259
-0.81479
0.660897
0.131744
-2.274906
-1.237306
-0.177432
-3.069587
1.931317
-1.553718
0.598015
0.568425
-0.301783
-0.199431
-0.243875
2.100589
-0.462359
2.110786
-0.763528
1.372443
0.61288
0.424388
0.221996
0.230911
1.090698
-0.077692
0.983977
-0.293259
0.293523
0.530919
-0.311859
0.916342
0.700285
-0.325537
0.31239
3.232615
0.400243
0.341884
0.410629
0.014725
-0.424594
-1.791668
0.7994
-0.050802
2.354287
-0.465452
-0.301144
0.143811
-0.852889
0.217462
1.136831
-0.710374
0.291365
-0.962416
0.166092
1.188302
-1.865007
0.018061
-0.019008
0.869771
4.682038
0.789395
2.03394
-0.256165
-0.158424
-1.939215
-1.365028
-0.432471
-1.360541
-0.063938
0.201279
-2.60289
-0.375489
-0.807978
0.831659
-0.611536
-0.411156
-0.285572
0.193725
-0.640952
-0.045411
1.166754
1.527428
0.220997
-0.895327
-1.120011
-1.079805
2.127408
-0.217324
-0.843312
0.884799
-0.202632
0.020308
1.349574
2.805582
-2.111201
-1.723396
-0.402701
0.476309
0.112614
-1.136667
-0.647863
-0.338569
-0.670678
0.126096
0.453682
-0.479786
-2.207875
0.424424
-0.339142
-0.741873
1.063282
-0.478263
0.527456
-0.043405
-0.386847
-0.170102
-0.927126
0.458661
0.126952
-0.547769
0.492713
-1.015218
0.031275
-0.046392
-0.199906
0.315277
0.792009
-0.048294
0.228052
-0.660287
0.885145
-0.636091
-0.139624
-1.164605
-0.163943
0.255889
0.407886
0.676541
0.640677
-0.636897
1.331805
-0.733243
1.119426
-2.48481
-0.199004
-1.560416
-0.028174
-0.710115
-1.15617
0.427039
1.206141
0.258939
1.099272
-0.661473
-0.637628
0.409275
0.180154
-0.337357
-0.390203
-0.092488
-0.914281
0.390704
-0.606993
-1.099621
0.980643
-1.121157
-3.782213
0.49671
-0.367091
-0.060724
-0.547078
1.444287
1.934248
-0.226878
-0.123486
0.562326
0.94887
-0.227663
1.422925
-0.235056
0.23195
-0.637435
0.314343
-2.111833
1.637989
1.916124
0.872562
-1.802285
-0.593358
-0.291982
0.15766
-1.65629
0.302099
0.97415
0.021322
0.250559
0.373495
-0.710203
-1.020567
0.10951
-0.125335
-1.219058
0.355429
-0.142914
-0.424047
0.78097
1.395325
0.700037
-1.164412
0.236294
-0.33874
0.114103
0.421034
-1.671388
0.125563
0.902289
-1.636308
0.898942
-0.044751
-0.903938
1.965301
0.789065
0.73312
1.233628
1.377379
-0.856502
1.272299
-0.77026
0.666511
-0.463933
-2.122121
-0.446137
2.805292
-1.009917
0.543163
0.417062
-0.285685
0.791617
0.914142
-1.318149
0.69702
-1.122736
-0.670384
0.398249
-0.336587
-0.767671
-0.052861
0.067254
0.633784
0.820681
-1.493421
0.222622
0.377018
-0.774876
0.218444
-0.919347
-0.674428
-0.999792
-0.649559
-0.181107
-0.220881
-0.842795
0.851384
-1.281518
0.860316
0.748592
-0.652311
1.662089
-0.235738
-1.418632
-0.264648
0.873817
-0.545838
0.977631
-1.611215
-0.116641
-0.595802
-1.00521
0.429285
0.642266
-0.532299
1.107018
0.035687
-0.056014
0.318654
-0.56691
1.02495
-1.737793
-0.505547
1.742077
1.283853
-0.119089
0.202938
-0.416138
-1.67681
0.636933
1.872261
0.371107
-0.306942
-0.336649
0.754754
-0.678261
0.220196
-0.592309
-2.811519
-1.621392
0.443688
1.076166
0.245092
0.033549
-0.009998
1.811513
-1.586285
1.095393
-0.894014
0.123756
-1.410744
-0.580656
-0.700821
0.654362
-0.06494
0.189749
-1.976958
-1.565249
-0.043816
2.980276
-3.013466
-0.070202
-0.164149
-0.175143
0.097431
-0.012976
0.20204
1.360827
-0.088341
0.224842
-0.391104
-0.207818
-0.682573
0.368705
0.058287
-1.1507
0.035999
1.90192
-0.004892
0.740853
0.62747
0.56053
-0.720864
0.494127
0.119332
0.483615
0.075457
-0.140815
-0.225753
-0.306755
0.22455
1.298856
0.342073
-0.482226
0.39856
0.650571
-0.483086
-0.085513
0.088091
-0.109781
-1.638382
0.065881
-0.973132
1.19896
-0.143445
-0.248972
-0.805629
0.67148
1.986358
1.828796
-0.210069
-0.880093
-0.066177
-0.547296
0.228894
-1.991529
-0.12919
1.638502
0.099391
0.582896
-0.34395
0.1652
0.05383
-0.234372
0.730605
-2.476389
0.003533
0.200083
0.229855
-0.604702
0.447144
-0.765823
-1.200232
-0.324021
0.96048
0.276607
-0.666791
-0.027575
0.008354
3.167388
0.168853
-0.532106
-7.987761
-3.295047
-0.343788
-3.567055
0.489539
0.598609
1.196517
0.357266
-0.30071
1.647008
-0.048355
-0.62687
-2.092952
0.138561
-0.3867
0.784991
0.044268
-0.79859
-0.035811
0.041995
0.172213
0.152193
-0.347631
0.237796
1.954958
-0.272393
0.021561
2.07655
-0.31763
-0.346529
-3.142105
0.336014
-0.169223
0.380145
-0.225954
0.067397
0.917044
0.623723
-0.278308
-0.196826
0.050293
-0.110037
0.79149
1.408177
-1.5243
-0.091248
-0.493211
0.218637
0.087804
-0.076039
0.128158
-0.867887
0.629857
-0.945767
-0.040282
-0.486548
0.306671
-0.106143
-0.481452
0.05506
-0.185534
-0.092981
0.142168
-0.270784
0.466654
-0.411414
0.108229
-0.264522
-0.194022
-1.23038
-0.471475
-0.032853
0.663421
-0.070641
-0.051909
0.774748
-0.780809
-0.202158
2.710933
-0.463542
0.507714
0.995385
0.506852
-1.106195
-1.108124
2.477903
0.266852
-2.168074
0.604775
0.473994
-0.387495
-0.796533
2.331433
1.771832
-1.121401
-1.196364
0.395176
3.816447
0.288352
-0.417453
1.899748
0.626663
0.406916
0.960201
-1.136083
0.582326
-1.451131
-0.265432
0.457569
-0.440869
0.579064
-0.871078
0.693434
-0.727361
0.96849
-0.541295
-3.031546
0.40904
1.922654
0.316068
1.312518
1.069056
-0.335485
1.799787
1.242663
0.806514
0.75003
1.642597
0.257835
0.214451
1.225977
2.39845
0.771578
0.52095
0.054892
0.083537
-0.679437
0.803715
0.211396
0.635946
-0.792098
0.205791
1.284588
-1.491298
1.155629
-0.673975
-0.33643
1.42431
-1.766499
-0.818736
0.041045
-0.764404
-0.524794
-0.29286
-0.495775
0.607162
1.181271
-1.533074
-0.536607
-0.276571
2.114962
0.828529
1.836135
-0.088923
0.038448
-0.112158
0.406461
-0.69275
-0.42663
0.909013
-0.924734
1.09275
-0.628749
0.871487
0.006745
-0.80677
-0.436732
-1.314746
0.836993
-0.876409
0.707171
-0.097424
-0.586522
-1.400076
2.387006
-0.398731
0.000302
-1.769649
-1.008297
-1.456554
-2.429903
1.151839
-0.513948
-0.542902
-0.556227
-0.798498
3.038111
-0.424438
-1.255494
-1.451807
-0.276539
0.516841
1.037225
0.034213
1.272912
0.434117
0.315493
-1.079321
0.51426
0.624314
0.8644
0.183433
0.233399
0.163992
0.632216
-0.183944
0.05226
-0.013351
0.477092
-0.608927
1.150152
-1.171076
-0.02117
0.546445
-0.247457
0.623228
3.17402
-0.2968
-1.049054
-0.066436
-0.6918
0.278375
1.731522
0.228993
-0.022408
-0.023677
0.148142
-0.530094
-1.141732
-1.135294
0.104395
-0.828428
1.151658
-0.376094
-1.553082
0.173396
0.33255
0.309967
-2.061365
-0.237234
0.279759
0.042223
0.636698
0.32651
-0.428101
0.51689
0.959177
1.255731
-1.163984
0.393389
-1.548703
0.561466
-0.25083
1.261843
-0.136201
-0.674479
-0.467462
0.478311
-2.053972
1.300353
-0.925055
0.58484
-0.178791
0.257037
-0.190967
0.089334
-0.690031
-0.878973
-1.099967
2.205412
0.113052
-0.863312
-0.237985
0.953969
1.429851
0.298594
1.261403
-0.607239
0.435399
0.143546
0.047298
1.391531
0.78928
-0.622087
0.466618
-0.606828
1.587631
-0.93251
-1.278121
-0.817659
-0.493722
0.001705
0.459191
-0.457495
-0.088267
-1.587772
0.083021
2.536893
-4.05558
-1.052476
1.367767
0.460936
0.462179
-0.258
-2.110337
1.868214
-1.790807
-0.367602
-1.017461
0.279605
1.749134
0.379867
-0.23553
-1.650069
0.213429
0.359611
-0.658238
-0.000765
0.609243
0.967192
0.839059
-1.335181
-1.245957
-0.10501
0.18563
-0.717205
-0.164775
-0.1244
-0.042012
0.025424
0.077938
1.940743
0.096591
-0.098665
-0.961229
0.328619
-0.276163
-0.75928
-0.833686
0.928803
-1.630593
-0.855656
0.779705
0.328669
0.487205
0.376964
0.452484
-0.003415
-1.093577
-0.115563
0.33536
0.228625
-0.128781
1.000014
-0.283832
-0.115019
0.815625
0.462445
0.674325
1.380786
-0.018831
0.324027
0.080276
0.150328
-0.42035
0.6584
0.282249
1.262258
0.45027
0.013019
-2.406642
0.546914
0.451932
-2.441658
0.059395
-0.436526
1.463264
-0.432337
0.323676
1.472274
1.966694
-0.061798
-0.479345
0.551438
0.050852
-0.192166
1.055382
-0.652934
0.332934
-0.415857
1.080145
-2.686125
-0.162018
-1.115437
-1.252785
1.392861
-1.778042
2.89308
-1.308299
0.407342
0.898297
1.255335
-0.844911
-1.387125
-1.189538
0.502037
-1.01705
-0.757344
0.591125
-0.597132
-0.453649
-1.70207
-1.462186
0.817727
-0.330867
-0.064572
-0.197808
-0.496951
-0.144675
1.947578
-0.542421
-0.254321
0.739841
0.909683
-1.156407
1.255357
0.023341
-0.120321
-1.413115
-0.220083
-1.831138
0.488451
-1.05866
0.861775
-1.51123
0.369253
-0.490792
-0.040975
0.325435
0.436313
-1.00971
1.243864
-0.23483
0.637721
0.981005
-0.186309
-0.661789
0.390756
-1.114074
-0.534936
-0.215777
-2.182836
1.094513
0.89219
1.346543
3.39472
1.543235
-1.493109
1.308556
-1.986314
0.894895
-0.007025
-0.713329
0.559052
1.04649
-1.374172
0.68497
1.02775
-0.39262
1.874699
0.165848
-1.609581
-1.097926
-0.256408
-0.82155
0.513156
0.451517
-0.15229
0.67533
0.366672
-1.269245
1.963821
1.265569
0.673632
-1.446533
-0.983278
-1.850328
-0.161936
-0.672282
0.250595
-1.070647
0.484129
0.829126
1.443901
1.07185
0.704425
0.489243
0.708904
-0.724443
0.888729
0.136504
-1.927583
-2.014002
-0.542876
1.247585
-0.244
-0.052513
-0.192074
-0.785303
0.701829
-0.10803
-0.627457
0.956364
-1.727787
0.765793
0.359299
1.006579
-0.126549
0.939287
-0.26247
0.236542
0.763931
0.485883
-0.537884
-0.011536
-0.761256
-0.458741
-1.03439
0.704238
-1.657076
0.951621
1.26279
0.8006
-0.340239
-1.391404
-0.722929
-0.390991
0.942626
-0.77432
0.635291
0.303127
1.29307
1.965585
1.102385
0.343624
-0.763402
1.906423
-0.090155
1.314144
1.183649
-0.302525
-0.009974
-0.870036
1.139141
1.303669
0.323194
1.807961
0.083059
1.573875
-0.398859
0.907411
-0.745279
0.711431
-0.32523
-1.026956
0.612693
-0.395673
-0.836851
0.352815
0.39546
0.397789
1.319187
-0.51882
-1.870357
-1.344659
1.512919
-2.526485
-0.76894
-1.967454
-0.114418
0.709797
-0.136981
0.409511
-0.308784
-1.03945
-0.261785
0.657763
-0.385971
0.407095
-0.883644
0.446874
1.38333
1.990889
-1.471161
-0.904089
-0.144281
-1.51917
-0.764448
0.543016
0.340099
-0.708129
0.562175
-0.651167
-2.030062
-0.368219
-1.56659
-1.363102
1.017828
-0.185401
0.060017
0.00002
1.975426
-0.488526
1.012519
0.504998
-0.489372
-1.035122
0.892841
-2.159924
0.743726
0.868319
1.169073
-0.679058
-2.447921
-0.475097
0.13201
0.346873
-0.026878
-0.401017
-0.642296
-0.971556
0.361006
-0.041502
0.350555
0.79255
-0.691198
0.23217
2.281685
-0.265234
1.005176
1.201414
-0.028523
0.896251
0.57404
-0.119011
-2.638746
-0.438297
-0.546385
-1.037839
0.046316
0.01958
3.006686
0.26439
-1.120851
0.270624
-0.439659
-0.59049
-0.025395
0.326228
-0.137354
0.562432
0.581622
1.424068
1.589782
-0.609536
0.194268
0.772802
1.769238
-1.740566
-1.560414
0.047267
-1.803367
1.266992
-2.026521
0.75929
-0.05918
0.385071
-0.085542
0.13785
-0.100965
-0.208272
0.016087
2.234438
-0.226395
-0.860842
0.529009
0.295542
-1.054626
-0.364836
-1.324842
0.817974
0.126025
-0.31389
-0.463245
-1.702444
0.197435
-1.676654
0.346918
-1.259757
-1.798044
-1.110269
1.075551
0.584262
-1.142615
0.904333
-1.023997
0.610679
2.160358
-0.165961
-0.002532
2.016894
1.426602
1.304489
-0.885686
0.364489
-1.486521
0.343566
0.463979
-0.133247
-0.69405
0.313881
-1.579412
-0.717162
0.334325
-0.006027
-0.644758
-0.867988
-0.669398
1.411276
-1.061609
0.290496
-0.28016
0.386478
0.226088
0.583863
1.7235
-3.479814
0.149111
0.551258
-0.541992
0.115311
-0.042054
-0.207018
-0.822141
-0.232824
1.587807
-0.026736
0.81457
0.354292
-0.764077
-0.717665
-1.181604
0.38805
1.113983
-0.719258
0.27396
1.893132
-0.292815
-0.766262
0.034996
-0.886489
2.442829
-0.860021
-0.670435
-1.672691
0.613651
-0.1256
0.385284
0.946569
0.071647
1.74079
0.154974
0.37782
-0.268007
0.746509
-0.110388
-0.756743
-0.899598
-0.055416
0.272475
-2.296658
-0.573236
-0.485676
0.48542
-0.468105
-0.928987
0.104901
-0.225108
-0.243884
0.616264
1.115208
0.99017
0.129307
1.265081
-0.888439
-0.443071
0.730848
-0.204166
-0.835764
0.299828
-0.544958
1.157955
1.847295
-1.331641
0.483462
0.827778
0.479497
0.304491
0.030202
-0.676603
-0.540802
-0.420332
-0.064158
-0.224473
-1.889731
-0.873609
-1.068235
0.028145
-0.470322
0.982229
1.483071
-1.80354
0.059402
0.01039
0.038526
0.992786
0.41612
-1.549139
-0.049134
1.186206
-0.971678
0.140997
1.154714
0.523054
-0.604021
-0.332795
0.207908
0.031561
-0.228361
-0.068675
-0.231544
-1.191844
0.437365
-0.163587
-0.475644
0.676637
0.329771
1.719078
0.298327
-0.568863
-1.636154
-0.668585
0.599306
1.568363
-0.158729
-0.416474
0.962794
-0.3387
1.201482
0.189809
1.281678
-0.058986
1.545208
0.770845
1.646803
-1.405425
-0.884803
-0.727143
-0.526906
-1.243696
0.440048
-0.142802
-1.839358
-0.179468
0.547548
1.576491
-0.627988
0.462496
2.381042
-1.001227
-0.318099
-0.078322
0.394602
-0.297765
-0.218471
0.760563
-0.440272
-1.092306
0.571821
0.468973
1.706977
-0.041882
1.684268
0.18066
-0.192914
-0.659747
-0.593637
-4.414481
0.558487
0.418683
-0.858388
0.857714
-1.339808
-0.665802
1.201195
-1.336987
0.967643
-0.200289
2.409936
0.697704
0.493849
0.157002
-0.21864
-0.006965
-0.430362
0.626412
-0.508298
1.550455
0.083763
0.733551
-1.080012
-0.924665
0.347231
-2.153674
-0.43272
-1.56786
1.929504
0.335876
-1.182975
1.036527
0.135652
-0.399488
-1.327125
0.133283
1.075549
3.036147
0.490799
-0.026273
-0.340268
0.057145
-0.425804
0.397646
-1.037546
0.134979
1.479754
0.215404
-0.157573
1.180912
0.401016
-0.656928
-1.474883
0.823951
0.052147
-1.196559
-0.005162
-0.198328
1.884741
-0.421265
-0.357213
-2.565919
-0.796616
0.70861
0.991963
-0.23351
0.388027
-2.188266
0.492077
1.297396
-1.889031
0.707731
-0.401201
0.336974
0.797791
-0.491716
-0.679119
-0.056446
0.419227
-0.767183
1.296528
-0.821128
-0.125407
0.242785
0.054558
-2.606146
-1.724085
1.430802
-0.436537
-0.220777
0.191272
0.087352
0.193061
-0.110622
0.477018
0.482396
-0.235845
-1.328979
-0.2868
0.536814
-0.56162
0.068805
-0.420227
-0.783406
0.484591
-0.104709
-0.739669
0.229091
0.031258
2.465151
-0.061249
-0.920215
-0.678565
-0.289619
-0.778692
-0.004707
-0.06583
1.130016
0.254891
-0.829237
0.461306
-0.508717
-0.775451
0.294437
-0.518083
-4.345431
0.141337
-1.044363
-1.554703
0.336883
0.359108
-1.660857
-0.346141
-1.442231
2.023009
-0.036827
2.792419
-0.823396
-2.341228
-0.422188
-1.192092
-1.563798
-2.00432
-2.298789
1.734918
-0.385494
-1.777431
1.824671
-0.842554
-0.219887
5.240273
1.793441
1.262846
-1.513773
-0.431662
-1.383238
0.665268
-0.654975
1.031526
0.155426
1.6457
-0.889471
-1.028873
1.374086
1.042849
-1.137282
0.468818
1.647399
-1.105349
0.141482
0.300762
-0.851192
-1.489418
-0.027089
-0.201665
0.057118
1.160873
0.083977
-0.683714
-0.898802
1.416173
-1.1452
-1.514534
1.162408
1.008462
6.135499
-0.059813
1.231267
-0.209646
-1.613596
-0.479282
-0.696647
0.209286
-2.150062
-0.535215
1.012088
0.840923
-1.59937
-2.036589
1.285679
0.571326
-1.164063
-0.484436
0.44196
-1.521686
1.611834
-0.413235
0.576139
2.218867
-0.207578
0.470637
-1.519639
-2.934222
0.06725
1.511315
-0.182255
-1.037334
0.144721
0.65621
-0.554837
1.743495
0.261556
0.198145
-0.264136
0.931308
0.542582
0.705214
-1.188558
-1.648961
0.113764
-0.696405
1.979463
0.298433
-1.09992
1.038377
-1.317813
0.267226
-0.368932
-2.534349
-0.475957
-0.938537
-0.555706
-0.118545
0.80217
-1.365163
0.485085
-0.64655
-0.451287
2.988328
-2.46811
1.365344
-1.246772
0.041526
-1.21008
-0.110428
1.77413
0.301848
-1.131457
-0.240545
1.04358
-1.763273
0.558192
1.874342
2.35591
-0.761245
-0.543443
-1.781722
1.137686
-0.718273
-0.845158
-1.459127
-0.425847
0.30647
1.065104
1.825423
0.449322
-0.065468
0.059183
-0.906678
0.153412
-2.509674
-0.112583
-1.715889
-0.163438
-0.130419
-0.028535
3.446175
0.624186
0.675557
-0.626043
-1.029815
-0.241261
0.714794
0.865704
1.852746
-0.191252
0.566129
-0.361176
-0.209112
-1.203554
-1.811425
-0.204892
-0.444446
2.6016
-0.128061
-0.488342
-0.140484
-0.720668
0.170026
0.334819
1.550452
-2.792317
1.121468
-1.477562
0.228807
-1.697243
0.471299
0.709387
-3.049034
1.413615
-0.329688
-1.042441
1.971834
-0.764559
2.204117
1.68588
0.414753
-0.965564
-0.861915
-0.608356
-0.152197
-0.46416
-0.257016
1.356563
-1.778571
-0.047224
1.523723
1.54007
-0.661932
0.892299
-1.067614
-1.764243
-2.431372
0.12769
-1.167208
1.228122
-1.683995
0.43081
0.053684
2.233997
1.373556
1.056853
-1.0708
-1.820958
-1.476703
0.650706
1.464871
0.718629
0.027332
1.070575
-0.074552
0.07491
0.823535
-1.762404
-1.949732
0.490288
-0.187587
4.942481
1.963514
-2.437008
-0.252469
2.99599
-0.987941
1.131111
-1.155546
-0.752158
-1.010163
-4.792559
0.816067
2.049398
0.159707
-0.070794
-1.951402
0.488748
0.011156
0.355171
1.988362
1.55624
-0.021844
-0.817083
-0.9688
2.04189
-0.288493
-2.424959
1.249229
0.444119
1.53154
-0.131141
0.66592
-1.025797
-0.97666
0.700186
-1.708939
0.639543
-2.955426
1.293658
-2.319131
-3.665432
1.734149
0.577797
0.593811
0.038571
-0.038832
0.019587
0.045856
1.087852
-0.997894
-0.019266
1.769287
0.87041
1.069905
-0.289091
0.764585
-1.334154
0.147553
0.681968
-0.765631
-0.28197
-0.757051
-3.189698
0.598288
-0.402323
0.008674
1.786388
-1.483321
-0.363446
-0.158771
0.627942
0.88423
-0.000736
0.30687
-1.056183
0.456741
-0.768462
1.132692
0.726597
1.307277
0.424439
-0.00262
1.447172
1.128369
-0.412359
0.625195
0.081968
-0.498139
0.387725
1.428894
0.84326
-0.232884
1.718991
2.23206
0.045483
0.334821
-0.100385
1.187004
-1.418678
0.696271
-0.079339
-0.46444
-1.103098
1.467666
0.155318
0.383317
0.992845
1.450728
-0.697647
-0.562372
0.453816
-0.498001
1.351315
-0.764567
0.585748
0.64019
0.241345
-0.088367
-0.075273
0.298267
0.393869
-0.960462
0.308683
-0.275953
-0.160343
-0.534821
-0.043493
-0.485424
-1.233317
-0.450946
1.576516
0.259161
0.954452
-0.816835
-0.817972
0.378865
-1.782216
1.273547
1.505152
-0.221526
-0.593186
0.049144
-0.716301
-2.102589
-1.37609
0.743422
-2.705009
-1.297157
1.001822
0.985606
1.537146
-0.703846
-0.464766
-0.061669
-1.406582
-2.266343
0.564174
2.458439
1.299908
-0.890418
-1.417094
1.797317
-0.923639
-1.19024
0.173956
0.999291
-0.173185
-0.901954
-1.159951
-0.264859
1.775864
-0.848685
0.410437
-0.505439
-3.000207
-0.736705
0.834668
0.197915
-0.616059
-1.187872
-0.551391
0.538809
0.337091
-0.421523
-0.035408
0.471905
1.305926
1.308661
0.629168
1.147018
0.244618
0.367683
1.229419
-1.240435
0.678841
1.293926
-0.713564
0.052804
1.386061
-0.642615
0.138513
-1.305519
0.629314
-0.218336
1.292184
0.709086
1.785469
0.108239
0.927332
-1.335769
0.29507
0.854666
-0.995517
0.715046
-1.086032
1.0418
-1.581651
-0.226055
-0.2088
-0.523613
-1.187467
-4.544322
0.073785
-1.792434
0.553404
0.305519
0.139113
4.701212
-0.593842
1.235197
-1.240784
0.118158
-0.312946
-0.572275
0.333631
-0.092598
0.826413
-0.606629
-0.3092
0.584952
-0.420369
-0.66843
1.928599
-0.15041
0.526394
1.060059
-0.837384
0.282888
0.536098
1.277645
-0.77505
0.130986
2.381425
0.002939
-1.483781
0.875687
0.607777
1.752332
-2.286199
-0.231935
-2.216767
-1.575264
0.055671
0.221848
0.287477
0.312917
-2.303701
-0.471034
1.645137
-0.977627
-0.27751
-0.390104
-1.284434
-1.051617
-0.291914
-0.873691
1.562427
-1.1096
-1.521001
-0.426223
-0.283852
0.581622
-0.018074
0.469836
2.204977
-0.687525
-0.346952
0.025041
0.453717
0.474273
-0.176184
-0.654006
3.270474
-0.450112
0.435332
1.408603
0.177246
-0.080256
-1.500484
-0.835519
-1.718237
1.276702
-0.777817
-0.082657
-3.663667
-0.912101
-1.046753
0.668901
0.57755
-0.282585
-3.912206
0.478209
0.168318
1.990352
2.119313
2.846885
1.864695
0.374121
2.101432
-1.612949
-0.087337
-0.018244
-1.209486
0.988892
-0.387606
-1.2991
-0.989
-1.109176
-0.059557
0.529962
-2.038534
-0.571392
-0.679829
-1.489913
1.773355
-0.235162
0.706279
-1.080089
0.671043
-2.087732
-1.372415
-0.804354
-0.847659
-0.078724
0.08014
0.385685
-0.517832
-1.517241
0.08362
-0.889235
1.322705
-0.46142
0.050767
1.125475
0.452653
-0.145928
-1.352506
0.14969
1.053876
-0.407253
0.152394
1.591171
-2.106961
-0.388602
-1.647771
0.956538
-0.048414
-0.010253
0.829389
2.004269
0.991361
-0.320928
-1.01813
-0.142352
0.597073
-0.702592
-1.288657
-0.232467
-0.417488
-0.319989
-1.086044
0.716953
-1.007562
-0.421698
-1.204274
0.014128
-0.902529
1.199272
0.619852
2.257887
-0.027008
-1.152463
-0.155189
0.923269
0.993239
-1.312109
-0.560804
1.049844
1.090555
1.176417
0.104721
-0.09162
1.249119
-0.251557
-0.676379
2.012915
-0.099476
0.692228
-0.055043
-0.449843
0.333686
0.312349
-0.073793
0.037016
0.097426
-0.539903
-0.222347
1.203748
1.715005
0.004134
0.725525
0.673937
-0.222676
0.820779
-1.232106
-0.379527
0.546937
0.4528
2.225066
-0.943817
-0.073408
0.890669
1.129556
-1.139286
1.72878
-0.117693
-1.035285
0.732681
-0.56728
0.703315
0.162007
-0.876904
1.169536
1.690156
-0.907777
0.498468
0.875866
-1.455017
-1.972141
1.956767
4.080975
-1.276641
-2.065438
-2.090935
-0.745442
0.288418
-0.055972
-0.230333
0.257337
1.138413
-0.642819
-1.717494
0.992611
0.60928
-0.226875
0.089135
0.618037
-0.965549
1.057555
-0.089042
1.234606
1.147948
1.12424
0.222083
-0.740606
-0.106784
0.041647
-2.167582
0.01835
0.547081
0.661925
-0.195198
-0.589879
0.176095
-1.617432
-2.186515
0.276596
0.293084
0.535463
-0.704876
-1.10946
0.407635
0.58106
0.340187
-1.775963
0.666313
-0.081222
-0.693806
2.488757
-1.232828
0.970295
0.749347
0.661852
0.66966
-1.13094
-1.159286
1.419583
-0.18041
0.225572
-2.235659
0.665816
-1.051011
2.197134
0.857676
1.711127
0.24011
-0.626248
2.574975
0.280184
-0.296047
-0.40508
-1.731464
-0.451943
0.29953
1.437245
-1.106709
-1.053063
0.298046
0.392129
-2.497281
-1.50484
0.551259
0.378366
-1.649747
-0.619619
0.336127
0.6974
0.778283
-0.007197
-1.532719
1.864235
0.476865
0.430112
-1.044804
-0.368344
0.543739
2.689602
-0.88859
-0.562246
0.349787
0.110893
-0.014629
-0.355199
1.851542
0.014557
-1.178806
-1.523026
-0.567791
-4.959938
1.561609
1.852578
1.118584
3.622174
-0.196743
1.786548
-0.080822
-0.757835
-1.435342
-1.359344
0.09524
0.250467
-1.69458
1.69182
0.194538
0.532478
0.40676
0.140847
0.288059
-2.073464
0.061276
0.051508
-0.730919
0.29159
1.672504
1.22575
0.350935
0.751074
0.627595
-1.806053
0.003597
2.139691
1.214664
0.014067
-1.67968
-1.127324
-0.928536
-0.282707
-2.414038
-0.070293
-0.925836
0.139362
0.193048
-0.54902
0.503045
-1.084519
-0.546735
-0.324627
-0.297157
-1.342706
0.748565
2.200888
0.667129
1.81402
0.165538
0.860237
-0.036393
2.17474
-0.327352
-0.985621
1.16874
-4.145141
-0.713043
2.579535
-0.327656
-1.757142
0.826782
-0.844326
-0.460376
0.134173
-0.285671
0.589661
0.444833
0.313768
-1.641101
-0.629794
-0.083895
-0.622134
-0.668278
0.814796
1.550123
1.220587
-1.489397
-1.331417
-1.700027
-0.415477
3.218434
-0.020374
-0.032417
-0.607544
-0.245148
-1.641172
2.424998
-1.196795
3.514512
-0.519036
0.793593
-0.351803
-2.046527
-0.142015
-0.026317
-0.000086
0.846504
-0.130402
-0.334232
-0.783165
-1.489879
0.752226
-0.203834
0.156794
-0.784536
0.662563
0.201868
0.649321
-2.038027
-1.827808
0.876983
1.532985
0.635093
-0.093369
-0.073623
0.13283
1.061958
-2.499307
2.152467
0.962051
-2.223852
-1.143725
-1.369285
0.783612
0.667049
0.931028
0.356782
-0.382008
-0.284374
0.003833
-1.823888
1.624427
0.640709
1.967772
1.257016
1.704673
-3.271395
3.967683
0.386076
-0.297246
0.12449
-0.896477
0.175966
2.766458
0.46267
-0.03439
-1.710482
-0.317533
-0.33415
-0.802098
-2.163812
-0.477033
-0.896511
-0.781773
-2.358984
1.082685
1.787414
1.516349
-1.11224
-0.423143
-0.41353
-1.661193
1.18935
-1.467888
-0.195123
-2.257251
0.60633
-1.312515
0.031669
-1.223184
1.741351
-1.373452
-1.029123
-0.598211
-1.943116
-0.051126
1.257506
0.218519
-0.975511
-0.794618
-0.76263
0.577058
0.753884
1.9221
-0.203074
-1.800919
1.597116
0.912574
-0.762215
-0.682594
-0.213082
-0.121331
-1.975503
1.30559
2.752716
-2.006297
-2.123743
-2.372925
-5.212753
-1.397179
-0.30315
-1.720445
0.716083
1.295685
-0.395432
1.798516
2.022415
-0.310493
-1.943423
0.792913
-0.471821
0.482904
-0.160764
0.029495
1.377016
-1.777549
1.398525
0.532858
2.882437
1.350253
-1.964834
-0.412834
0.683496
1.421845
1.79823
-0.431548
0.492415
0.773416
-0.10253
3.098169
0.922831
-0.677211
0.281069
0.530681
-3.182834
0.877789
-0.85805
-0.784099
-1.358021
0.401435
0.636561
0.143436
1.132522
0.275407
0.269016
1.25031
-0.355231
-0.559352
0.34869
-0.286525
-1.013329
-3.543953
0.112022
-2.354646
-1.055018
-0.922761
3.015539
1.272786
0.493955
1.23664
2.67949
-0.139106
0.401747
1.220828
1.089091
-1.325317
-0.988667
1.150673
-0.476399
-1.602665
1.946296
0.299223
1.444008
0.327665
-0.340025
0.855945
0.362701
0.411981
-0.409272
0.121385
-2.19573
-2.837298
-0.995231
0.266296
0.393284
2.254449
0.119353
1.503873
0.582499
0.662391
0.935404
2.074544
0.387506
0.273207
-2.217908
0.121671
0.331908
1.529078
-1.490415
1.273158
0.781251
1.375539
1.087679
-1.883252
-1.341988
-1.17494
1.55416
-0.917861
-2.648694
0.592596
0.750048
-3.426689
1.538244
-0.203292
0.0753
-1.942518
1.0573
-0.526548
2.318973
0.969829
2.926241
1.975378
4.650156
3.249559
-0.89275
-0.428637
1.406002
-0.867278
0.788365
-2.209695
-0.468763
0.651442
-0.065992
-0.172137
-0.088714
1.43772
0.412102
0.315513
0.152175
1.808691
-0.169
-1.025064
-1.013034
-0.540306
-1.453683
0.185128
-1.136689
-0.709262
0.871011
-2.400724
-0.640712
0.262538
-0.725023
2.068456
0.377591
2.573761
0.745282
0.90093
-0.610135
0.133806
1.484115
0.245533
0.94644
0.280559
1.017052
-1.211383
0.790535
-1.819974
0.627485
-2.627478
-0.523566
0.160464
-1.405712
-1.662991
-0.018895
0.372895
0.010137
-0.657121
-0.215886
0.183842
-0.668343
-0.989955
1.888978
-1.327526
0.035659
0.740354
0.03776
0.740221
0.945848
0.356249
1.035013
-0.460075
0.184165
1.298525
1.931427
-0.015902
0.737511
1.67911
-0.571711
1.518517
1.378709
2.070419
0.209339
1.903128
-0.362673
-0.20097
1.422624
0.159437
1.432663
0.250586
2.42094
0.829948
-2.200456
-1.877032
-1.793996
-0.479448
-3.063909
-0.626639
-0.333589
0.072906
1.718132
1.315626
-0.321551
1.973961
0.020015
2.241987
-0.138287
-1.241862
-0.327742
-0.105689
1.236375
-0.023167
0.694455
0.507001
-0.277444
-0.402006
-2.517026
1.426254
-0.139377
0.459491
-0.746081
1.280212
0.071929
-0.85416
-1.771531
1.713786
-0.985982
0.657678
0.948549
0.665154
0.197084
-1.149879
-0.716075
1.210778
-1.908748
-1.8177
-1.429964
1.281642
-1.572332
-1.393409
0.441662
0.613412
-0.473682
0.746302
-1.521785
-0.836864
1.309056
-1.870311
0.243493
0.21853
-0.213798
0.294541
-3.001238
1.026305
0.318513
-0.257043
1.218814
0.347559
1.501441
0.792964
0.2901
1.391804
-0.0998
-0.653254
0.27009
0.051772
-1.082307
-1.252281
-0.698625
-0.189144
0.882211
0.061031
1.582792
-0.126659
-1.842705
-1.836099
-0.105132
1.033355
0.4507
-0.718921
-0.075979
3.651524
-2.830106
-2.713008
-0.430554
-0.677621
0.41048
3.142794
-0.225961
0.126842
-1.770371
-0.032169
-0.103695
1.118196
-0.55503
1.157659
-1.00292
-0.634484
-1.807673
-0.044298
0.322651
0.276333
0.452587
0.239865
0.312426
-0.576887
-2.509998
1.516585
-0.505533
0.347029
1.933776
0.371142
1.529415
-2.072567
0.800431
-1.366041
0.093506
-2.026259
-0.75267
0.566249
0.605772
-0.983695
-0.570909
-1.293611
0.035524
2.013592
-1.146097
0.476339
0.38018
-1.476891
-0.180053
0.477878
-1.092705
-0.327373
1.933013
-0.660505
0.03257
-0.496876
0.540215
-0.626059
0.503402
4.299916
-0.050251
-4.138385
2.264389
0.865454
-1.825582
-1.115365
-0.330583
0.84798
2.529677
-1.043219
0.856559
0.09296
1.226249
0.873128
0.529696
-0.979234
-1.122527
-0.143383
1.046132
1.987373
0.300047
1.57317
0.169554
-2.924477
2.888768
-0.186952
1.574192
0.284943
0.427617
-0.796557
0.822516
0.126766
1.760212
0.138487
-0.623503
-0.107715
-0.780176
-2.816392
-1.978447
-1.215902
-2.431942
-0.138186
-1.750116
0.085392
1.53245
0.547561
-0.020406
-1.021536
0.315628
2.533996
1.105313
-0.287139
0.39142
-0.55631
-2.470756
2.418802
-0.127391
2.038895
-0.724014
0.09841
-0.136031
0.997866
-0.309248
5.223775
-0.460183
0.255754
1.403185
1.821781
-0.215881
-0.903985
-2.407997
-1.024948
-2.022204
1.008037
-1.640326
0.187743
0.607471
1.222598
1.482667
0.590451
-0.662575
0.786687
-0.107917
-0.48543
-0.808067
1.065026
0.211254
-0.314248
-2.806444
-1.019421
-2.136561
2.030145
-3.23209
0.615512
-0.275648
-2.158193
1.588824
0.897392
0.73403
-0.993152
-0.004271
-0.179902
-0.725747
-2.403231
-1.791631
-1.628988
-0.459911
0.205581
1.052174
-0.519538
-0.755953
1.106635
-1.013393
0.461341
0.367483
0.710204
-0.368036
0.374336
-1.660696
0.604053
0.276842
2.144735
1.435098
2.125182
0.186198
-0.504914
1.097225
1.439627
0.761153
-1.40217
-0.840648
-0.275923
-1.543767
-1.691113
-0.580611
-1.034188
-0.963628
-1.336677
0.314061
0.330439
1.397684
-2.01282
1.615153
-0.719743
0.753388
-0.117325
-1.174091
-0.903908
-0.512847
-0.134098
-0.095035
1.853609
-2.304341
-1.035086
-2.843518
-0.45781
-1.459114
1.30584
2.547571
0.233632
1.426763
-0.396412
1.774363
0.388573
0.976722
0.904099
-0.26605
1.805845
-2.097636
-1.142875
-0.813561
2.543757
-0.748797
0.859867
-0.976688
1.560752
-1.783191
-0.997669
-2.002173
0.165133
0.829379
3.367236
0.81658
0.299575
-0.119336
-0.617575
-0.073455
-1.387377
-1.538752
0.290884
-0.652311
-0.150613
1.593515
0.742413
0.401855
1.933435
-0.871237
-1.659385
0.734738
-0.430017
-0.6736
-0.807088
-2.877835
-0.373326
2.240467
0.299063
-0.879869
0.620834
0.110044
0.796318
-2.03983
-1.119554
3.257894
-0.351413
2.971737
-0.489655
0.74287
0.185781
-0.23676
-2.849702
-0.465735
0.117219
1.58696
-0.392619
-0.424545
-1.215863
-1.870038
1.042465
-1.548024
0.085898
0.774629
-2.021363
0.588181
0.85178
0.435518
1.694006
0.224208
1.74532
2.083982
0.706932
-0.852398
0.62202
-3.917118
1.444791
1.06216
1.90492
-1.756257
-0.515697
-0.155403
-0.656763
-0.893058
0.147011
-0.417151
-0.386906
1.200027
-2.010993
-0.008452
-0.05353
2.207726
-0.165616
-2.459936
-1.229108
0.994418
0.68516
-0.802096
1.309331
3.101071
-1.279856
0.343556
0.077278
-0.442574
-0.755449
0.524122
-0.12067
1.984282
-1.803065
1.158791
-0.510773
0.538786
0.093346
0.377243
-1.438953
0.353685
-2.036317
0.782003
1.103459
1.125084
-0.723429
1.392842
-0.283896
1.334516
0.013791
0.148147
-4.078588
-0.346157
0.788191
1.167617
-0.050598
-0.324729
1.659349
-1.375684
-0.01568
-2.884714
0.780714
2.141916
-0.600588
0.621853
0.015516
0.131153
-1.098533
0.067121
-1.309998
0.326447
-0.906896
-0.502053
1.22576
0.626073
1.919709
0.646167
0.066524
1.373473
-1.809924
-1.513942
0.438205
1.349004
2.390167
-0.104597
0.479962
-0.069057
0.12212
0.253569
0.172838
-0.579542
-0.874815
-0.158464
1.743187
-0.752222
0.143277
-2.162863
-2.619598
-1.960848
-0.533475
0.916691
1.681467
0.365172
1.971713
1.012087
0.044704
-1.789295
-2.133756
-1.070466
0.550738
0.018313
0.571935
-0.213126
0.657443
1.505565
1.519571
-0.17711
2.397336
1.108884
0.783949
-1.0856
-0.589398
-0.625667
-0.929757
1.948463
-0.057452
-1.529981
-3.660425
1.42342
0.057972
0.004903
1.241255
2.025554
-0.565488
-0.49493
-2.149888
-0.864324
-1.805542
0.939173
-1.823565
0.486983
-0.050294
1.23211
2.120849
-0.061774
-0.356581
0.344426
0.427617
-1.340459
0.304046
-0.909188
-1.492474
-1.723984
0.863874
-0.711069
-1.096839
1.902301
1.075712
1.65995
1.205632
0.096627
0.301706
-1.189926
2.297391
-0.320897
1.117467
0.262984
0.889657
0.16294
0.800364
0.823732
1.607811
-0.023504
-0.178841
-1.090954
-1.657819
-1.071156
-0.285595
-1.463542
2.052802
1.141967
-1.146288
0.339391
0.46743
0.212045
-0.718762
0.172119
2.801771
-0.903537
0.562409
-0.093036
-1.537978
-0.114425
1.12306
2.540574
-2.564636
1.626318
0.283904
-0.64308
-1.078531
1.012013
0.959793
-0.06818
0.508932
-1.528492
-0.154051
0.686873
-2.21256
2.454651
0.563083
1.197332
-0.016789
-0.564311
1.139901
1.010763
-0.232076
1.98278
1.2777
-1.312183
0.976793
-1.772696
1.277326
-4.240668
0.384906
-2.870279
2.642172
-0.718785
-3.236163
0.861334
0.904771
1.872604
3.11031
1.028897
2.012807
0.777255
-2.354721
0.773314
-1.810867
-1.893598
-0.309156
0.499682
1.242465
0.003954
-0.610279
1.011273
2.227884
-0.002769
1.233258
0.518038
1.649215
-1.043337
-0.052753
-2.123276
-1.08991
0.544019
-0.146747
-0.713404
3.566487
-2.464447
-1.256762
-1.075669
-2.863454
1.058525
-0.885597
1.835424
1.942174
-1.865782
2.110419
-0.37226
-1.120437
0.331129
0.97074
-0.315898
-1.162682
-2.138031
-1.333
0.011719
-0.741786
-1.112671
0.449098
0.142661
1.781516
-0.837894
-2.500367
-3.186655
-0.786998
0.376206
0.387445
1.317223
0.776215
3.251388
-0.97546
0.183112
-2.532178
0.069635
-3.617234
-0.428112
-2.03614
-2.291375
-3.519722
-0.679338
-1.875105
0.16894
1.599428
0.782911
-0.022151
1.153359
-0.225757
1.442961
1.13016
-2.636529
0.850839
-1.588213
0.959583
0.482901
-3.057335
-1.200663
-1.846299
0.249738
1.247215
0.165023
-2.535684
-1.027073
-0.715492
-4.217369
-1.393531
0.068828
0.086166
0.578447
-1.242236
-0.218284
1.94444
1.80447
1.594549
0.464196
-0.914166
-0.781127
-3.043235
-2.493939
-2.17134
0.245762
-0.722552
-2.768971
-0.102203
-0.19491
2.428588
2.10927
-0.022899
0.260272
0.271047
1.010122
0.309398
-0.027277
-1.289139
-2.995372
0.000071
3.025123
-0.248715
0.450221
-2.60656
1.62092
-0.138794
-0.284519
0.484664
1.249351
-0.63483
-0.519699
-3.360584
-1.427749
0.95792
-0.067231
0.730922
-1.155246
-1.09544
1.398678
-2.470612
-1.425066
-1.962976
0.401566
1.577917
0.213637
1.153728
-2.026653
-1.936645
-2.802664
-2.227925
-0.271056
0.539444
1.200082
-1.650912
-0.333469
0.758486
0.188454
-3.318719
-0.603624
3.101024
-1.076808
-0.03083
-3.879833
-0.840103
-0.268486
-0.338639
-0.674321
-1.521585
-0.226206
1.369518
-0.152583
-0.500892
-2.307768
-0.39812
-3.106444
0.201278
0.617491
-1.363848
-2.00368
-2.525478
-0.045417
1.68303
-1.406538
0.386608
-0.470665
-0.043109
-0.777864
0.989744
1.486248
-0.760608
-5.841309
0.315068
-0.797516
0.016758
3.080102
2.962743
0.686552
1.257928
0.092689
-3.401983
0.042874
-0.245634
-5.110314
0.356694
-0.597757
0.496753
0.142774
-2.109571
1.430844
3.711793
-1.356417
-3.618801
-0.073271
-0.804522
-1.131977
-1.758194
-1.165375
0.114224
-1.227996
-0.400208
0.025116
0.886935
-2.479738
1.49415
1.231114
-3.871641
1.037031
-0.915615
0.907908
4.369609
0.50665
-2.015292
-2.048289
0.71596
1.83587
-0.958572
-3.898833
-0.499716
-3.328063
0.660707
2.89704
2.703728
0.532704
1.346951
-0.442798
-1.706209
-0.985095
-0.070679
-0.008206
2.205059
-2.024243
-1.190635
2.652828
0.748485
-0.333239
-3.459382
-2.047126
-2.249873
-0.613866
-0.278203
-1.916843
0.120822
-3.289748
-1.447784
1.548909
-0.144994
-0.744311
0.557815
-0.726117
-3.184675
2.2285
1.013399
1.048097
1.981189
1.665119
-3.066258
1.523493
-1.158225
-2.281438
-5.768798
-1.075486
1.619925
-1.748304
-3.224032
1.071805
-0.113312
-0.558225
1.197554
-1.351469
1.359797
-0.595342
-1.461683
-1.027515
-1.631296
2.941085
-2.76693
2.121909
-0.860014
2.129422
-2.725484
1.297306
-2.406702
-0.401393
-1.281948
-3.805043
0.05404
-1.239722
2.522138
1.565417
1.608543
1.831559
1.359014
-0.120541
-1.501904
0.062686
-1.657224
0.612688
-1.598245
0.257083
1.852736
-0.986354
-1.581128
0.168061
0.942585
0.010149
0.79839
-2.999226
-3.032281
-0.672066
-2.313374
1.96652
-1.333624
-0.458642
-3.837724
-1.204027
-0.167585
-0.196942
0.533074
-3.763435
0.134911
-1.127684
0.884379
3.200169
-0.783718
3.464258
0.901855
2.429288
0.40658
-0.301636
2.790065
-0.517353
0.933907
0.813233
-0.432022
-0.259845
-2.676233
-2.583705
-2.304617
-0.842537
0.138045
1.372417
-0.154248
3.107447
-2.635291
1.15762
-1.148975
-2.649728
1.481055
-2.093365
2.663062
0.831647
-1.11295
-0.483865
1.258924
-0.343212
-0.809307
0.04554
0.028872
-1.526551
-2.766988
0.155363
1.557081
0.030421
0.289984
-1.799103
0.118533
2.497788
-2.494804
0.68793
-2.735649
-0.268422
0.855636
0.442851
-5.407069
0.756376
-0.408687
-0.586758
2.031919
-0.309431
-0.722724
-1.601732
-0.166737
-0.000026
0.228858
3.129243
1.002057
-1.826751
-3.242307
1.229612
0.666087
-0.645781
2.366443
0.48647
-0.11988
-1.166646
-1.365891
-4.030508
-1.043681
-1.812647
-2.361439
2.356716
-0.715869
0.680451
-0.172803
-0.381909
-3.275048
3.277279
-0.573154
0.031726
1.022755
-0.063833
-4.813373
-0.337696
-1.448464
1.697806
-0.460618
-0.259524
-1.182047
-2.846765
1.048318
0.64385
0.571513
0.019777
0.159484
-0.748314
3.181736
0.178772
-3.107136
-0.163451
0.690168
-4.33857
0.181999
-0.365275
-1.058907
0.652349
-4.124662
0.076683
-2.23411
1.359742
1.052457
2.101011
0.080323
3.673976
2.936585
-3.498019
-3.243813
1.371283
1.434804
-3.412119
-1.156499
0.049518
0.93787
2.784193
-0.612036
-3.174984
-1.75144
-0.407422
1.028199
2.409863
-1.103073
-1.39828
-1.60047
-1.196658
-0.784816
4.10205
-0.201503
3.150742
-2.20505
-0.663963
-0.70192
-2.675143
-1.653531
-0.405834
2.627283
1.766919
2.041644
0.88711
-0.710126
-2.706826
-0.067438
2.135572
-0.120982
1.12504
-1.4501
-2.314861
-3.157889
1.191554
-0.144962
-1.854518
1.757586
-1.752151
-1.117926
-3.266286
-2.000122
-1.123322
2.070319
-0.779085
0.925232
-1.353319
-1.707144
-0.849033
-2.086709
-1.072388
0.738615
1.542372
-1.287154
-1.275448
1.714886
1.367505
-0.429123
-1.240862
0.875215
0.615855
0.882216
-2.295382
0.279859
0.690737
0.231642
-1.557907
0.063971
0.359417
0.242484
-3.320839
-2.181253
-3.614841
-0.063705
-3.077479
0.215981
-0.153245
-3.114616
-0.424225
-0.105912
-4.13499
-1.786909
-0.074669
0.243
-2.14029
-2.848752
-3.68093
-0.214346
-0.287654
3.447341
0.132722
-1.521465
-0.195876
0.492183
1.167264
1.528311
2.23193
-0.790017
0.259805
3.413329
0.673728
1.403101
-2.338072
0.366558
-0.889221
-1.994115
-0.238542
-1.780378
-0.428092
0.167741
2.001219
1.25388
0.519055
-1.184422
-0.50886
0.601815
1.893881
-0.42278
-2.684508
3.066003
-3.023702
-2.428988
-3.807177
0.04649
-0.251525
0.735931
-3.27313
-2.228856
-0.021706
-1.189335
-0.847599
2.221558
-0.559855
1.618681
1.244425
-0.858317
2.402245
0.550674
2.946742
-0.423882
-1.090089
-1.754666
-3.045584
0.864828
-1.607045
1.080438
-0.428736
0.092231
-1.026071
1.616256
0.390044
-1.192293
-0.184273
1.280758
1.434921
-0.814066
-1.624739
0.850106
1.018029
-0.870594
-0.649864
-1.564881
1.162986
-3.134245
-2.370253
-2.555113
-0.572984
1.068755
1.053346
0.000112
-2.089032
-1.243547
0.647857
-3.156433
-2.760614
-0.431363
1.600034
0.21362
-0.448586
1.809665
1.560071
-1.554078
-0.919213
2.327102
0.99659
0.574787
-0.358482
-2.54528
-0.487904
-2.58893
-0.783613
0.89271
-0.826099
0.849885
-0.184539
-0.109093
-3.408032
-0.19723
3.523052
0.531536
0.59773
0.156329
-3.91072
-1.504041
-0.872458
2.117307
-1.155111
0.354087
2.417707
1.372981
2.151852
-1.794221
-4.308705
-2.672063
2.358041
-0.500913
0.840427
-0.976124
1.235957
-0.598128
0.276359
-2.097589
-1.578218
-0.837923
-1.627672
-1.377663
-1.765444
-3.008533
-0.122833
0.311466
1.244168
0.358229
-1.278804
0.213771
0.460146
-0.024974
0.28117
-1.263708
-0.160462
-0.633721
0.240624
-2.468892
-0.73394
0.992694
-0.560295
-0.165438
0.347506
1.559063
0.820017
-0.090771
-0.808228
0
