-3.121209
0.963596
-0.796866
-0.844524
-4.248137
8.044258
-0.379442
1.500594
2.249316
-3.212827
-0.867221
-0.771996
6.287015
-4.747907
-5.868214
-1.782707
1.14246
-3.14634
-0.330753
-0.899067
-13.26578
-1.050203
6.685178
-3.863166
-16.903386
15.844257
-9.08738
-6.299437
-0.577441
-4.913724
6.431111
-4.540066
0.901594
6.147858
0.776481
-2.301278
-17.332919
-5.072219
19.653855
-2.791441
0.142164
-2.732214
1.640407
4.691864
1.358953
2.499728
-11.296682
0.709416
-9.626583
-10.222759
1.273745
1.885318
-1.843078
0.758408
0.633328
1.290987
6.808866
-7.172204
-8.796667
0.232603
2.540306
-0.545842
-1.074573
-0.760931
0.178541
-0.293534
0.019392
-3.097931
-6.644687
-1.533128
0.068046
0.59672
0.545429
0.133811
0.483532
0.192765
2.001429
-0.05723
-1.207814
1.504372
-0.614124
-0.596567
-5.543245
0.167179
1.363275
2.194379
-0.362648
0.678562
-0.352522
0.398108
2.533582
0.016396
-7.596852
-3.430721
-2.859523
-5.014991
2.843593
-2.849086
-3.756849
-3.593953
-0.413703
4.295737
0.757957
0.387541
0.185182
0.46903
-0.756115
2.866204
0.000613
0.028611
-11.433166
0.726871
1.865225
-2.099065
0.498941
-9.955034
-1.148776
1.656888
2.75291
0.470686
-4.233873
-0.64752
0.24951
2.90464
1.814717
-1.830704
0.682138
-2.341975
-4.098104
-7.97869
-2.094642
-0.62773
-5.37628
-5.547225
2.695572
0.368119
-1.446989
2.37445
-5.655138
-0.187389
-2.994248
-6.3095
0.100059
-1.055232
0.321187
-8.43926
-8.838603
-0.256457
-0.061371
-0.118112
-8.852573
2.814045
0.93744
0.331299
-4.777328
0.905843
-0.110638
0.000499
-9.377473
-6.632122
0.871013
-0.645439
-0.426739
-6.414547
-1.191451
0.331834
0.007049
0.202535
-5.085543
1.068576
2.089397
-2.025554
-3.188448
-1.039976
-0.234679
0.883656
-2.796397
-4.085711
-1.162892
-2.629945
-10.693281
2.622951
-3.164593
-1.792217
9.323997
-0.105537
-0.799156
-5.281242
0.828333
-7.14345
5.78441
-0.757231
0.479563
-0.20877
-0.069174
-0.902943
0.096775
-1.54626
1.447858
0.110534
0.309882
0.640935
0
