-8.350748
-2.479181
-6.12584
-4.360567
-4.289465
1.192997
-12.897232
3.320588
0.845214
9.879429
-1.734182
-4.876792
8.00845
-19.996879
0.696867
-0.44286
-0.048913
-0.316102
11.650266
0.709611
-2.508222
-1.753467
-4.150976
-2.005309
-0.646653
9.284001
-4.314517
1.849968
2.411771
8.491059
2.437206
8.827895
-5.026661
5.427518
2.709692
0.79032
6.582573
-0.362704
4.450293
0.419273
0.251398
0.434938
2.535304
-1.053844
1.87926
1.765105
-0.852216
2.13259
1.596123
-7.444543
-4.645988
6.879227
-0.78197
-11.613977
0.808952
3.310713
-11.687916
-10.994372
6.348724
5.538157
21.84387
-5.623458
-20.606959
-8.250922
-7.65439
-5.536118
9.796693
-1.512152
0.749827
-0.156256
-0.752274
-1.078688
3.173943
-2.48739
-7.367388
2.671939
2.326481
8.409046
0.157308
2.869937
5.110504
-2.203065
6.790249
0.251462
11.671759
0.666027
5.448284
4.248211
0.901169
-3.15437
25.502185
9.441659
-17.177954
-9.43168
9.807239
1.527035
7.121932
4.115638
-4.759609
-5.296427
-0.831692
1.203104
-7.405331
-6.582528
-4.696577
-2.262268
27.732777
-23.863548
4.592439
3.527456
-6.917545
5.395528
-3.044453
-3.90788
3.44497
-0.449972
-4.851895
1.634936
-0.933691
4.163224
1.756145
-9.955625
11.869441
4.346537
0.547669
10.554895
-7.017095
-3.920229
6.786582
-3.372204
5.467425
5.623501
11.525123
-18.398334
4.045594
8.003027
-4.099556
7.630604
-10.279238
-2.274784
-1.758122
-3.498066
5.893129
-6.318217
-10.370276
-8.019927
-3.161386
5.37046
3.894297
-4.684501
-14.275693
14.463138
-2.300082
6.61225
13.418506
-6.73629
-6.427986
2.009625
-0.275408
-3.953232
3.064225
12.668712
-6.597782
-8.448721
2.25949
0.528754
-7.190413
-28.189799
14.444218
-0.569634
-15.210831
0.888449
4.806738
5.525682
-2.113735
-0.60645
0.929019
-12.963486
-3.675376
5.286285
7.275325
-13.266994
4.585455
14.500803
-8.162419
3.365908
5.497494
3.040998
-0.432858
-1.279677
7.79201
-5.13387
-2.126803
8.721385
8.95288
-12.629758
1.381912
5.804116
11.549427
-1.621074
0.124971
-3.645928
1.72735
-5.908539
6.50897
6.545195
-4.58921
6.707776
1.700172
5.116817
15.062628
-10.493755
2.500657
-4.53531
-4.634825
12.571308
-1.022745
-3.898722
1.924909
2.187458
-3.822873
-10.996372
12.824703
-4.308559
-1.675706
-16.169235
7.174026
8.545127
1.765881
4.639291
-1.980718
-6.299917
4.452681
-0.249039
-3.429912
-3.657554
8.966402
-3.658471
-2.958951
2.128352
-2.74356
-14.851408
-2.732876
-3.792094
-17.066548
-9.750196
4.303221
-0.727943
-12.955
0.664934
-10.658541
-21.329207
-15.698862
11.436984
-1.957315
13.271906
7.966235
-8.962823
1.766522
-0.752249
0.525605
8.346289
-3.0116
1.016353
2.949472
-1.101453
-2.583901
-6.152375
9.824076
3.774286
2.538429
2.031929
2.38714
-14.797688
2.587275
1.351081
1.674971
1.308166
1.339217
0.943259
-17.835628
-0.029529
1.332747
0.64047
-16.504475
-0.550257
-1.947995
-2.557708
14.565534
-2.562308
-1.847207
-1.253188
-1.150359
-0.345587
-0.48855
18.381714
0.428122
1.602762
-0.542588
16.590868
4.080247
-9.838394
0.188336
-15.454221
19.187686
-16.901526
-23.310704
11.564363
19.09028
-17.472182
-25.364076
18.390382
-3.895558
3.327177
14.502121
-19.715672
-13.654824
2.65634
-19.311846
0.733534
-17.086895
-0.96655
-11.507757
-3.51123
3.814748
-27.918685
-9.00472
-21.624061
20.690098
-33.293891
-10.585547
-3.401971
7.531076
7.895954
15.411867
-17.240841
0.978709
-2.959308
12.982886
-12.498416
-2.291604
-13.945924
-2.455125
-8.032617
-10.643766
-7.268032
-13.605058
-5.149161
-1.067533
-40.65018
9.829689
-8.719559
5.415514
14.614743
18.627247
-9.029605
-14.17377
15.057917
-13.369957
-9.379996
-11.283651
5.792782
-5.762618
-7.776932
-26.461423
-2.345174
-2.309775
9.345998
-12.972529
15.434633
-3.709673
-14.893437
-2.213247
5.019001
12.427869
-2.36309
-6.139755
-34.181428
-8.465451
0.506171
10.109675
12.159731
-29.739045
-16.61265
2.638623
-17.476836
-4.204356
-12.767422
-11.06813
-1.977728
-8.028075
6.740898
15.910513
-1.838579
16.709981
-4.597079
-12.875431
-3.459666
-2.415162
-0.459173
-15.807503
-26.732378
16.383004
-31.350325
-13.967425
-2.649081
-18.278665
-16.784741
5.724503
3.234028
0.41499
-22.565953
-9.950811
-4.198886
2.512823
-5.941989
-14.692495
16.379483
-1.915561
8.7632
-20.989568
1.942324
-3.301162
15.239229
-27.841682
-11.709759
-8.66635
12.937364
-2.153478
-5.598622
14.789362
-1.853746
21.509499
2.216265
-21.237378
-12.10187
-4.382051
-7.707657
-8.074022
-27.426141
-8.465536
-6.965251
-2.216409
-1.569878
-30.13162
22.112201
-11.185644
2.509232
15.056179
4.242072
-1.126599
-16.751955
-2.206474
-3.899043
21.803061
-0.331674
3.247225
-9.440336
-11.440795
-37.910815
4.428351
-10.393778
3.672182
-6.247724
-22.308688
-35.912882
19.603203
-17.618691
-9.111729
8.307111
-10.292911
-2.472405
-12.333813
2.63548
-3.506792
-21.752095
2.106765
1.823036
-18.479537
-21.545641
-2.473116
-4.965039
10.373047
-3.971176
14.881836
-3.020707
-30.975516
24.051557
-12.298532
-21.238972
-3.270201
-2.754985
21.484336
-16.181745
25.58738
25.272712
-1.416133
-18.149626
-9.721048
-38.428293
-15.625855
-28.309037
-17.470515
25.318458
22.75658
-30.094299
5.858114
-0.634963
-8.500434
-4.450944
16.978668
-2.516442
-11.633836
-29.414073
3.469296
-21.532893
-22.770147
-1.830246
-18.823799
11.315942
-15.595995
14.495002
-14.727444
-6.79417
-10.04193
0.82351
29.62415
-13.404252
-4.669698
-1.935386
-3.73178
-0.940477
-0.530139
0.108325
1.374692
1.032353
1.607214
1.742902
0.693639
-1.489499
-0.065763
-0.304516
0
