8.067924
-6.253235
-18.700709
-63.188169
-34.533304
-6.454515
9.912836
30.945103
-3.282595
-8.975234
-36.085922
9.441332
30.952201
19.054096
-79.005638
-3.041974
-2.781814
-4.216592
7.763633
-0.83624
-1.814329
-0.399925
-4.874252
-1.273961
-5.928622
8.186374
-3.466702
0.734834
-3.950249
11.380084
94.749571
-14.76904
-61.636677
9.158196
-67.287457
96.44614
1.771729
-6.536301
15.571085
-0.697431
5.25301
3.307352
-5.615908
4.827449
-4.298885
-25.213895
9.653989
-0.883131
35.918385
5.530868
10.700455
15.625514
-11.526625
4.431553
-6.706707
19.521809
-2.804488
-10.400812
6.820918
14.404445
-2.342284
-4.979003
-4.592913
6.42459
9.504891
0.547122
3.823086
-3.18905
-6.825593
-3.599646
6.053126
6.148233
4.451701
7.91124
-11.295902
-3.529348
-43.937104
56.640908
14.031452
109.02642
0.413425
-92.494976
7.379251
4.351179
-4.197765
10.312154
-9.009773
22.83927
-8.330468
6.053296
3.617028
14.529204
-8.524285
-13.149714
-0.907209
0.34989
-3.996199
-4.587521
12.710912
-9.606716
-2.286218
-7.545023
1.51014
-0.80089
-10.074737
-56.305192
64.083029
7.573841
21.264619
21.588421
-106.746972
94.035739
-27.144034
2.449613
0.415519
16.828841
1.876214
-23.135337
-7.244613
26.88488
-2.826118
-1.943829
6.062578
-4.833236
-5.218415
-0.369285
-4.701033
-0.818863
-3.068977
5.892717
-6.680877
-2.257099
-0.557307
-7.730375
-2.9624
-3.848987
4.079473
4.131427
-39.933014
-17.5598
-0.650914
23.060077
5.912037
-4.531811
1.448962
-26.289285
-11.990946
4.368689
4.571337
-41.613209
-57.87383
-4.247352
109.692792
-25.166896
62.170788
-72.755605
-28.806093
-84.957125
-55.969627
-22.981588
-21.769819
-15.539393
-6.700829
-61.854837
-27.21154
32.338636
-118.95346
-52.467099
107.616897
-46.245971
-13.391066
-40.946922
-36.452958
4.144102
-131.982243
-24.872814
35.166306
98.620698
-25.552712
-33.891185
-60.271426
-15.299104
-31.655471
29.163135
-45.161256
12.924089
-33.040804
-25.648844
-20.504814
13.926265
23.624912
-55.300243
-1.066953
-30.838845
-11.99134
-41.678073
-18.022282
-36.792445
-6.173312
34.439887
15.061879
24.578884
-5.761427
-59.480893
-21.957936
37.641016
-61.263082
9.581917
-14.57061
-21.760298
15.07591
-51.806625
-26.534366
14.697731
8.576786
-32.848936
-51.083326
22.464078
6.141044
25.396857
-60.662647
-26.844499
32.510265
6.462117
-33.560176
-12.251683
-41.928011
-11.91093
14.34995
-41.14235
42.576835
-67.981962
3.559651
-37.443354
10.170789
18.327126
-6.418636
-49.69256
-51.998563
44.408403
16.007788
-60.888798
-55.226006
13.701355
-28.972737
-31.40785
16.437646
-10.923811
-39.495723
-60.576707
-24.157502
-29.336357
-18.106958
-13.912342
-59.032553
39.108
-35.783957
22.973201
42.155487
-20.479396
50.560437
-12.400227
-95.395876
30.092308
11.274798
-89.696183
-27.353093
-106.01421
-26.178433
21.254287
-33.543608
0.381295
-0.682557
0.496243
1.09772
0.393499
0.025218
0.05966
0.319263
1.135482
0.236858
-0.283634
0
