18.893751
10.582809
-21.221758
-13.664468
4.693852
21.140134
-0.266026
-3.403484
-0.125499
-2.261318
-1.718771
-1.746247
3.718095
1.879579
-23.679914
23.157254
-5.403664
3.077369
-7.959923
0.74902
0.209657
11.261279
-9.763901
10.495822
0.133223
25.93814
-11.474334
1.320628
6.20307
4.376732
7.965514
4.496859
-1.111786
23.470807
-0.144096
4.027617
-2.724014
16.083986
28.281731
-3.84597
1.773901
1.166843
-6.36983
7.734826
-1.935754
-9.057958
-5.987504
-5.580137
1.356978
3.090873
-0.777515
9.99995
-3.570348
-8.142519
-7.197814
8.288824
7.254751
7.937288
-14.871577
9.154128
-2.768793
-5.124197
2.36938
6.060997
4.80063
-5.729346
0.334526
15.86392
-2.133274
2.277199
2.583708
-24.042324
15.343398
-1.551741
-0.330956
-2.507321
-0.910875
-4.415936
6.937095
2.710063
2.099859
-3.547496
8.241359
3.512098
10.770623
-2.579946
-12.386414
0.580882
-4.177537
-14.892343
0.138226
8.425052
-6.865792
-1.243191
2.414057
-7.987991
7.55126
2.437973
-9.744814
-11.760598
8.309265
-2.08001
-5.355647
-8.546588
-1.962163
1.32553
-1.615107
-15.611247
2.619835
-8.057972
-0.141831
-0.298531
-6.241212
2.996557
3.136835
-6.556099
-4.074405
0.811444
3.321164
-6.875796
0.576102
-2.187282
2.797879
6.342515
-9.361036
1.580402
-8.358881
-0.495148
-3.704467
-1.520218
-1.605597
-3.241708
2.046546
-3.325098
-0.79962
-2.777586
-0.184453
-9.479202
0.421222
-8.262185
-1.224016
-5.759974
8.68073
-3.894957
-2.98044
-3.517742
-2.986034
-0.376206
3.025724
2.031346
0.113274
6.885228
1.520233
-0.435917
1.235852
-3.389784
-4.803774
-7.504785
7.912963
2.629842
-5.963657
5.206068
-6.479826
-6.509271
-3.441744
7.344614
1.617267
-7.50233
-0.662226
-9.566263
-2.247916
4.813744
5.999803
-2.874005
-9.934841
5.656032
-1.07185
-0.633662
2.886134
-11.105428
-2.92248
-8.985983
0.910855
3.341623
-0.446689
1.912482
3.595792
-6.286281
-5.522223
4.464337
-8.822646
-9.010737
1.264394
-8.832544
-6.775439
5.550768
7.400957
-0.867533
-1.861037
11.11183
0.043567
0.159313
-0.53436
-10.624184
-12.764817
10.010422
-10.588722
2.869536
1.036503
-1.019234
3.941248
-7.733618
0.867928
-14.349251
3.2927
-2.790546
-0.833054
-9.571731
1.128802
-1.99709
-12.779428
-6.184846
7.715956
-8.436527
1.694216
2.744525
1.325981
-9.322811
3.400954
6.661823
-8.48389
-5.293817
0.294461
-12.822429
1.78868
-7.65849
8.040412
-1.025772
-1.800054
5.549237
-2.43756
-12.243021
1.777046
-8.137945
-3.008178
-2.984652
7.49104
-4.535585
0.795816
-4.476667
-2.445326
-10.133495
-4.214031
7.355105
2.517206
3.193146
8.612091
-1.401671
6.641408
-8.372039
-1.292765
-0.953272
-4.119394
-5.542403
-0.937282
-19.374582
3.95331
-9.122928
-10.084874
-6.140875
-7.265031
-2.61451
-8.720206
3.485375
5.94269
-8.756088
2.846656
-0.849307
3.759481
0.758002
6.810888
-0.283634
0.488752
0.140112
0.654187
-0.275606
-0.677884
0.527145
2.915108
1.603668
0.66064
-0.588322
0
