39.226391
-0.393844
-16.535919
-49.994651
15.345857
27.188637
8.660809
23.407493
-3.749364
-14.829252
-27.569095
-4.163478
5.718375
3.600906
-72.049333
-3.387988
-2.381182
-2.546042
11.025798
-2.30136
-1.48184
3.787032
-5.441645
-3.87382
-3.648954
8.23102
-4.361561
-1.307435
-2.275752
10.516949
76.973067
-24.075992
-38.879013
-6.187057
-59.099392
62.537972
21.684954
0.54396
16.916634
-12.576698
8.453237
-21.095598
16.576004
6.048294
-5.863413
-5.962919
2.693599
-5.712304
14.4549
5.591317
2.868367
4.701122
-8.520204
2.416493
-5.69275
11.654357
0.646477
-3.324581
4.203705
5.627414
-2.751214
-3.32911
-1.971636
2.139249
2.642403
1.566981
1.680273
-3.342872
-2.545831
-3.699813
3.255132
5.039624
5.88848
5.950748
-5.004147
-17.13152
-37.310616
62.759188
-6.781946
53.215528
9.58907
-47.850963
14.180707
-7.661583
1.838826
7.421621
15.499268
8.837688
-13.110934
-6.86287
-0.263564
8.022583
-5.275966
-7.379375
-3.114226
-0.114139
-0.77172
-2.958471
8.241642
-4.93929
-6.786121
-4.698397
-1.222449
0.736989
-7.651449
-39.670504
64.636285
-15.303437
-2.915464
24.193338
-62.978234
56.441029
-12.257898
4.219378
17.491634
6.778327
17.702997
-25.677331
23.472198
-8.07354
-3.019072
-2.152139
4.883528
-2.7661
-5.348182
-1.505381
-1.766834
-2.46496
-3.695648
6.792271
-6.360686
-0.919254
0.107709
-6.149348
-2.508656
3.530008
-2.490885
1.007565
-37.557535
6.3204
-1.661183
-0.056808
1.548023
-0.795333
-3.800715
-22.3849
-6.85961
-3.616426
2.365393
-42.352283
-18.704069
-16.482486
86.540643
-6.934791
29.214439
-60.130175
-22.229032
-70.518567
-29.46835
-18.204707
-25.672713
-28.613691
-14.359177
-51.964551
-15.605057
31.656348
-57.58666
-29.394393
82.508737
-24.14511
-12.191235
-18.793171
-30.710836
-13.746733
-67.770791
-8.591582
21.907864
88.636646
-17.188463
-55.440085
-38.71306
-13.32995
-23.641783
26.977587
-32.957023
6.327067
-32.543054
-14.44127
-21.85788
6.216635
23.76501
-42.817847
3.989385
-24.934096
-11.286243
-38.068844
-14.64648
-35.4235
-1.639927
26.621812
12.75788
25.347064
-7.229706
-49.69639
-18.669396
35.847358
-51.467315
1.889638
-13.573779
-17.083808
18.462145
-41.590821
-23.897237
7.8328
9.395726
-29.784356
-49.207542
19.237694
8.330554
23.721118
-57.782665
-26.198271
31.054461
7.121816
-31.75482
-13.080337
-38.965097
-2.175548
11.133127
-39.818575
37.402899
-62.034722
5.172665
-35.850922
9.253667
18.937176
0.639203
-43.680162
-45.68814
42.238752
13.868713
-55.138398
-33.117821
13.582837
-20.872309
-30.775699
7.273945
-16.260984
-26.450635
-30.231497
-16.315513
-26.292437
-13.127749
-11.428743
-42.711475
24.810411
-40.170582
19.985858
28.696827
-8.752609
81.338736
-6.413668
-81.9207
10.548243
14.573147
-28.842068
-23.315403
-81.939395
-30.951328
32.429791
-34.882101
0.381295
-0.682557
0.496243
1.09772
0.393499
0.025218
0.05966
0.319263
1.135482
0.236858
-0.283634
0
