5.436663
-0.42381
-2.284478
-0.78725
-0.894332
7.893935
-4.155804
-0.982342
3.965974
-3.237521
4.872313
-1.413751
2.757759
-2.920031
-0.26612
0.159817
1.195707
-1.913133
0.828
0.013817
-4.846711
-5.499607
2.117912
-0.320975
-5.219686
-6.470744
-2.974026
0.798773
-1.378911
-4.294734
8.210122
-2.04654
6.313742
-4.333169
0.18438
-0.797736
-3.401515
4.854689
8.982784
-5.113734
1.290398
-1.462921
1.69245
1.047597
0.590874
-4.098529
-4.835033
2.248111
2.594352
-3.295236
-0.130011
1.369086
1.062173
0.022283
0.318268
-0.026554
7.737697
-4.582203
-3.617376
2.852511
-1.789277
-1.655881
-0.364115
-0.720484
-1.141311
0.247662
0.034801
4.103866
-5.544225
2.564718
-0.462248
2.221196
-0.722648
-0.902403
-1.171172
1.150784
-0.184586
0.183527
-1.317052
0.82663
5.575104
-4.414964
-0.190018
0.502563
-0.515887
2.556078
1.483433
-1.503309
-0.529249
-0.481866
0.042836
3.20536
-3.998141
-2.550767
-2.044819
-10.466977
3.977331
-1.912283
-2.716451
0.024463
-0.231973
0.430836
7.80425
0.312525
0.392267
-6.203584
-4.128039
-1.298883
2.831421
2.249113
-3.452864
0.714943
4.226775
-7.847105
4.786821
1.618977
0.460991
0.83521
1.107343
-0.964759
-0.383808
3.319181
0.309959
2.16461
1.003263
-9.755704
-1.36806
2.856312
0.7789
-1.354151
-9.892811
0.112815
-0.159313
-1.651555
-3.743464
1.935171
-3.729758
6.698293
-0.114882
2.690899
-6.461047
-8.287383
-1.570818
-0.995565
0.340129
-3.337917
-1.937071
-4.45931
-8.831614
4.12005
-2.661916
0.334006
-0.790701
-0.78594
-1.4516
-0.703773
-1.365969
-8.730427
0.336682
0.44047
-8.771288
1.244473
-0.194042
-4.499538
-3.676708
-7.361851
6.440761
-3.829702
-1.168721
2.634097
2.828541
-7.493128
-3.570946
-0.141567
-11.701782
-1.63666
0.64099
0.802109
-4.778914
-11.774688
-1.675243
-0.032494
1.124866
-1.933895
4.883969
-0.883089
-8.441343
1.72686
-8.654828
-0.90542
0.2184
-0.757231
0.479563
-0.20877
-0.069174
-0.902943
0.096775
-1.54626
1.447858
0.110534
0.309882
0.640935
0
