11.284395
-0.051989
-10.996555
-50.551118
-17.376412
12.504855
5.254538
-1.081796
4.367996
-6.650703
-28.129579
-15.578145
4.614172
4.443551
-56.60036
-3.196598
-1.322699
-1.157182
14.966651
-0.755124
-0.400163
8.230818
-4.958793
-3.184407
-2.399758
8.249859
-4.699821
-1.141502
-2.712435
12.735747
60.124534
-20.714847
-31.330532
-7.222531
-52.485267
47.888612
22.138417
-0.612962
12.699835
-9.575513
6.259079
-19.66839
12.348711
6.886585
-6.707177
4.347872
-2.647716
-5.228804
10.694043
8.368475
-10.664674
4.185135
1.946449
0.302937
-8.392013
8.971072
8.987469
-7.24419
3.827066
7.75371
-2.276615
-3.170755
-2.296416
1.498
2.782585
1.438072
1.554891
-4.956114
-2.805273
-4.090175
3.317938
4.127435
5.920676
5.459344
-4.481229
-13.879299
-31.193852
45.481962
-0.615473
37.49096
-7.003467
-49.057226
13.035665
-15.691537
-3.208934
4.487528
8.997379
-1.361437
-15.279746
11.927266
0.022963
6.763584
-2.673208
-2.970513
0.240146
-1.785731
-1.677859
-2.187008
7.165102
-2.012058
-5.323263
-2.543318
-6.916654
-3.010817
-4.4511
-34.768464
50.720094
-13.304962
-0.276244
9.887346
-66.835585
46.260078
-17.675806
-1.587653
15.161785
1.600145
8.755932
-28.496814
13.987803
5.818339
-7.526221
-20.818487
38.197372
-5.664019
34.187762
3.26965
-19.789138
5.183956
-8.426333
2.795066
0.854601
5.14663
4.012161
-10.148792
-7.749234
6.656939
-1.109323
-0.900656
-2.100263
-1.300071
-0.72519
-0.425842
9.446639
-1.682992
0.42195
-3.757039
-2.946496
-1.595134
0.009167
-4.298382
-15.770614
-14.433954
87.957691
-18.342862
21.114686
-26.824412
-2.403831
-55.952732
-41.970528
-24.772104
-9.946835
-23.270586
-6.641652
-42.873194
5.415355
17.475849
-31.110354
-27.414529
70.019161
-26.353316
-13.578611
-15.045744
-31.812853
-18.712276
-60.099367
4.304344
20.20571
63.64963
-35.903485
-55.811018
27.644811
-15.120497
-29.417548
16.67608
-53.062616
12.305088
20.988686
-15.002997
-33.651578
3.980121
0.620337
-25.732199
-3.106363
-17.39582
-32.673755
-30.389574
-2.496542
-30.17596
-2.67687
5.153756
6.283804
6.136209
8.803953
-34.408261
2.768883
20.983017
-60.113171
13.364231
-13.636373
-17.200143
4.173559
-24.179733
-23.319632
2.569328
3.088867
-14.032368
-25.257013
54.034802
2.049936
-14.879904
-40.808692
-33.162195
22.987123
3.741857
-32.018369
11.835248
-32.929069
-0.879849
31.754152
-29.745151
28.564771
-50.859295
0.213085
7.180136
1.427614
1.755461
-28.597107
-40.336549
-22.922048
58.723235
-0.548129
-45.254359
-31.108943
3.737641
-21.337209
-21.423991
5.439077
8.126731
-23.711409
28.760046
-11.376195
-55.466555
-27.292522
-2.157913
1.621649
7.332504
4.497854
-10.573659
37.692941
-31.901861
81.491898
-7.375644
-32.778114
-5.895093
22.379769
-41.802749
-4.940502
-80.413761
-0.792264
-33.320975
-12.096607
0.381295
-0.682557
0.496243
1.09772
0.393499
0.025218
0.05966
0.319263
1.135482
0.236858
-0.283634
0
