0.599917
0.559285
-2.766005
1.637112
0.230002
3.819926
-1.086081
-4.31447
-0.002116
-0.32227
-6.995602
1.766061
4.355308
0.937232
-0.206229
-6.464172
-1.61063
4.171471
-2.073254
-2.442418
2.333664
-2.653116
0.590379
-2.522874
-0.8841
1.691354
-3.830232
0.644594
3.741648
-2.927085
-5.714093
-1.065907
9.40011
0.199964
0.752037
-6.92114
-4.250188
10.974413
-10.828276
-7.202941
-5.120817
8.544202
-11.084373
-0.683502
-5.74759
-6.634535
8.172404
7.444708
2.363178
0.335444
-0.168868
-2.147514
3.38674
1.456868
-1.924189
-6.403294
1.54499
5.63721
-3.092652
-1.999348
-1.876524
-0.193309
-0.105844
0.990924
2.74796
0.331396
-5.028842
-4.137225
6.501088
1.037574
1.349389
-6.391757
0.201248
0.814376
-1.046286
-0.466127
0.395911
-0.933361
-7.774982
3.215207
-1.934111
1.049635
3.046181
1.562267
0.69069
0.573678
-0.398402
-1.697204
-0.487732
1.396248
-6.531417
-2.038101
-0.568051
2.332304
-0.105638
0.134324
-1.310144
-2.859466
-0.046326
-5.592101
-1.560935
1.930462
-10.216133
-4.618596
-2.085556
4.196978
-2.385843
-3.797283
-4.999894
-2.723015
-3.508214
-3.660627
-1.705562
1.837222
-1.59297
-0.77302
2.622457
2.659072
1.157424
-0.556799
0.795797
3.884688
-1.917243
3.151313
0.039993
0.111257
-11.434255
1.801861
1.775535
2.085885
-4.238244
3.023935
-0.682022
-5.200226
4.287241
-1.357754
-11.679894
-0.020678
-0.502859
0.658287
-2.212467
-0.108903
-0.642232
-0.48783
-3.905114
-6.574456
4.47498
-2.847632
-2.651558
0.329702
-2.904504
-0.962335
-4.511529
2.127727
4.248724
-6.374234
-1.869014
-2.026321
-4.770424
1.451769
1.750439
-0.823282
0.890039
-9.092926
-4.885668
-2.367754
-0.738585
-0.189032
0.939115
0.108604
-8.036487
4.658298
-2.392039
-6.995393
-1.563887
1.461812
-4.140314
3.067024
1.854028
-0.173417
-5.605968
-1.133044
-1.922799
-1.447453
-1.236078
-4.464416
-3.040078
-1.571729
10.373213
-0.596432
-1.666494
-7.868576
4.869181
0.404735
-3.445055
-1.833817
0.640191
-1.892884
1.437481
-2.172507
1.627161
0.899722
-0.128266
1.149775
-1.512945
0.646946
-1.64414
0.134083
0.441761
1.391224
0.896892
-1.475996
0
