3.296781
-0.402723
-0.230404
-7.427696
0.706699
0.591167
1.873138
2.012035
-1.211228
-0.765596
-11.235218
-2.696238
-2.992655
4.083903
-9.894366
-0.708786
-1.992077
0.145088
9.148112
0.188855
-1.003833
-0.43696
0.165724
-0.80632
0.01761
13.159992
0.709158
-1.135258
0.326261
11.244144
12.656616
0.240459
-4.563908
0.036453
0.483232
9.218092
3.731574
-2.874444
2.728108
0.764391
0.456901
-4.585071
2.441339
-0.776484
-0.862144
-3.493753
10.187511
-10.983282
8.918393
-1.145585
-4.479235
1.135716
-0.264467
3.010526
-1.120317
4.603626
5.698211
-1.095623
-1.357002
5.799335
7.913019
-18.834516
9.874777
2.556218
-5.757281
0.125268
-3.230875
-1.01527
2.680207
-1.1992
0.148811
2.890016
1.842837
0.420859
2.151312
-9.071898
7.44971
2.413769
3.722978
10.192539
-3.664231
-4.595332
4.00807
0.601424
-4.068778
1.686578
9.904802
-4.580016
-4.868322
1.208551
12.644151
11.845939
-12.060349
-7.269935
8.749719
0.568884
2.012165
-0.02446
0.392627
-4.86827
-0.244349
0.102008
-2.706907
-6.514183
-2.271736
2.825199
-0.539726
-0.672524
4.948646
-5.192065
-2.234995
6.993906
0.26752
-6.441757
1.178388
0.609059
-12.290352
-5.018867
8.028284
3.446479
-6.305486
-5.011583
12.065001
-0.839737
2.308811
4.935138
-7.051254
0.23006
-0.600602
-0.427992
-1.485958
0.659486
3.85823
-6.403187
-0.105023
-0.277522
-3.061923
-2.406765
-6.187
-5.93453
-6.843185
-6.038307
2.449294
-5.083166
-9.408654
-13.267934
-9.647946
-4.742936
-1.917296
-2.602319
-3.874696
0.615727
6.98384
7.219069
9.033499
-11.791448
-3.795311
-13.036807
-9.251891
-4.639156
-3.482638
-0.678876
1.988066
-10.214467
0.837514
-7.525437
-0.426525
-12.269126
7.480808
-9.563569
-1.757634
0.205966
-1.997316
-0.116778
-10.863109
-0.926869
17.721315
7.91234
-1.437535
-5.140501
-3.538592
-3.231757
-10.268984
4.377293
-10.45506
-1.800256
5.244716
-1.718637
-0.077486
4.105106
-1.048461
-12.602995
1.297834
-4.715764
-8.360157
-15.195812
-2.040147
-5.253128
-3.329533
7.131628
0.349311
-5.137989
7.292302
-0.761088
-1.27461
4.61845
-9.359401
2.856972
-6.399819
2.18887
-3.955634
-12.321112
6.679067
-4.206437
1.67505
-6.947937
-10.343246
8.297644
1.201522
-4.638646
-3.681036
-4.170013
14.819872
-4.685243
-16.307464
-0.531687
-3.957934
-4.511407
15.767748
-2.283977
-0.688568
-15.361332
-4.297616
-2.38783
-7.946426
10.074788
2.770372
-12.393021
-7.526728
11.089754
-1.966898
-15.117666
0.694045
-6.09415
-3.473953
1.945682
0.462565
3.418566
-5.00401
13.050628
-6.616155
-1.645064
-14.204361
-1.692436
-9.0607
15.742068
1.811546
2.98168
-19.750329
-2.077656
3.338905
-1.638615
-9.778996
0.260605
-0.525128
-13.922934
-10.518391
-14.072942
-1.009196
13.967733
-0.636976
0.381295
-0.682557
0.496243
1.09772
0.393499
0.025218
0.05966
0.319263
1.135482
0.236858
-0.283634
0
