1.960457
3.275094
-5.172903
1.100159
0.754508
3.817149
-0.899033
-6.223185
-0.522877
-1.728833
-6.322626
5.756282
2.039317
-5.629063
-2.65122
-4.637681
-1.781733
1.824044
-8.168173
-6.942714
3.829923
-7.902728
3.533512
2.579709
1.221371
-7.821061
-0.352105
2.789635
9.024918
2.067502
0.279643
-3.551335
2.313212
1.195011
-0.284762
1.225508
1.917333
6.210554
-1.996766
1.622764
-0.205793
2.430501
-1.318755
-5.93499
-3.228077
7.386552
4.067545
2.985732
-6.411355
1.193706
-0.353692
-1.966206
3.703292
1.314182
-2.928702
0.70144
-0.391267
-0.784797
0.615802
-4.514857
0.683804
-0.489784
-0.301215
0.053247
0.397584
0.627358
-3.235595
0.813426
-2.291166
1.663663
-3.926429
4.26517
3.718512
3.175243
-1.835458
-3.802829
-2.050287
-0.954581
-2.027151
-3.231046
-0.147357
-1.452565
1.451573
0.232255
-2.30281
-0.749009
-4.71903
0.280582
6.051785
-0.730761
-0.851808
-2.21421
-3.173654
1.680698
-0.636012
-0.069791
-4.564051
-3.351568
4.076668
-0.668202
2.615521
1.76668
-3.481906
-2.811429
1.136103
1.259599
2.019393
0.861856
4.022308
-6.248467
4.8088
-1.311403
1.096549
4.11584
-5.446592
1.382731
5.871341
2.311567
3.420367
4.763113
0.710536
2.799629
-3.089206
4.244317
1.557976
-2.470227
-0.297037
2.771727
2.496353
-0.158272
-6.917107
-3.224215
2.691257
-1.665616
7.047449
-3.614931
-3.648405
0.605057
-1.219023
-1.671824
0.287366
0.955267
-2.519349
0.387374
-3.856961
-1.393128
0.033603
-2.784753
-5.08655
-0.217548
-0.357845
2.648377
-0.209228
-0.452171
2.498327
-1.632616
-5.431475
-2.799272
-3.386137
-0.732723
-4.337359
-3.194903
2.662357
-0.434739
-1.35794
-5.238485
2.203669
-2.361325
1.937417
-2.797026
-1.481316
-4.693249
0.097434
0.390747
-3.391482
-0.988096
-1.009907
1.236949
-4.941334
-2.982093
-0.568433
0.450798
-3.145583
-3.998123
-3.164082
-0.777622
1.416537
-2.044489
0.166867
-2.778634
1.843073
-4.978038
-2.137817
4.050309
0.564191
4.092212
1.143947
-5.852722
0.662929
-7.425179
2.380064
0.899722
-0.128266
1.149775
-1.512945
0.646946
-1.64414
0.134083
0.441761
1.391224
0.896892
-1.475996
0
