-0.690539
2.158456
-0.256695
1.11838
2.098261
-0.452976
0.542587
-0.123034
1.278374
-0.420648
-1.053409
0.174131
0.55413
-3.006327
-0.827506
-1.879922
-0.823288
1.268864
-0.84435
-1.375498
-0.436651
0.672803
-1.055699
3.183482
-3.592711
-2.451383
1.619268
-2.675827
0.289506
1.867464
-1.331202
3.822465
-0.220961
3.791026
-3.890441
0.752688
0.217919
-2.243155
-3.268017
0.955798
0.073549
-0.389555
1.152223
2.354766
-1.255795
-0.523889
0.937224
-2.244947
-1.137387
1.547064
1.14552
-0.869717
-2.584944
0.89759
-0.057491
0.83405
1.506472
0.091623
-0.401381
-0.988093
1.060614
-0.086381
-3.856266
-0.994179
1.013338
-0.411094
-1.046602
3.011593
0.076147
-3.891158
-1.185615
-3.603865
-0.454991
-1.77151
1.153318
-0.1078
0.886762
-3.279176
-1.15128
0.216871
-0.108969
-0.035124
-0.867936
0.076592
-2.816526
0.083737
0.248427
1.393064
-1.92815
-3.225156
0.184996
-3.23851
2.470661
1.91717
-2.328658
-0.02816
0.249849
-0.952253
-0.587373
2.39522
2.814667
-3.487238
-3.439691
1.978933
0.301497
0.823527
-2.7653
1.802408
0.561736
-0.342648
-1.019674
2.630891
-0.033833
-0.224759
6.285143
1.956158
-3.977491
2.091225
0.007474
1.961734
0.518348
2.426112
0.525453
-0.413408
4.835972
-3.525705
-0.377255
0.65621
-2.125911
2.094081
2.841525
-0.75961
-0.441697
-0.151218
0.727504
-3.522948
0.954174
0.021812
-0.711911
0.648572
0.05344
-0.396598
0.805588
-0.529865
-1.76686
5.603929
2.279838
0.357212
-0.052086
-0.741329
-0.309051
-1.484671
1.157319
-0.222313
1.079246
-4.082058
-0.178819
-0.782707
3.367028
1.456326
-2.12441
-1.150278
-0.21491
-1.45814
-1.931961
-2.529943
0.83232
0.299464
1.24616
-1.613245
1.451801
1.476409
-1.704581
-1.405096
-0.136039
-0.742565
-0.506896
0.306267
-1.987176
1.586898
1.496383
0.228484
0.572009
1.025701
-0.356092
-3.149918
-1.230639
-0.604793
3.72184
-1.884395
1.580891
-1.363759
-1.007658
-0.20646
2.52209
-0.089959
-1.557519
-0.343048
0.82862
0.707051
1.451994
1.973988
2.327388
-0.924888
0.849554
1.263548
-2.115438
0.891454
0.099317
-1.524484
4.304266
2.099321
0.892183
-0.160686
-2.151335
-0.39456
-3.533732
1.82487
2.364403
-3.159394
-0.960462
0.508181
-1.770723
3.32835
-0.862845
-1.160164
-0.621647
4.475248
-0.113497
1.939138
1.99118
-0.698076
1.757526
0.462721
-0.722344
-0.193379
1.657503
0.643511
-0.775852
-1.939216
0.933272
-0.895414
-1.069724
3.519842
-1.908902
-1.894344
0.728704
-2.860088
2.848311
-0.33554
2.252051
1.803946
0.303849
1.260068
-0.676273
3.133043
1.90559
-0.509726
-0.094833
-1.683872
2.600595
1.86962
-0.490487
2.142552
2.405284
-2.527603
-0.248464
0.891789
-1.633372
-0.431952
0.15662
1.543685
5.191246
1.341713
1.064414
2.780776
-0.60749
0.971639
-0.620597
2.010868
2.070884
-0.582503
1.283679
0.024476
-2.309181
0.602963
-1.209027
-1.074495
-0.437566
-0.191264
1.685191
-1.580484
2.001339
3.812274
1.539633
-1.807539
3.36176
-3.333489
0.443599
-4.320243
1.15013
-2.828444
0.752162
-2.239236
-0.103277
-0.468569
1.725225
0.177573
-1.990309
-2.055666
-0.347095
2.774156
-0.740056
1.556437
1.001419
-1.15483
1.793593
4.510107
1.840498
0.999724
-1.755623
3.185045
1.383291
0.423121
1.532195
-0.149251
0.836418
-0.422473
1.820546
-1.433684
-0.958866
-2.147739
-1.148229
-3.517091
-1.699279
1.759978
-4.154446
2.016879
-1.389052
1.054948
0.045486
2.197516
-1.890197
-2.030094
-3.540209
1.725238
4.461895
-1.381064
0.320173
0.705621
0.302593
-0.541265
-1.392261
-3.007758
0.106549
3.607668
-2.149987
1.102013
0.168304
0.695391
1.265833
-0.284886
-0.08939
0.205876
-1.056127
0.451458
2.93669
4.791047
-0.553158
-3.205039
0.572623
1.221219
1.124578
-1.794557
-1.835346
-2.353783
0.464577
1.85723
0.224803
1.486665
-0.912338
-0.714517
-0.504206
5.634107
-1.39855
-1.332769
-1.097236
1.065045
0.005128
1.223061
0.295517
4.216155
1.857846
1.063959
-1.059364
-0.683531
0.696409
3.151976
0.684393
2.106757
2.143561
1.380267
-2.548334
3.428568
5.002287
3.64311
-2.376126
-5.600637
-2.263198
0.187125
-0.953467
0.327677
2.478475
1.032901
1.084355
-3.745866
1.25224
3.959754
-4.137469
-5.045693
-1.86009
-0.32153
1.343356
-2.244046
-1.976316
0.957486
-2.332171
2.735888
1.770865
-1.728072
4.046983
-1.845993
-0.820333
-0.126867
-0.416221
-0.76219
-0.325133
-0.298729
-2.400066
-3.480016
2.28725
-5.819308
-2.453407
3.450327
-1.610403
0.764864
-0.955828
-0.246582
-0.746163
-0.481907
-1.973236
-2.252034
-1.102199
-1.905034
3.216045
1.184417
0.411075
-0.530724
-0.757153
-1.123423
-0.263458
-2.738202
0.83357
0.37279
1.121014
1.604518
0.464575
4.784715
-1.03382
-0.780489
-1.496483
1.262279
0.358449
-2.294176
-1.762187
1.775103
0.170265
-1.585222
0.083152
0.811203
-0.345499
-0.512137
0.703767
-0.696782
-0.340708
2.185196
1.841226
0.365367
0.415426
-0.412586
1.22692
-0.078247
1.046709
-2.415542
-2.271687
0.133316
-2.964164
3.610056
-0.977315
-1.926076
-1.15457
-1.412099
0.959112
-1.780092
2.869796
0.731777
-1.249616
-0.063846
-1.968446
3.057975
2.06792
0.267095
2.724404
0.167737
3.031877
4.103078
0.319877
-2.296356
-3.592343
0.771661
-0.102801
2.596902
3.260184
-0.648802
-0.324761
-1.941614
-5.259895
-2.595489
-0.146617
-0.753173
-2.030318
-2.699819
-0.209725
-1.024236
-0.29672
0.682231
1.455815
-0.520074
2.299531
3.749947
-2.205952
-1.095281
1.823744
-0.703819
1.488047
-1.739376
0.429785
0.231641
0.66324
-3.58056
-1.977219
1.265706
-3.535574
1.489569
-0.698473
-3.731037
-1.589947
2.999306
-0.770096
-2.072706
-2.686102
0.058134
-1.976647
0.273478
-0.380031
-1.766193
-0.764211
-1.215495
0.458414
0.940587
1.576716
1.382883
0.887453
1.570484
2.139179
0.154616
-0.657269
-1.083521
-0.635317
3.294788
0.371802
-0.37215
-1.200867
-0.02077
-3.322264
-0.245245
-2.393871
0.20161
0.222902
4.326327
1.038533
-0.355927
-3.101411
-3.566501
1.539517
-2.536964
-0.297032
-1.578182
-0.043708
2.555653
-1.963393
1.27215
-1.383287
0.988536
0.531689
-1.352825
-1.233062
-0.982448
1.405944
-2.038397
-1.884248
-0.848832
0.593598
-2.036051
0.99462
1.362973
1.621617
0.485057
-3.868925
-2.23477
1.714393
-0.964886
2.680294
-2.455467
-0.999126
-0.438091
-5.635139
-1.380194
-1.261674
0.865208
-2.28178
-0.657341
-0.895504
-0.257059
-1.864472
1.295491
-0.982915
-0.178723
0.385665
0.246499
3.471474
1.654673
0.664403
-3.782705
-0.92661
-1.2141
0.012775
-1.407011
-1.698704
-0.013101
2.42649
2.587127
1.659989
-1.03363
-0.582355
0.243017
2.3357
-1.27438
1.3669
-1.056154
0.357219
1.51916
0.567748
-1.497708
4.244998
-0.243584
-2.344416
1.983705
0.334761
-0.611614
0.312589
-1.380939
-2.835908
-2.17638
2.152559
1.044816
0.800867
2.617438
0.254292
-0.302461
-0.686544
1.466225
0.811977
2.303881
0.216527
-0.494933
3.095328
-1.526027
0.109744
0.834038
1.720168
2.012805
0.845392
-1.594752
2.875723
-0.287115
-0.227241
-2.225315
-2.677751
-1.700058
3.936697
-1.542732
-1.841504
-0.972133
0.700984
1.136473
3.851221
-0.001638
-0.177763
-1.391265
0.765319
-1.319835
0.323445
-1.652958
-1.878807
0.808611
1.301306
0.406695
2.412555
-2.661111
0.601617
-0.34207
0.348368
-1.30219
3.045552
2.895519
-0.71029
-0.445987
5.031016
-0.525829
-2.265183
-3.083362
0.204893
0.1034
-0.858367
2.110236
-1.19222
-2.894912
1.70632
-1.299686
-0.152498
2.044786
-2.498409
-0.105687
0.142096
-2.019362
1.996728
-2.293558
-0.25162
-0.53473
-2.987586
-0.387609
2.082854
-0.792389
1.232024
-3.008224
1.79877
-4.305627
-2.463837
-0.980731
0.059408
-3.995727
-2.21235
0.691245
2.263895
1.242391
-0.180803
0.29489
-3.11554
3.002029
-2.630016
0.076161
-2.198821
-1.670774
-1.491086
-1.661262
-1.445962
-1.851878
-0.572864
-1.512721
-1.730768
0.355262
-0.261815
0.145214
-0.735297
2.207028
-3.049769
-0.972626
-1.281539
0.540995
0.905673
3.519165
1.494955
0.457665
2.232399
3.095433
-1.09181
1.843332
-2.207953
-0.170853
1.268083
-0.757115
-1.53991
-1.073754
2.840917
-1.033878
1.406424
1.000505
-5.779657
-0.40396
2.106668
0.378245
-2.832761
2.771687
-3.320901
-0.811326
2.749214
0.437547
5.24483
-2.320644
-2.36326
2.851406
-0.935848
-1.590858
-2.530722
1.270304
-1.596048
-0.673638
-0.732742
1.013669
2.395772
1.28666
-2.468769
-5.719745
1.048675
0.980157
-0.845107
-0.078427
0.12171
0.203474
0.77631
-0.071047
-1.184781
-1.89879
-0.135039
-2.528736
-2.218283
-0.507706
1.444892
2.404944
-0.739507
-4.999416
1.706245
-2.138207
2.336299
0.445164
-3.821311
-0.059087
-0.305407
2.047995
1.289094
-0.87737
-0.46861
1.579942
-1.515589
-1.939044
3.588119
-0.786809
0.858535
1.353121
-2.318532
0.282364
-4.086927
-4.646869
1.937058
0.255971
-1.173103
4.009957
1.380172
-0.840841
4.141826
2.333609
0.959778
-1.094257
-1.445733
-6.644243
1.411219
-3.233195
2.535882
-5.550212
3.263935
0.410438
-5.216869
0.305898
1.552365
0.695893
2.679688
1.984596
-6.374511
-1.304886
-1.07897
-5.36522
2.749979
-2.422255
3.45462
4.041297
-0.126618
0.444977
-2.807502
1.292597
-1.459637
-0.88185
-1.276007
0.356953
0.836574
-1.743025
-2.648513
-1.310267
-4.072898
-1.154856
-1.886776
2.876204
-0.747367
1.768817
-2.348221
1.748663
-1.249143
-1.045416
0.782806
-0.39529
4.522971
0.25588
-6.737681
-3.22757
-0.181966
0.503819
-1.35002
6.050921
-0.607092
-2.923098
2.070035
-4.611019
-1.513698
-1.124556
-0.144518
2.559915
2.528623
0.601292
0.261298
-1.093757
0.638204
-2.573914
-3.886387
-1.050511
-0.945598
-1.124288
0.694135
-2.153857
0.039035
2.063117
-1.746956
-2.776951
-2.200844
-0.876529
-4.751325
1.933232
-1.210737
-5.120005
-1.130084
1.754026
3.536289
4.945026
1.323331
2.922691
-2.957124
0.37506
-0.657673
-3.822686
1.847511
-1.074351
2.500913
-1.182166
7.753088
3.383903
2.613554
-2.604965
-1.794127
-1.294022
-1.416602
-0.082983
-0.343016
-1.191959
-2.425642
-1.13408
-0.389676
-1.528622
-2.022259
-3.66218
-0.343422
1.644233
0.504006
-0.117567
-0.827337
0.501176
-0.098787
1.194606
0.274876
-3.429931
-1.245634
0.397607
3.187105
-0.965874
-1.237979
-2.889326
-0.65679
2.291368
-2.450094
0.173866
-6.392481
-0.301599
-0.462662
1.873635
0.52184
1.553876
-1.042335
1.625009
1.303829
1.892668
-3.56352
-0.051922
-1.886611
1.198645
-1.49415
-7.27574
7.252219
-1.584588
-5.12726
6.24301
-2.088371
-0.935871
-5.106898
-4.532759
-3.261454
-0.598192
2.595656
-0.14847
-1.790301
3.510958
-3.549504
-0.348858
-1.851463
-1.537472
-3.772199
1.641783
-0.6187
-3.37855
1.36957
-1.588336
1.321213
-2.300948
-0.538931
1.324922
-0.880268
-1.552334
0.891254
-1.594917
-2.383325
1.045546
-1.410909
-1.366702
-2.267931
-0.646135
-0.765296
-0.618387
-0.999805
-0.617096
1.011006
-1.09391
0.4266
-0.875773
-0.815242
-2.363266
-2.595559
2.590729
1.652047
1.662796
0.324189
-2.72386
2.658082
-0.803307
-1.782731
-4.453295
-2.557584
-0.98506
-0.340658
0.653742
-1.556543
0.869782
-0.300286
-0.789755
0.406508
-1.424315
-0.128418
-2.146298
-1.176073
1.122183
-0.779074
-0.10548
3.104809
-0.058318
-1.410029
1.48587
-0.762476
-2.41095
-2.777679
-0.69534
0.687919
0.510333
-1.016063
-1.048479
2.681386
-2.244259
-0.215731
-0.981602
0.010156
-2.187821
-0.79755
-0.597797
0.488169
-1.352304
-0.385371
-0.942588
-0.814191
0.1545
-1.321841
-0.820885
-2.098624
-2.173704
-1.50361
2.706517
-1.064733
-1.04222
3.059865
-1.441156
1.293238
-3.968935
0.07974
-1.274654
-0.990429
-0.155478
0.79223
-1.516555
-0.217808
1.813961
-1.744088
-0.009676
-1.886641
-1.2569
-2.112117
-0.771847
-0.797741
0.227451
-0.985741
0.603528
0.166355
-0.987114
0.404753
-1.104441
-0.108101
-2.30775
-0.634402
0.967617
-2.209394
1.240509
-0.908588
0.908889
1.074215
1.267926
1.60535
1.248131
-0.79936
