3.724366
-0.56731
-0.593001
-8.14714
0.97107
0.448359
2.106592
1.935276
-1.447833
-0.488755
-12.794904
-3.526306
-3.41245
4.697776
-11.284386
-0.997867
-2.096585
0.145792
10.100829
0.044065
-0.891128
-0.642935
0.332961
-0.943106
0.023702
13.933175
0.895485
-1.197653
0.448933
12.099193
15.006383
-1.488081
-6.880111
-0.461913
-0.230805
8.44145
4.266507
-2.98323
2.034687
0.701882
0.367551
-4.595891
1.106461
-1.372393
-0.940507
-3.219101
12.300505
-12.689401
9.716548
-1.723084
-4.30166
2.3283
0.261744
2.934579
-1.721807
4.653076
5.963776
-0.453257
-2.324715
6.35354
9.152728
-20.73854
11.118829
2.47879
-6.044408
0.87416
-2.626475
-1.162538
3.377228
-1.819184
0.225209
3.122736
2.109184
0.089197
2.077075
-9.509244
8.107336
2.372466
3.616969
11.011649
-4.229087
-4.495604
4.150327
0.927898
-4.664684
1.675689
11.25105
-4.888292
-5.831128
1.003659
13.097884
13.356509
-14.526699
-8.031321
8.794867
0.496051
1.773487
0.614213
-0.130864
-5.604137
-0.031371
0.397416
-2.857398
-8.531502
-2.337303
3.133832
-1.131154
-0.775423
5.119084
-5.71344
-2.3547
7.037547
0.91462
-6.102605
0.473082
0.858247
-13.422197
-5.111179
9.622502
3.453166
-6.537241
-5.731925
13.081815
-0.629181
2.353763
5.328139
-7.46151
0.013448
-0.702132
-0.101997
-1.75803
0.464996
4.465725
-7.191164
-0.139511
0.049197
-4.612718
-3.158679
-6.755971
-6.570493
-8.517972
-6.361404
2.173204
-6.013222
-9.926907
-14.327289
-10.301102
-6.529462
-2.082382
-3.071615
-4.600763
0.400078
8.992512
8.775554
10.624464
-14.213994
-5.602817
-15.281386
-10.437184
-5.92262
-4.480592
-0.777743
2.389174
-12.305631
1.007397
-9.134788
-1.023275
-11.75245
9.216213
-11.085315
-2.993821
0.049554
-2.828005
0.033414
-13.34898
-0.814778
21.037177
9.402828
-1.671925
-5.458633
-5.205469
-2.70459
-12.154625
5.203901
-12.655708
-1.876609
6.715372
-1.545424
-0.082804
4.919132
-1.537529
-15.205313
1.520398
-6.037243
-10.078523
-17.898077
-3.477442
-5.954154
-3.849682
7.906362
0.60206
-5.645421
8.467227
-0.743772
-1.583179
5.285652
-11.747761
3.083404
-7.212578
3.111444
-4.835053
-15.099742
8.568712
-4.515075
1.770332
-8.900861
-13.913881
10.052534
2.853357
-6.31929
-4.336758
-3.406155
16.512387
-6.484816
-19.720721
0.427985
-4.819123
-4.846841
18.746266
-4.054107
-0.403705
-18.308634
-5.347199
-1.952131
-10.036006
11.794212
2.625848
-15.022309
-10.301115
11.990732
-1.855323
-18.146556
1.494172
-5.908597
-4.090484
2.917369
0.301057
3.862361
-5.918112
16.139744
-7.474374
-1.958266
-17.290257
-0.910473
-10.681147
19.167522
0.907732
2.509352
-23.55591
-1.946685
3.001966
-1.029157
-10.480735
0.286984
-1.647823
-16.297513
-12.183928
-16.199175
-2.169822
17.770959
-1.275063
0.381295
-0.682557
0.496243
1.09772
0.393499
0.025218
0.05966
0.319263
1.135482
0.236858
-0.283634
0
