-0.009225
-0.343609
-0.171883
-0.223996
-0.59454
2.058243
-1.226718
-0.326351
0.413774
-0.257346
0.495675
-0.059681
0.848998
-0.719885
-1.400291
-0.372429
0.057826
-0.899139
-0.089805
-0.249466
-0.661215
-1.877555
-0.087654
-0.221569
-1.13878
1.565717
-0.720728
-0.189815
-0.130342
-0.181454
0.165454
-0.059677
1.391873
1.719187
-0.964251
0.425749
-0.274878
-0.263445
2.803897
0.307622
0.426269
-0.608111
0.639726
0.362431
-0.032058
0.422953
-1.159448
1.074774
1.19583
-0.121555
0.17899
1.00781
0.176524
-0.298401
0.500957
0.624668
0.736169
-0.769491
-0.738238
-0.683398
0.959463
-0.279379
-2.736307
0.71181
-0.076344
0.738655
0.046643
0.385355
-0.944802
-1.28247
1.057032
-0.231935
0.023881
-0.652463
-0.329331
0.59793
1.676038
0.513121
-1.011813
0.51577
1.280131
-1.662254
0.042069
-0.195989
0.629163
1.907986
1.481426
-0.624426
-0.107119
-0.520166
1.665692
0.598744
-0.977845
-1.726664
-0.113754
-1.264701
0.168759
-0.207604
-0.700517
-0.915442
-0.522042
0.75182
-0.405012
-0.153474
0.633111
0.65743
-0.083348
0.012267
0.986089
0.328284
-2.494777
0.057632
-0.05974
-0.32367
0.691351
-0.861626
-0.061719
1.162096
-0.05477
-0.525374
-0.921321
0.84312
2.136312
0.817529
0.123983
-0.378593
-0.952087
0.831608
-1.201434
-0.51004
-0.449841
0.143379
-0.330693
-1.627727
1.123613
0.381275
-1.638858
1.297016
-0.753857
1.556913
-0.234373
-2.57133
-0.612707
-0.971587
-0.864741
-1.096374
-1.215995
0.857074
-0.354476
3.018273
-1.239408
0.385392
0.539876
-0.117448
-1.28129
-0.779155
0.515929
-0.713052
-1.504506
-1.336121
-1.138236
1.141357
-0.7163
-0.200867
-1.780288
0.418061
-0.655086
-1.511686
-0.886182
-0.80734
-0.2595
-0.031044
-0.12356
-0.906792
-0.849704
-0.748776
0.265473
0.057229
-0.903378
-1.788792
-1.047694
-2.913418
0.482592
0.408246
0.103459
-0.281676
-0.474903
-0.170371
-0.332479
-1.038526
-0.440076
-0.757231
0.479563
-0.20877
-0.069174
-0.902943
0.096775
-1.54626
1.447858
0.110534
0.309882
0.640935
0
