6.901434
-1.255051
-1.525657
-0.898432
-1.472078
6.153509
-1.387002
-0.876652
1.436939
-3.048625
2.165005
0.153628
1.002147
-4.527179
-2.235925
1.195941
0.921957
-2.748346
-0.151203
0.494369
3.603459
-5.848839
2.733918
-3.403224
-5.639143
2.813769
-0.914385
-1.158269
-2.97408
-3.75258
-1.063741
1.458944
1.947758
2.401218
-3.267486
-1.459829
-1.268663
-6.633818
9.070778
-0.753803
1.900905
-1.643255
2.043787
0.043836
0.628482
-3.998646
-4.249471
0.611593
-2.634896
0.406772
0.568649
2.699937
-1.518645
1.382175
1.224772
0.89978
-2.114505
-3.435507
-2.445879
0.013793
-2.222303
1.505613
-2.195694
-0.113264
1.379737
-1.532356
-0.22736
-1.741005
-3.397749
-0.182896
-1.291716
1.134191
0.752256
-3.135372
-2.679553
0.175548
4.015699
1.508105
-3.562321
-1.640146
3.956769
-2.956772
-4.856572
-0.772587
0.221928
0.616301
0.408532
-0.521047
-0.146326
-1.006452
2.753555
1.373024
-0.931419
-6.020381
1.821684
-6.902331
-0.708695
-3.65044
1.731114
0.679723
2.984813
0.343446
5.454327
0.514333
2.786398
-1.889827
-1.749764
-2.291599
2.7588
-0.146873
-2.342766
4.557417
1.415187
-0.971014
3.326921
-5.604088
2.910334
1.238344
0.269846
-2.347913
0.618674
1.265706
2.828313
2.260723
-1.351343
-0.083979
-5.763265
1.185029
-2.953018
-0.90453
-3.697321
0.200983
-0.550059
-3.692302
-2.10292
-0.591445
4.629962
0.108002
-0.823984
0.861464
1.207381
-8.282406
-3.46949
-1.000963
0.205868
-2.046664
0.571672
-2.77056
-8.028642
4.204934
-1.633593
0.480945
0.834006
-3.181718
-1.481816
-0.937227
-3.529299
-4.062436
0.366338
2.157106
-0.546564
1.23135
0.514321
-4.448226
-3.286051
-0.160093
-4.371052
-5.650991
-2.926124
-0.774025
4.225507
-0.404398
-1.817229
-1.563604
-7.055762
-1.310329
1.229319
1.269948
3.512731
-0.301383
-2.232985
-5.731559
1.930537
0.551177
0.968737
-0.711393
-1.115189
1.234104
-1.98893
-3.73653
0.723064
-0.757231
0.479563
-0.20877
-0.069174
-0.902943
0.096775
-1.54626
1.447858
0.110534
0.309882
0.640935
0
