2.965953
2.227909
-3.807555
7.189373
2.611413
-10.044377
0.339493
-1.580617
-0.119078
3.346784
-2.651573
3.771869
1.269993
-0.121951
0.574754
-2.362753
-3.97154
0.587784
-7.28537
-3.972153
1.080809
-5.433305
3.767798
-3.226963
-4.914062
4.873751
-8.680706
1.169255
1.480854
-1.779743
-0.582223
-3.979747
3.639216
-4.030731
0.883922
-4.123065
0.178479
-0.723154
-0.358873
-5.702107
-3.189141
-3.690387
4.092898
-2.772954
5.25144
16.772874
0.160711
-1.773139
-5.362001
1.070409
1.893813
-5.502937
-1.857959
-0.04242
-6.051023
-1.434664
-3.272968
-1.512687
4.486797
-5.540502
11.45516
3.607363
-5.356442
-1.611336
-0.138812
6.14075
0.299447
6.309527
-4.18876
-1.111238
3.69536
0.971062
-2.788093
1.038972
1.651732
-1.529547
0.909056
-2.937202
3.804007
-5.391507
2.320267
0.363229
0.874775
-0.108563
0.566932
2.320307
3.844125
-5.008278
-3.693206
4.559719
2.237993
-0.659056
-2.200846
1.121159
-2.740745
-2.547345
-0.867215
0.992404
-5.708511
-1.039544
0.896711
2.810398
-0.054063
2.25909
1.816918
-1.306452
1.234363
-1.755923
3.472838
-4.582178
-4.055789
-1.709179
1.788849
-0.913029
0.760555
0.584023
-2.494019
2.971439
-0.727734
-1.95429
-6.257835
0.138431
0.467251
-0.630894
-0.304792
0.308635
-1.95821
0.609526
-1.600358
-5.421541
3.117124
2.425009
-0.609094
-0.686305
2.521926
0.424379
-3.106352
3.375502
-4.482853
-0.781264
0.654187
-5.374825
5.408204
1.650239
-0.059026
-6.638937
1.084663
-1.642393
6.562777
1.248404
-12.425448
-0.534016
-1.420068
-0.386526
7.161187
-3.388784
0.575123
-0.249488
-2.664136
-2.17659
-6.010995
1.578305
-1.023826
-0.609016
-0.462001
-5.319622
-4.002586
-4.419566
-2.024475
2.333463
-0.837222
1.517082
-8.647692
-1.239786
-5.139086
-0.168302
1.059552
1.644013
-10.262904
-0.319999
0.024189
-1.930329
1.254647
-2.986113
-11.787541
-0.58754
-9.712793
-2.801938
-2.817531
-3.061077
0.989988
0.127791
-5.181486
-0.682777
-2.064288
2.55672
-4.948072
-3.689751
-0.722373
1.895877
1.249325
-4.865947
-11.529628
-1.175518
-0.105329
-3.012139
-1.516745
1.656591
-0.479805
-0.783773
-5.847661
-1.335433
4.608876
-3.568474
-3.83142
-1.015277
-0.265792
1.984259
-3.557837
-3.485675
-5.125056
1.241561
-0.332024
0.645422
0.3903
1.98513
0.325349
-0.96699
0.348991
-0.985272
1.673833
0.36548
0
